NEAT_ParametersStart
PopulationSize 150
DynamicCompatibility true
MinSpecies 10
MaxSpecies 15
InnovationsForever false
AllowClones true
YoungAgeTreshold 5
YoungAgeFitnessBoost 1.10000000000000008882
SpeciesDropoffAge 15
StagnationDelta 0.00000000000000000000
OldAgeTreshold 30
OldAgePenalty 1.10000000000000008882
DetectCompetetiveCoevolutionStagnation false
KillWorstSpeciesEach 15
KillWorstAge 10
SurvivalRate 0.20000000000000001110
CrossoverRate 0.69999999999999995559
OverallMutationRate 0.25000000000000000000
InterspeciesCrossoverRate 0.00010000000000000000
MultipointCrossoverRate 0.65000000000000002220
RouletteWheelSelection false
PhasedSearching false
DeltaCoding false
SimplifyingPhaseMPCTreshold 20
SimplifyingPhaseStagnationTreshold 30
ComplexityFloorGenerations 40
NoveltySearch_K 15
NoveltySearch_P_min 0.50000000000000000000
NoveltySearch_Dynamic_Pmin true
NoveltySearch_No_Archiving_Stagnation_Treshold 150
NoveltySearch_Pmin_lowering_multiplier 0.90000000000000002220
NoveltySearch_Pmin_min 0.05000000000000000278
NoveltySearch_Quick_Archiving_Min_Evaluations 8
NoveltySearch_Pmin_raising_multiplier 1.10000000000000008882
NoveltySearch_Recompute_Sparseness_Each 25
MutateAddNeuronProb 0.04000000000000000083
SplitRecurrent true
SplitLoopedRecurrent true
NeuronTries 4
MutateAddLinkProb 0.40000000000000002220
MutateAddLinkFromBiasProb 0.00000000000000000000
MutateRemLinkProb 0.10000000000000000555
MutateRemSimpleNeuronProb 0.10000000000000000555
LinkTries 32
RecurrentProb 0.50000000000000000000
RecurrentLoopProb 0.25000000000000000000
MutateWeightsProb 0.80000000000000004441
MutateWeightsSevereProb 0.50000000000000000000
WeightMutationRate 0.95999999999999996447
WeightMutationMaxPower 0.50000000000000000000
WeightReplacementMaxPower 1.00000000000000000000
MaxWeight 3.00000000000000000000
MutateActivationAProb 0.10000000000000000555
MutateActivationBProb 0.10000000000000000555
ActivationAMutationMaxPower 0.00000000000000000000
ActivationBMutationMaxPower 0.00000000000000000000
TimeConstantMutationMaxPower 0.10000000000000000555
BiasMutationMaxPower 0.50000000000000000000
MinActivationA 1.00000000000000000000
MaxActivationA 6.00000000000000000000
MinActivationB 0.00000000000000000000
MaxActivationB 0.00000000000000000000
MutateNeuronActivationTypeProb 0.14999999999999999445
ActivationFunction_SignedSigmoid_Prob 1.00000000000000000000
ActivationFunction_UnsignedSigmoid_Prob 0.00000000000000000000
ActivationFunction_Tanh_Prob 1.00000000000000000000
ActivationFunction_TanhCubic_Prob 1.00000000000000000000
ActivationFunction_SignedStep_Prob 1.00000000000000000000
ActivationFunction_UnsignedStep_Prob 0.00000000000000000000
ActivationFunction_SignedGauss_Prob 1.00000000000000000000
ActivationFunction_UnsignedGauss_Prob 0.00000000000000000000
ActivationFunction_Abs_Prob 1.00000000000000000000
ActivationFunction_SignedSine_Prob 1.00000000000000000000
ActivationFunction_UnsignedSine_Prob 0.00000000000000000000
ActivationFunction_Linear_Prob 1.00000000000000000000
ActivationFunction_Relu_Prob 0.00000000000000000000
ActivationFunction_Softplus_Prob 0.00000000000000000000
MutateNeuronTimeConstantsProb 0.10000000000000000555
MutateNeuronBiasesProb 0.10000000000000000555
MinNeuronTimeConstant 0.00000000000000000000
MaxNeuronTimeConstant 0.00000000000000000000
MinNeuronBias -3.00000000000000000000
MaxNeuronBias 3.00000000000000000000
DontUseBiasNeuron false
AllowLoops false
DisjointCoeff 1.00000000000000000000
ExcessCoeff 1.00000000000000000000
ActivationADiffCoeff 0.00000000000000000000
ActivationBDiffCoeff 0.00000000000000000000
WeightDiffCoeff 1.00000000000000000000
TimeConstantDiffCoeff 0.00000000000000000000
BiasDiffCoeff 0.00000000000000000000
ActivationFunctionDiffCoeff 1.00000000000000000000
CompatTreshold 2.70000000000000017764
MinCompatTreshold 0.20000000000000001110
CompatTresholdModifier 0.29999999999999998890
CompatTreshChangeInterval_Generations 1
CompatTreshChangeInterval_Evaluations 10
DivisionThreshold 0.02999999999999999889
VarianceThreshold 0.05000000000000000278
BandThreshold 0.28000000000000002665
InitialDepth 3
MaxDepth 4
IterationLevel 2
TournamentSize 4
CPPN_Bias 1.00000000000000000000
Width 1.19999999999999995559
Height 0.59999999999999997780
Qtree_X 0.00000000000000000000
Qtree_Y 0.00000000000000000000
Leo false
LeoThreshold 0.10000000000000000555
LeoSeed false
GeometrySeed false
Elitism 0.10000000000000000555
NEAT_ParametersEnd
InnovationDatabaseStart
NextInnovNum: 5457
NextNeuronID: 421
InnovationDatabaseEnd

GenomeStart 42606
Neuron 1 1 0.00000000 1 0.00000000 0.00000000 0.00000000 0.00000000
Neuron 2 1 0.00000000 1 0.00000000 0.00000000 0.00000000 0.00000000
Neuron 3 1 0.00000000 1 0.00000000 0.00000000 0.00000000 0.00000000
Neuron 4 1 0.00000000 1 0.00000000 0.00000000 0.00000000 0.00000000
Neuron 5 1 0.00000000 1 0.00000000 0.00000000 0.00000000 0.00000000
Neuron 6 1 0.00000000 1 0.00000000 0.00000000 0.00000000 0.00000000
Neuron 7 2 0.00000000 1 0.00000000 0.00000000 0.00000000 0.00000000
Neuron 8 4 1.00000000 9 3.50000000 0.00000000 0.00000000 -0.77017076
Neuron 9 4 1.00000000 9 3.50000000 0.00000000 0.00000000 -0.53073164
Neuron 12 3 0.50000000 2 2.06444028 0.00000000 0.00000000 -0.10848011
Neuron 73 3 0.75000000 8 5.75398651 0.00000000 0.00000000 -0.32738235
Neuron 210 3 0.50000000 3 2.39546831 0.00000000 0.00000000 0.21616832
Neuron 216 3 0.75000000 11 3.69475434 0.00000000 0.00000000 1.01181822
Neuron 371 3 0.25000000 11 2.94255540 0.00000000 0.00000000 0.12456696
Neuron 373 3 0.75000000 8 3.43528569 0.00000000 0.00000000 0.52814192
Neuron 383 3 0.50000000 8 5.26227851 0.00000000 0.00000000 0.17566226
Neuron 389 3 0.62500000 0 1.58258368 0.00000000 0.00000000 0.40097204
Link 2 8 2 0 -1.35367774
Link 3 8 3 0 0.12525023
Link 7 8 7 0 -2.18596365
Link 1 9 8 0 0.66016617
Link 3 9 10 0 1.32584496
Link 6 9 13 0 0.72717479
Link 7 9 14 0 1.99392843
Link 73 8 749 0 -0.02273657
Link 9 12 825 0 1.00000000
Link 4 210 2326 0 1.00000000
Link 216 9 2421 0 -0.24300085
Link 2 216 2492 0 1.00000000
Link 3 216 2514 0 -0.09897377
Link 210 12 3604 0 0.07282934
Link 2 371 4806 0 1.00000000
Link 371 210 4807 0 0.04276624
Link 210 373 4847 0 1.00000000
Link 373 9 4848 0 -1.05408220
Link 373 216 4889 0 -0.73568564
Link 4 216 4919 0 0.24654012
Link 1 383 4972 0 1.00000000
Link 383 8 4973 0 -2.01061879
Link 371 216 5017 0 -0.19909484
Link 12 389 5031 0 1.00000000
Link 389 73 5032 0 1.00000000
Link 210 8 5236 0 0.36251236
GenomeEnd

GenomeStart 42607
Neuron 1 1 0.00000000 1 0.00000000 0.00000000 0.00000000 0.00000000
Neuron 2 1 0.00000000 1 0.00000000 0.00000000 0.00000000 0.00000000
Neuron 3 1 0.00000000 1 0.00000000 0.00000000 0.00000000 0.00000000
Neuron 4 1 0.00000000 1 0.00000000 0.00000000 0.00000000 0.00000000
Neuron 5 1 0.00000000 1 0.00000000 0.00000000 0.00000000 0.00000000
Neuron 6 1 0.00000000 1 0.00000000 0.00000000 0.00000000 0.00000000
Neuron 7 2 0.00000000 1 0.00000000 0.00000000 0.00000000 0.00000000
Neuron 8 4 1.00000000 9 3.50000000 0.00000000 0.00000000 -0.77017076
Neuron 9 4 1.00000000 9 3.50000000 0.00000000 0.00000000 -0.53073164
Neuron 12 3 0.50000000 2 2.06444028 0.00000000 0.00000000 -0.10848011
Neuron 73 3 0.75000000 8 5.75398651 0.00000000 0.00000000 -0.32738235
Neuron 210 3 0.50000000 3 2.39546831 0.00000000 0.00000000 0.21616832
Neuron 216 3 0.75000000 11 3.69475434 0.00000000 0.00000000 1.01181822
Neuron 371 3 0.25000000 11 2.94255540 0.00000000 0.00000000 0.12456696
Neuron 373 3 0.75000000 8 3.43528569 0.00000000 0.00000000 0.52814192
Neuron 383 3 0.50000000 8 5.26227851 0.00000000 0.00000000 0.17566226
Neuron 389 3 0.62500000 0 1.58258368 0.00000000 0.00000000 0.40097204
Link 2 8 2 0 -1.35367774
Link 3 8 3 0 0.12525023
Link 7 8 7 0 -2.18596365
Link 1 9 8 0 0.66016617
Link 3 9 10 0 1.32584496
Link 6 9 13 0 0.72717479
Link 7 9 14 0 1.99392843
Link 73 8 749 0 -0.02273657
Link 9 12 825 0 1.00000000
Link 4 210 2326 0 1.00000000
Link 216 9 2421 0 -0.24300085
Link 2 216 2492 0 1.00000000
Link 3 216 2514 0 -0.09897377
Link 210 12 3604 0 0.07282934
Link 2 371 4806 0 1.00000000
Link 371 210 4807 0 0.04276624
Link 210 373 4847 0 1.00000000
Link 373 9 4848 0 -1.05408220
Link 373 216 4889 0 -0.73568564
Link 4 216 4919 0 0.24654012
Link 1 383 4972 0 1.00000000
Link 383 8 4973 0 -2.01061879
Link 371 216 5017 0 -0.19909484
Link 12 389 5031 0 1.00000000
Link 389 73 5032 0 1.00000000
Link 210 8 5236 0 0.36251236
Link 4 371 5413 0 -0.29040259
GenomeEnd

GenomeStart 42609
Neuron 1 1 0.00000000 1 0.00000000 0.00000000 0.00000000 0.00000000
Neuron 2 1 0.00000000 1 0.00000000 0.00000000 0.00000000 0.00000000
Neuron 3 1 0.00000000 1 0.00000000 0.00000000 0.00000000 0.00000000
Neuron 4 1 0.00000000 1 0.00000000 0.00000000 0.00000000 0.00000000
Neuron 5 1 0.00000000 1 0.00000000 0.00000000 0.00000000 0.00000000
Neuron 6 1 0.00000000 1 0.00000000 0.00000000 0.00000000 0.00000000
Neuron 7 2 0.00000000 1 0.00000000 0.00000000 0.00000000 0.00000000
Neuron 8 4 1.00000000 9 3.50000000 0.00000000 0.00000000 -0.77017076
Neuron 9 4 1.00000000 9 3.50000000 0.00000000 0.00000000 -0.53073164
Neuron 12 3 0.50000000 2 2.06444028 0.00000000 0.00000000 -0.10848011
Neuron 73 3 0.75000000 8 5.75398651 0.00000000 0.00000000 -0.32738235
Neuron 210 3 0.50000000 3 2.39546831 0.00000000 0.00000000 0.21616832
Neuron 216 3 0.75000000 11 3.69475434 0.00000000 0.00000000 1.01181822
Neuron 371 3 0.25000000 11 2.94255540 0.00000000 0.00000000 0.12456696
Neuron 373 3 0.75000000 8 3.43528569 0.00000000 0.00000000 0.52814192
Neuron 383 3 0.50000000 8 5.26227851 0.00000000 0.00000000 0.17566226
Neuron 389 3 0.62500000 0 1.58258368 0.00000000 0.00000000 0.40097204
Link 2 8 2 0 -1.35367774
Link 3 8 3 0 0.12525023
Link 7 8 7 0 -2.18596365
Link 1 9 8 0 0.66016617
Link 3 9 10 0 1.32584496
Link 6 9 13 0 0.72717479
Link 7 9 14 0 1.99392843
Link 73 8 749 0 -0.02273657
Link 9 12 825 0 1.00000000
Link 4 210 2326 0 1.00000000
Link 216 9 2421 0 -0.24300085
Link 2 216 2492 0 1.00000000
Link 3 216 2514 0 -0.09897377
Link 210 12 3604 0 0.07282934
Link 2 371 4806 0 1.00000000
Link 371 210 4807 0 0.04276624
Link 210 373 4847 0 1.00000000
Link 373 9 4848 0 -1.05408220
Link 373 216 4889 0 -0.73568564
Link 4 216 4919 0 0.24654012
Link 1 383 4972 0 1.00000000
Link 383 8 4973 0 -2.01061879
Link 371 216 5017 0 -0.19909484
Link 12 389 5031 0 1.00000000
Link 389 73 5032 0 1.00000000
Link 210 8 5236 0 0.36251236
Link 4 371 5413 0 -0.29040259
Link 4 9 5430 0 -0.49248553
GenomeEnd

GenomeStart 42610
Neuron 1 1 0.00000000 1 0.00000000 0.00000000 0.00000000 0.00000000
Neuron 2 1 0.00000000 1 0.00000000 0.00000000 0.00000000 0.00000000
Neuron 3 1 0.00000000 1 0.00000000 0.00000000 0.00000000 0.00000000
Neuron 4 1 0.00000000 1 0.00000000 0.00000000 0.00000000 0.00000000
Neuron 5 1 0.00000000 1 0.00000000 0.00000000 0.00000000 0.00000000
Neuron 6 1 0.00000000 1 0.00000000 0.00000000 0.00000000 0.00000000
Neuron 7 2 0.00000000 1 0.00000000 0.00000000 0.00000000 0.00000000
Neuron 8 4 1.00000000 9 3.50000000 0.00000000 0.00000000 -0.77017076
Neuron 9 4 1.00000000 9 3.50000000 0.00000000 0.00000000 -0.53073164
Neuron 12 3 0.50000000 2 2.06444028 0.00000000 0.00000000 -0.10848011
Neuron 73 3 0.75000000 8 5.75398651 0.00000000 0.00000000 -0.32738235
Neuron 210 3 0.50000000 3 2.39546831 0.00000000 0.00000000 0.21616832
Neuron 216 3 0.75000000 11 3.69475434 0.00000000 0.00000000 1.01181822
Neuron 371 3 0.25000000 11 2.94255540 0.00000000 0.00000000 0.12456696
Neuron 373 3 0.75000000 8 3.43528569 0.00000000 0.00000000 0.52814192
Neuron 383 3 0.50000000 8 5.26227851 0.00000000 0.00000000 0.17566226
Neuron 389 3 0.62500000 0 1.58258368 0.00000000 0.00000000 0.40097204
Link 2 8 2 0 -1.35367774
Link 3 8 3 0 0.12525023
Link 7 8 7 0 -2.18596365
Link 1 9 8 0 0.66016617
Link 3 9 10 0 1.32584496
Link 6 9 13 0 0.72717479
Link 7 9 14 0 1.99392843
Link 73 8 749 0 -0.02273657
Link 9 12 825 0 1.00000000
Link 4 210 2326 0 1.00000000
Link 216 9 2421 0 -0.24300085
Link 2 216 2492 0 1.00000000
Link 3 216 2514 0 -0.09897377
Link 210 12 3604 0 0.07282934
Link 2 371 4806 0 1.00000000
Link 371 210 4807 0 0.04276624
Link 210 373 4847 0 1.00000000
Link 373 9 4848 0 -1.05408220
Link 373 216 4889 0 -0.73568564
Link 4 216 4919 0 0.24654012
Link 1 383 4972 0 1.00000000
Link 383 8 4973 0 -2.01061879
Link 371 216 5017 0 -0.19909484
Link 12 389 5031 0 1.00000000
Link 389 73 5032 0 1.00000000
Link 210 8 5236 0 0.36251236
GenomeEnd

GenomeStart 42611
Neuron 1 1 0.00000000 1 0.00000000 0.00000000 0.00000000 0.00000000
Neuron 2 1 0.00000000 1 0.00000000 0.00000000 0.00000000 0.00000000
Neuron 3 1 0.00000000 1 0.00000000 0.00000000 0.00000000 0.00000000
Neuron 4 1 0.00000000 1 0.00000000 0.00000000 0.00000000 0.00000000
Neuron 5 1 0.00000000 1 0.00000000 0.00000000 0.00000000 0.00000000
Neuron 6 1 0.00000000 1 0.00000000 0.00000000 0.00000000 0.00000000
Neuron 7 2 0.00000000 1 0.00000000 0.00000000 0.00000000 0.00000000
Neuron 8 4 1.00000000 9 3.50000000 0.00000000 0.00000000 -0.77017076
Neuron 9 4 1.00000000 9 3.50000000 0.00000000 0.00000000 -0.53073164
Neuron 12 3 0.50000000 2 2.06444028 0.00000000 0.00000000 -0.10848011
Neuron 73 3 0.75000000 8 5.75398651 0.00000000 0.00000000 -0.32738235
Neuron 210 3 0.50000000 3 2.39546831 0.00000000 0.00000000 0.21616832
Neuron 216 3 0.75000000 11 3.69475434 0.00000000 0.00000000 1.01181822
Neuron 371 3 0.25000000 11 2.94255540 0.00000000 0.00000000 0.12456696
Neuron 373 3 0.75000000 8 3.43528569 0.00000000 0.00000000 0.52814192
Neuron 383 3 0.50000000 8 5.26227851 0.00000000 0.00000000 0.17566226
Neuron 389 3 0.62500000 0 1.58258368 0.00000000 0.00000000 0.40097204
Link 2 8 2 0 -1.35367774
Link 3 8 3 0 0.12525023
Link 7 8 7 0 -2.18596365
Link 1 9 8 0 0.66016617
Link 3 9 10 0 1.32584496
Link 6 9 13 0 0.72717479
Link 7 9 14 0 1.99392843
Link 73 8 749 0 -0.02273657
Link 9 12 825 0 1.00000000
Link 4 210 2326 0 1.00000000
Link 216 9 2421 0 -0.24300085
Link 2 216 2492 0 1.00000000
Link 3 216 2514 0 -0.09897377
Link 210 12 3604 0 0.07282934
Link 2 371 4806 0 1.00000000
Link 371 210 4807 0 0.04276624
Link 210 373 4847 0 1.00000000
Link 373 9 4848 0 -1.05408220
Link 373 216 4889 0 -0.73568564
Link 4 216 4919 0 0.24654012
Link 1 383 4972 0 1.00000000
Link 383 8 4973 0 -2.01061879
Link 371 216 5017 0 -0.19909484
Link 12 389 5031 0 1.00000000
Link 389 73 5032 0 1.00000000
Link 210 8 5236 0 0.36251236
GenomeEnd

GenomeStart 42612
Neuron 1 1 0.00000000 1 0.00000000 0.00000000 0.00000000 0.00000000
Neuron 2 1 0.00000000 1 0.00000000 0.00000000 0.00000000 0.00000000
Neuron 3 1 0.00000000 1 0.00000000 0.00000000 0.00000000 0.00000000
Neuron 4 1 0.00000000 1 0.00000000 0.00000000 0.00000000 0.00000000
Neuron 5 1 0.00000000 1 0.00000000 0.00000000 0.00000000 0.00000000
Neuron 6 1 0.00000000 1 0.00000000 0.00000000 0.00000000 0.00000000
Neuron 7 2 0.00000000 1 0.00000000 0.00000000 0.00000000 0.00000000
Neuron 8 4 1.00000000 9 3.50000000 0.00000000 0.00000000 -0.77017076
Neuron 9 4 1.00000000 9 3.50000000 0.00000000 0.00000000 -0.53073164
Neuron 12 3 0.50000000 2 2.06444028 0.00000000 0.00000000 -0.10848011
Neuron 73 3 0.75000000 8 5.75398651 0.00000000 0.00000000 -0.32738235
Neuron 210 3 0.50000000 3 2.39546831 0.00000000 0.00000000 0.21616832
Neuron 216 3 0.75000000 11 3.69475434 0.00000000 0.00000000 1.01181822
Neuron 371 3 0.25000000 11 2.94255540 0.00000000 0.00000000 0.12456696
Neuron 373 3 0.75000000 8 3.43528569 0.00000000 0.00000000 0.52814192
Neuron 383 3 0.50000000 8 5.26227851 0.00000000 0.00000000 0.17566226
Neuron 389 3 0.62500000 0 1.58258368 0.00000000 0.00000000 0.40097204
Link 2 8 2 0 -1.35367774
Link 3 8 3 0 0.12525023
Link 7 8 7 0 -2.18596365
Link 1 9 8 0 0.66016617
Link 3 9 10 0 1.32584496
Link 6 9 13 0 0.72717479
Link 7 9 14 0 1.99392843
Link 73 8 749 0 -0.02273657
Link 9 12 825 0 1.00000000
Link 4 210 2326 0 1.00000000
Link 216 9 2421 0 -0.24300085
Link 2 216 2492 0 1.00000000
Link 3 216 2514 0 -0.09897377
Link 210 12 3604 0 0.07282934
Link 2 371 4806 0 1.00000000
Link 371 210 4807 0 0.04276624
Link 210 373 4847 0 1.00000000
Link 373 9 4848 0 -1.05408220
Link 373 216 4889 0 -0.73568564
Link 4 216 4919 0 0.24654012
Link 1 383 4972 0 1.00000000
Link 383 8 4973 0 -2.01061879
Link 371 216 5017 0 -0.19909484
Link 12 389 5031 0 1.00000000
Link 389 73 5032 0 1.00000000
Link 210 8 5236 0 0.36251236
GenomeEnd

GenomeStart 42613
Neuron 1 1 0.00000000 1 0.00000000 0.00000000 0.00000000 0.00000000
Neuron 2 1 0.00000000 1 0.00000000 0.00000000 0.00000000 0.00000000
Neuron 3 1 0.00000000 1 0.00000000 0.00000000 0.00000000 0.00000000
Neuron 4 1 0.00000000 1 0.00000000 0.00000000 0.00000000 0.00000000
Neuron 5 1 0.00000000 1 0.00000000 0.00000000 0.00000000 0.00000000
Neuron 6 1 0.00000000 1 0.00000000 0.00000000 0.00000000 0.00000000
Neuron 7 2 0.00000000 1 0.00000000 0.00000000 0.00000000 0.00000000
Neuron 8 4 1.00000000 9 3.50000000 0.00000000 0.00000000 -0.77017076
Neuron 9 4 1.00000000 9 3.50000000 0.00000000 0.00000000 -0.53073164
Neuron 12 3 0.50000000 2 2.06444028 0.00000000 0.00000000 -0.10848011
Neuron 73 3 0.75000000 8 5.75398651 0.00000000 0.00000000 -0.32738235
Neuron 210 3 0.50000000 3 2.39546831 0.00000000 0.00000000 0.21616832
Neuron 216 3 0.75000000 11 3.69475434 0.00000000 0.00000000 1.01181822
Neuron 371 3 0.25000000 11 2.94255540 0.00000000 0.00000000 0.12456696
Neuron 373 3 0.75000000 8 3.43528569 0.00000000 0.00000000 0.52814192
Neuron 383 3 0.50000000 8 5.26227851 0.00000000 0.00000000 0.17566226
Neuron 389 3 0.62500000 0 1.58258368 0.00000000 0.00000000 0.40097204
Link 2 8 2 0 -1.47850440
Link 3 8 3 0 0.11752934
Link 7 8 7 0 -2.17096825
Link 1 9 8 0 0.24604274
Link 3 9 10 0 1.52024073
Link 6 9 13 0 0.64158474
Link 7 9 14 0 1.84649343
Link 73 8 749 0 0.24017585
Link 9 12 825 0 1.00000000
Link 4 210 2326 0 1.03579518
Link 216 9 2421 0 -0.15915871
Link 2 216 2492 0 0.95901549
Link 3 216 2514 0 -0.14767917
Link 210 12 3604 0 0.03911934
Link 2 371 4806 0 1.05216657
Link 371 210 4807 0 -0.21067142
Link 210 373 4847 0 0.32194457
Link 373 9 4848 0 -1.04054492
Link 373 216 4889 0 -0.95923593
Link 4 216 4919 0 0.62809337
Link 1 383 4972 0 0.63935622
Link 383 8 4973 0 -2.07056028
Link 371 216 5017 0 -0.22942352
Link 12 389 5031 0 1.00611217
Link 389 73 5032 0 0.98560315
Link 210 8 5236 0 0.45814103
GenomeEnd

GenomeStart 42614
Neuron 1 1 0.00000000 1 0.00000000 0.00000000 0.00000000 0.00000000
Neuron 2 1 0.00000000 1 0.00000000 0.00000000 0.00000000 0.00000000
Neuron 3 1 0.00000000 1 0.00000000 0.00000000 0.00000000 0.00000000
Neuron 4 1 0.00000000 1 0.00000000 0.00000000 0.00000000 0.00000000
Neuron 5 1 0.00000000 1 0.00000000 0.00000000 0.00000000 0.00000000
Neuron 6 1 0.00000000 1 0.00000000 0.00000000 0.00000000 0.00000000
Neuron 7 2 0.00000000 1 0.00000000 0.00000000 0.00000000 0.00000000
Neuron 8 4 1.00000000 9 3.50000000 0.00000000 0.00000000 -0.77017076
Neuron 9 4 1.00000000 9 3.50000000 0.00000000 0.00000000 -0.53073164
Neuron 12 3 0.50000000 2 2.06444028 0.00000000 0.00000000 -0.10848011
Neuron 73 3 0.75000000 8 5.75398651 0.00000000 0.00000000 -0.32738235
Neuron 210 3 0.50000000 3 2.39546831 0.00000000 0.00000000 0.21616832
Neuron 216 3 0.75000000 11 3.69475434 0.00000000 0.00000000 1.01181822
Neuron 371 3 0.25000000 11 2.94255540 0.00000000 0.00000000 0.12456696
Neuron 373 3 0.75000000 8 3.43528569 0.00000000 0.00000000 0.52814192
Neuron 383 3 0.50000000 8 5.26227851 0.00000000 0.00000000 0.17566226
Neuron 389 3 0.62500000 0 1.58258368 0.00000000 0.00000000 0.40097204
Link 2 8 2 0 -1.35367774
Link 3 8 3 0 0.12525023
Link 7 8 7 0 -2.18596365
Link 1 9 8 0 0.66016617
Link 3 9 10 0 1.32584496
Link 6 9 13 0 0.72717479
Link 7 9 14 0 1.99392843
Link 73 8 749 0 -0.02273657
Link 9 12 825 0 1.00000000
Link 4 210 2326 0 1.00000000
Link 216 9 2421 0 -0.24300085
Link 2 216 2492 0 1.00000000
Link 3 216 2514 0 -0.09897377
Link 210 12 3604 0 0.07282934
Link 2 371 4806 0 1.00000000
Link 371 210 4807 0 0.04276624
Link 210 373 4847 0 1.00000000
Link 373 9 4848 0 -1.05408220
Link 373 216 4889 0 -0.73568564
Link 4 216 4919 0 0.24654012
Link 1 383 4972 0 1.00000000
Link 383 8 4973 0 -2.01061879
Link 371 216 5017 0 -0.19909484
Link 12 389 5031 0 1.00000000
Link 389 73 5032 0 1.00000000
Link 210 8 5236 0 0.36251236
Link 2 12 5431 0 -0.66091151
GenomeEnd

GenomeStart 42615
Neuron 1 1 0.00000000 1 0.00000000 0.00000000 0.00000000 0.00000000
Neuron 2 1 0.00000000 1 0.00000000 0.00000000 0.00000000 0.00000000
Neuron 3 1 0.00000000 1 0.00000000 0.00000000 0.00000000 0.00000000
Neuron 4 1 0.00000000 1 0.00000000 0.00000000 0.00000000 0.00000000
Neuron 5 1 0.00000000 1 0.00000000 0.00000000 0.00000000 0.00000000
Neuron 6 1 0.00000000 1 0.00000000 0.00000000 0.00000000 0.00000000
Neuron 7 2 0.00000000 1 0.00000000 0.00000000 0.00000000 0.00000000
Neuron 8 4 1.00000000 9 3.50000000 0.00000000 0.00000000 -0.77017076
Neuron 9 4 1.00000000 9 3.50000000 0.00000000 0.00000000 -0.53073164
Neuron 12 3 0.50000000 2 2.06444028 0.00000000 0.00000000 -0.10848011
Neuron 73 3 0.75000000 8 5.75398651 0.00000000 0.00000000 -0.32738235
Neuron 210 3 0.50000000 3 2.39546831 0.00000000 0.00000000 0.21616832
Neuron 216 3 0.75000000 11 3.69475434 0.00000000 0.00000000 1.01181822
Neuron 371 3 0.25000000 11 2.94255540 0.00000000 0.00000000 0.12456696
Neuron 373 3 0.75000000 8 3.43528569 0.00000000 0.00000000 0.52814192
Neuron 383 3 0.50000000 8 5.26227851 0.00000000 0.00000000 0.17566226
Neuron 389 3 0.62500000 0 1.58258368 0.00000000 0.00000000 0.40097204
Link 2 8 2 0 -1.35367774
Link 3 8 3 0 0.12525023
Link 7 8 7 0 -2.18596365
Link 1 9 8 0 0.66016617
Link 3 9 10 0 1.32584496
Link 6 9 13 0 0.72717479
Link 7 9 14 0 1.99392843
Link 73 8 749 0 -0.02273657
Link 9 12 825 0 1.00000000
Link 4 210 2326 0 1.00000000
Link 216 9 2421 0 -0.24300085
Link 2 216 2492 0 1.00000000
Link 3 216 2514 0 -0.09897377
Link 210 12 3604 0 0.07282934
Link 2 371 4806 0 1.00000000
Link 371 210 4807 0 0.04276624
Link 210 373 4847 0 1.00000000
Link 373 9 4848 0 -1.05408220
Link 373 216 4889 0 -0.73568564
Link 4 216 4919 0 0.24654012
Link 1 383 4972 0 1.00000000
Link 383 8 4973 0 -2.01061879
Link 371 216 5017 0 -0.19909484
Link 12 389 5031 0 1.00000000
Link 389 73 5032 0 1.00000000
Link 210 8 5236 0 0.36251236
Link 216 12 5432 1 -0.07928821
GenomeEnd

GenomeStart 42616
Neuron 1 1 0.00000000 1 0.00000000 0.00000000 0.00000000 0.00000000
Neuron 2 1 0.00000000 1 0.00000000 0.00000000 0.00000000 0.00000000
Neuron 3 1 0.00000000 1 0.00000000 0.00000000 0.00000000 0.00000000
Neuron 4 1 0.00000000 1 0.00000000 0.00000000 0.00000000 0.00000000
Neuron 5 1 0.00000000 1 0.00000000 0.00000000 0.00000000 0.00000000
Neuron 6 1 0.00000000 1 0.00000000 0.00000000 0.00000000 0.00000000
Neuron 7 2 0.00000000 1 0.00000000 0.00000000 0.00000000 0.00000000
Neuron 8 4 1.00000000 9 3.50000000 0.00000000 0.00000000 -0.77017076
Neuron 9 4 1.00000000 9 3.50000000 0.00000000 0.00000000 -0.53073164
Neuron 12 3 0.50000000 2 2.06444028 0.00000000 0.00000000 -0.10848011
Neuron 73 3 0.75000000 8 5.75398651 0.00000000 0.00000000 -0.32738235
Neuron 210 3 0.50000000 3 2.39546831 0.00000000 0.00000000 0.21616832
Neuron 216 3 0.75000000 11 3.69475434 0.00000000 0.00000000 1.01181822
Neuron 371 3 0.25000000 11 2.94255540 0.00000000 0.00000000 0.12456696
Neuron 373 3 0.75000000 8 3.43528569 0.00000000 0.00000000 0.52814192
Neuron 383 3 0.50000000 8 5.26227851 0.00000000 0.00000000 0.17566226
Neuron 389 3 0.62500000 0 1.58258368 0.00000000 0.00000000 0.40097204
Link 2 8 2 0 -1.35367774
Link 3 8 3 0 0.12525023
Link 7 8 7 0 -2.18596365
Link 1 9 8 0 0.66016617
Link 3 9 10 0 1.32584496
Link 6 9 13 0 0.72717479
Link 7 9 14 0 1.99392843
Link 73 8 749 0 -0.02273657
Link 9 12 825 0 1.00000000
Link 4 210 2326 0 1.00000000
Link 216 9 2421 0 -0.24300085
Link 2 216 2492 0 1.00000000
Link 3 216 2514 0 -0.09897377
Link 210 12 3604 0 0.07282934
Link 2 371 4806 0 1.00000000
Link 371 210 4807 0 0.04276624
Link 210 373 4847 0 1.00000000
Link 373 9 4848 0 -1.05408220
Link 373 216 4889 0 -0.73568564
Link 4 216 4919 0 0.24654012
Link 1 383 4972 0 1.00000000
Link 383 8 4973 0 -2.01061879
Link 371 216 5017 0 -0.19909484
Link 12 389 5031 0 1.00000000
Link 389 73 5032 0 1.00000000
Link 210 8 5236 0 0.36251236
GenomeEnd

GenomeStart 42617
Neuron 1 1 0.00000000 1 0.00000000 0.00000000 0.00000000 0.00000000
Neuron 2 1 0.00000000 1 0.00000000 0.00000000 0.00000000 0.00000000
Neuron 3 1 0.00000000 1 0.00000000 0.00000000 0.00000000 0.00000000
Neuron 4 1 0.00000000 1 0.00000000 0.00000000 0.00000000 0.00000000
Neuron 5 1 0.00000000 1 0.00000000 0.00000000 0.00000000 0.00000000
Neuron 6 1 0.00000000 1 0.00000000 0.00000000 0.00000000 0.00000000
Neuron 7 2 0.00000000 1 0.00000000 0.00000000 0.00000000 0.00000000
Neuron 8 4 1.00000000 9 3.50000000 0.00000000 0.00000000 -0.77017076
Neuron 9 4 1.00000000 9 3.50000000 0.00000000 0.00000000 -0.53073164
Neuron 12 3 0.50000000 2 2.06444028 0.00000000 0.00000000 -0.10848011
Neuron 73 3 0.75000000 8 5.75398651 0.00000000 0.00000000 -0.32738235
Neuron 210 3 0.50000000 3 2.39546831 0.00000000 0.00000000 0.21616832
Neuron 216 3 0.75000000 11 3.69475434 0.00000000 0.00000000 1.01181822
Neuron 371 3 0.25000000 11 2.94255540 0.00000000 0.00000000 0.12456696
Neuron 373 3 0.75000000 8 3.43528569 0.00000000 0.00000000 0.52814192
Neuron 383 3 0.50000000 8 5.26227851 0.00000000 0.00000000 0.17566226
Neuron 389 3 0.62500000 0 1.58258368 0.00000000 0.00000000 0.40097204
Link 2 8 2 0 -1.35367774
Link 3 8 3 0 0.12525023
Link 7 8 7 0 -2.18596365
Link 1 9 8 0 0.66016617
Link 3 9 10 0 1.32584496
Link 6 9 13 0 0.72717479
Link 7 9 14 0 1.99392843
Link 73 8 749 0 -0.02273657
Link 9 12 825 0 1.00000000
Link 4 210 2326 0 1.00000000
Link 216 9 2421 0 -0.24300085
Link 2 216 2492 0 1.00000000
Link 3 216 2514 0 -0.09897377
Link 210 12 3604 0 0.07282934
Link 2 371 4806 0 1.00000000
Link 371 210 4807 0 0.04276624
Link 210 373 4847 0 1.00000000
Link 373 9 4848 0 -1.05408220
Link 373 216 4889 0 -0.73568564
Link 4 216 4919 0 0.24654012
Link 1 383 4972 0 1.00000000
Link 383 8 4973 0 -2.01061879
Link 371 216 5017 0 -0.19909484
Link 12 389 5031 0 1.00000000
Link 389 73 5032 0 1.00000000
Link 210 8 5236 0 0.36251236
GenomeEnd

GenomeStart 42618
Neuron 1 1 0.00000000 1 0.00000000 0.00000000 0.00000000 0.00000000
Neuron 2 1 0.00000000 1 0.00000000 0.00000000 0.00000000 0.00000000
Neuron 3 1 0.00000000 1 0.00000000 0.00000000 0.00000000 0.00000000
Neuron 4 1 0.00000000 1 0.00000000 0.00000000 0.00000000 0.00000000
Neuron 5 1 0.00000000 1 0.00000000 0.00000000 0.00000000 0.00000000
Neuron 6 1 0.00000000 1 0.00000000 0.00000000 0.00000000 0.00000000
Neuron 7 2 0.00000000 1 0.00000000 0.00000000 0.00000000 0.00000000
Neuron 8 4 1.00000000 9 3.50000000 0.00000000 0.00000000 -0.77017076
Neuron 9 4 1.00000000 9 3.50000000 0.00000000 0.00000000 -0.53073164
Neuron 12 3 0.50000000 2 2.06444028 0.00000000 0.00000000 -0.10848011
Neuron 73 3 0.75000000 8 5.75398651 0.00000000 0.00000000 -0.32738235
Neuron 210 3 0.50000000 3 2.39546831 0.00000000 0.00000000 0.21616832
Neuron 216 3 0.75000000 11 3.69475434 0.00000000 0.00000000 1.01181822
Neuron 371 3 0.25000000 11 2.94255540 0.00000000 0.00000000 0.12456696
Neuron 373 3 0.75000000 8 3.43528569 0.00000000 0.00000000 0.52814192
Neuron 383 3 0.50000000 8 5.26227851 0.00000000 0.00000000 0.17566226
Neuron 389 3 0.62500000 0 1.58258368 0.00000000 0.00000000 0.40097204
Link 2 8 2 0 -1.35367774
Link 3 8 3 0 0.12525023
Link 7 8 7 0 -2.18596365
Link 1 9 8 0 0.66016617
Link 3 9 10 0 1.32584496
Link 6 9 13 0 0.72717479
Link 7 9 14 0 1.99392843
Link 73 8 749 0 -0.02273657
Link 9 12 825 0 1.00000000
Link 4 210 2326 0 1.00000000
Link 216 9 2421 0 -0.24300085
Link 2 216 2492 0 1.00000000
Link 3 216 2514 0 -0.09897377
Link 2 371 4806 0 1.00000000
Link 371 210 4807 0 0.04276624
Link 210 373 4847 0 1.00000000
Link 373 9 4848 0 -1.05408220
Link 373 216 4889 0 -0.73568564
Link 4 216 4919 0 0.24654012
Link 1 383 4972 0 1.00000000
Link 383 8 4973 0 -2.01061879
Link 371 216 5017 0 -0.19909484
Link 12 389 5031 0 1.00000000
Link 389 73 5032 0 1.00000000
Link 210 8 5236 0 0.36251236
GenomeEnd

GenomeStart 42619
Neuron 1 1 0.00000000 1 0.00000000 0.00000000 0.00000000 0.00000000
Neuron 2 1 0.00000000 1 0.00000000 0.00000000 0.00000000 0.00000000
Neuron 3 1 0.00000000 1 0.00000000 0.00000000 0.00000000 0.00000000
Neuron 4 1 0.00000000 1 0.00000000 0.00000000 0.00000000 0.00000000
Neuron 5 1 0.00000000 1 0.00000000 0.00000000 0.00000000 0.00000000
Neuron 6 1 0.00000000 1 0.00000000 0.00000000 0.00000000 0.00000000
Neuron 7 2 0.00000000 1 0.00000000 0.00000000 0.00000000 0.00000000
Neuron 8 4 1.00000000 9 3.50000000 0.00000000 0.00000000 -0.77017076
Neuron 9 4 1.00000000 9 3.50000000 0.00000000 0.00000000 -0.53073164
Neuron 12 3 0.50000000 2 2.06444028 0.00000000 0.00000000 -0.10848011
Neuron 73 3 0.75000000 8 5.75398651 0.00000000 0.00000000 -0.32738235
Neuron 210 3 0.50000000 3 2.39546831 0.00000000 0.00000000 0.21616832
Neuron 216 3 0.75000000 11 3.69475434 0.00000000 0.00000000 1.01181822
Neuron 371 3 0.25000000 11 2.94255540 0.00000000 0.00000000 0.12456696
Neuron 373 3 0.75000000 8 3.43528569 0.00000000 0.00000000 0.52814192
Neuron 383 3 0.50000000 8 5.26227851 0.00000000 0.00000000 0.17566226
Neuron 389 3 0.62500000 0 1.58258368 0.00000000 0.00000000 0.40097204
Link 2 8 2 0 -1.01691624
Link 3 8 3 0 0.57108414
Link 7 8 7 0 -1.99626441
Link 1 9 8 0 0.97645403
Link 3 9 10 0 1.43649453
Link 6 9 13 0 0.72717479
Link 7 9 14 0 1.92848088
Link 73 8 749 0 0.25657732
Link 9 12 825 0 -0.08543876
Link 4 210 2326 0 1.21829800
Link 216 9 2421 0 -0.49666064
Link 2 216 2492 0 0.16620341
Link 3 216 2514 0 -0.07003815
Link 210 12 3604 0 0.29146419
Link 2 371 4806 0 0.06984544
Link 371 210 4807 0 0.18833853
Link 210 373 4847 0 1.04564843
Link 373 9 4848 0 -0.67262180
Link 373 216 4889 0 0.82183552
Link 4 216 4919 0 0.51637388
Link 1 383 4972 0 0.85485041
Link 383 8 4973 0 -2.23617828
Link 371 216 5017 0 -0.10682971
Link 12 389 5031 0 0.15142227
Link 389 73 5032 0 0.91667940
Link 210 8 5236 0 0.37628954
Link 4 371 5413 0 -0.54670915
GenomeEnd

GenomeStart 42620
Neuron 1 1 0.00000000 1 0.00000000 0.00000000 0.00000000 0.00000000
Neuron 2 1 0.00000000 1 0.00000000 0.00000000 0.00000000 0.00000000
Neuron 3 1 0.00000000 1 0.00000000 0.00000000 0.00000000 0.00000000
Neuron 4 1 0.00000000 1 0.00000000 0.00000000 0.00000000 0.00000000
Neuron 5 1 0.00000000 1 0.00000000 0.00000000 0.00000000 0.00000000
Neuron 6 1 0.00000000 1 0.00000000 0.00000000 0.00000000 0.00000000
Neuron 7 2 0.00000000 1 0.00000000 0.00000000 0.00000000 0.00000000
Neuron 8 4 1.00000000 9 3.50000000 0.00000000 0.00000000 -0.77017076
Neuron 9 4 1.00000000 9 3.50000000 0.00000000 0.00000000 -0.53073164
Neuron 12 3 0.50000000 2 2.06444028 0.00000000 0.00000000 -0.10848011
Neuron 73 3 0.75000000 8 5.75398651 0.00000000 0.00000000 -0.32738235
Neuron 210 3 0.50000000 3 2.39546831 0.00000000 0.00000000 0.21616832
Neuron 216 3 0.75000000 11 3.69475434 0.00000000 0.00000000 1.01181822
Neuron 371 3 0.25000000 11 2.94255540 0.00000000 0.00000000 0.12456696
Neuron 373 3 0.75000000 8 3.43528569 0.00000000 0.00000000 0.52814192
Neuron 383 3 0.50000000 8 5.26227851 0.00000000 0.00000000 0.17566226
Neuron 389 3 0.62500000 0 1.58258368 0.00000000 0.00000000 0.40097204
Link 2 8 2 0 -1.35367774
Link 3 8 3 0 0.12525023
Link 7 8 7 0 -2.18596365
Link 1 9 8 0 0.66016617
Link 3 9 10 0 1.32584496
Link 6 9 13 0 0.72717479
Link 7 9 14 0 1.99392843
Link 73 8 749 0 -0.02273657
Link 9 12 825 0 1.00000000
Link 4 210 2326 0 1.00000000
Link 216 9 2421 0 -0.24300085
Link 2 216 2492 0 1.00000000
Link 3 216 2514 0 -0.09897377
Link 210 12 3604 0 0.07282934
Link 2 371 4806 0 1.00000000
Link 371 210 4807 0 0.04276624
Link 210 373 4847 0 1.00000000
Link 373 9 4848 0 -1.05408220
Link 373 216 4889 0 -0.73568564
Link 4 216 4919 0 0.24654012
Link 1 383 4972 0 1.00000000
Link 383 8 4973 0 -2.01061879
Link 371 216 5017 0 -0.19909484
Link 12 389 5031 0 1.00000000
Link 389 73 5032 0 1.00000000
Link 210 8 5236 0 0.36251236
GenomeEnd

GenomeStart 42621
Neuron 1 1 0.00000000 1 0.00000000 0.00000000 0.00000000 0.00000000
Neuron 2 1 0.00000000 1 0.00000000 0.00000000 0.00000000 0.00000000
Neuron 3 1 0.00000000 1 0.00000000 0.00000000 0.00000000 0.00000000
Neuron 4 1 0.00000000 1 0.00000000 0.00000000 0.00000000 0.00000000
Neuron 5 1 0.00000000 1 0.00000000 0.00000000 0.00000000 0.00000000
Neuron 6 1 0.00000000 1 0.00000000 0.00000000 0.00000000 0.00000000
Neuron 7 2 0.00000000 1 0.00000000 0.00000000 0.00000000 0.00000000
Neuron 8 4 1.00000000 9 3.50000000 0.00000000 0.00000000 -0.77017076
Neuron 9 4 1.00000000 9 3.50000000 0.00000000 0.00000000 -0.53073164
Neuron 12 3 0.50000000 2 2.06444028 0.00000000 0.00000000 -0.10848011
Neuron 73 3 0.75000000 8 5.75398651 0.00000000 0.00000000 -0.32738235
Neuron 210 3 0.50000000 3 2.39546831 0.00000000 0.00000000 0.21616832
Neuron 216 3 0.75000000 11 3.69475434 0.00000000 0.00000000 1.01181822
Neuron 371 3 0.25000000 11 2.94255540 0.00000000 0.00000000 0.12456696
Neuron 373 3 0.75000000 8 3.43528569 0.00000000 0.00000000 0.52814192
Neuron 383 3 0.50000000 8 5.26227851 0.00000000 0.00000000 0.17566226
Neuron 389 3 0.62500000 0 1.58258368 0.00000000 0.00000000 0.40097204
Link 2 8 2 0 -1.35367774
Link 3 8 3 0 0.12525023
Link 7 8 7 0 -2.18596365
Link 1 9 8 0 0.66016617
Link 3 9 10 0 1.32584496
Link 6 9 13 0 0.72717479
Link 7 9 14 0 1.99392843
Link 73 8 749 0 -0.02273657
Link 9 12 825 0 1.00000000
Link 4 210 2326 0 1.00000000
Link 216 9 2421 0 -0.24300085
Link 2 216 2492 0 1.00000000
Link 3 216 2514 0 -0.09897377
Link 210 12 3604 0 0.07282934
Link 2 371 4806 0 1.00000000
Link 371 210 4807 0 0.04276624
Link 210 373 4847 0 1.00000000
Link 373 9 4848 0 -1.05408220
Link 373 216 4889 0 -0.73568564
Link 4 216 4919 0 0.24654012
Link 1 383 4972 0 1.00000000
Link 383 8 4973 0 -2.01061879
Link 371 216 5017 0 -0.19909484
Link 12 389 5031 0 1.00000000
Link 389 73 5032 0 1.00000000
Link 210 8 5236 0 0.36251236
GenomeEnd

GenomeStart 42622
Neuron 1 1 0.00000000 1 0.00000000 0.00000000 0.00000000 0.00000000
Neuron 2 1 0.00000000 1 0.00000000 0.00000000 0.00000000 0.00000000
Neuron 3 1 0.00000000 1 0.00000000 0.00000000 0.00000000 0.00000000
Neuron 4 1 0.00000000 1 0.00000000 0.00000000 0.00000000 0.00000000
Neuron 5 1 0.00000000 1 0.00000000 0.00000000 0.00000000 0.00000000
Neuron 6 1 0.00000000 1 0.00000000 0.00000000 0.00000000 0.00000000
Neuron 7 2 0.00000000 1 0.00000000 0.00000000 0.00000000 0.00000000
Neuron 8 4 1.00000000 9 3.50000000 0.00000000 0.00000000 -0.77017076
Neuron 9 4 1.00000000 9 3.50000000 0.00000000 0.00000000 -0.53073164
Neuron 12 3 0.50000000 2 2.06444028 0.00000000 0.00000000 -0.10848011
Neuron 73 3 0.75000000 8 5.75398651 0.00000000 0.00000000 -0.32738235
Neuron 210 3 0.50000000 3 2.39546831 0.00000000 0.00000000 0.21616832
Neuron 216 3 0.75000000 11 3.69475434 0.00000000 0.00000000 1.01181822
Neuron 371 3 0.25000000 11 2.94255540 0.00000000 0.00000000 0.12456696
Neuron 373 3 0.75000000 8 3.43528569 0.00000000 0.00000000 0.52814192
Neuron 383 3 0.50000000 8 5.26227851 0.00000000 0.00000000 0.17566226
Neuron 389 3 0.62500000 0 1.58258368 0.00000000 0.00000000 0.40097204
Link 2 8 2 0 -1.35367774
Link 3 8 3 0 0.12525023
Link 7 8 7 0 -2.18596365
Link 1 9 8 0 0.66016617
Link 3 9 10 0 1.32584496
Link 6 9 13 0 0.72717479
Link 7 9 14 0 1.99392843
Link 73 8 749 0 -0.02273657
Link 9 12 825 0 1.00000000
Link 4 210 2326 0 1.00000000
Link 216 9 2421 0 -0.24300085
Link 2 216 2492 0 1.00000000
Link 3 216 2514 0 -0.09897377
Link 210 12 3604 0 0.07282934
Link 2 371 4806 0 1.00000000
Link 371 210 4807 0 0.04276624
Link 210 373 4847 0 1.00000000
Link 373 9 4848 0 -1.05408220
Link 373 216 4889 0 -0.73568564
Link 4 216 4919 0 0.24654012
Link 1 383 4972 0 1.00000000
Link 383 8 4973 0 -2.01061879
Link 371 216 5017 0 -0.19909484
Link 12 389 5031 0 1.00000000
Link 389 73 5032 0 1.00000000
Link 210 8 5236 0 0.36251236
GenomeEnd

GenomeStart 42606
Neuron 1 1 0.00000000 1 0.00000000 0.00000000 0.00000000 0.00000000
Neuron 2 1 0.00000000 1 0.00000000 0.00000000 0.00000000 0.00000000
Neuron 3 1 0.00000000 1 0.00000000 0.00000000 0.00000000 0.00000000
Neuron 4 1 0.00000000 1 0.00000000 0.00000000 0.00000000 0.00000000
Neuron 5 1 0.00000000 1 0.00000000 0.00000000 0.00000000 0.00000000
Neuron 6 1 0.00000000 1 0.00000000 0.00000000 0.00000000 0.00000000
Neuron 7 2 0.00000000 1 0.00000000 0.00000000 0.00000000 0.00000000
Neuron 8 4 1.00000000 9 3.50000000 0.00000000 0.00000000 -0.77017076
Neuron 9 4 1.00000000 9 3.50000000 0.00000000 0.00000000 -0.53073164
Neuron 12 3 0.50000000 2 2.06444028 0.00000000 0.00000000 -0.10848011
Neuron 73 3 0.75000000 8 5.75398651 0.00000000 0.00000000 -0.32738235
Neuron 210 3 0.50000000 3 2.39546831 0.00000000 0.00000000 0.21616832
Neuron 216 3 0.75000000 11 3.69475434 0.00000000 0.00000000 1.01181822
Neuron 371 3 0.25000000 11 2.94255540 0.00000000 0.00000000 0.12456696
Neuron 373 3 0.75000000 8 3.43528569 0.00000000 0.00000000 0.52814192
Neuron 383 3 0.50000000 8 5.26227851 0.00000000 0.00000000 0.17566226
Neuron 389 3 0.62500000 0 1.58258368 0.00000000 0.00000000 0.40097204
Link 2 8 2 0 -1.35367774
Link 3 8 3 0 0.12525023
Link 7 8 7 0 -2.18596365
Link 1 9 8 0 0.66016617
Link 3 9 10 0 1.32584496
Link 6 9 13 0 0.72717479
Link 7 9 14 0 1.99392843
Link 73 8 749 0 -0.02273657
Link 9 12 825 0 1.00000000
Link 4 210 2326 0 1.00000000
Link 216 9 2421 0 -0.24300085
Link 2 216 2492 0 1.00000000
Link 3 216 2514 0 -0.09897377
Link 210 12 3604 0 0.07282934
Link 2 371 4806 0 1.00000000
Link 371 210 4807 0 0.04276624
Link 210 373 4847 0 1.00000000
Link 373 9 4848 0 -1.05408220
Link 373 216 4889 0 -0.73568564
Link 4 216 4919 0 0.24654012
Link 1 383 4972 0 1.00000000
Link 383 8 4973 0 -2.01061879
Link 371 216 5017 0 -0.19909484
Link 12 389 5031 0 1.00000000
Link 389 73 5032 0 1.00000000
Link 210 8 5236 0 0.36251236
GenomeEnd

GenomeStart 42623
Neuron 1 1 0.00000000 1 0.00000000 0.00000000 0.00000000 0.00000000
Neuron 2 1 0.00000000 1 0.00000000 0.00000000 0.00000000 0.00000000
Neuron 3 1 0.00000000 1 0.00000000 0.00000000 0.00000000 0.00000000
Neuron 4 1 0.00000000 1 0.00000000 0.00000000 0.00000000 0.00000000
Neuron 5 1 0.00000000 1 0.00000000 0.00000000 0.00000000 0.00000000
Neuron 6 1 0.00000000 1 0.00000000 0.00000000 0.00000000 0.00000000
Neuron 7 2 0.00000000 1 0.00000000 0.00000000 0.00000000 0.00000000
Neuron 8 4 1.00000000 9 3.50000000 0.00000000 0.00000000 -0.77017076
Neuron 9 4 1.00000000 9 3.50000000 0.00000000 0.00000000 -0.53073164
Neuron 12 3 0.50000000 2 2.06444028 0.00000000 0.00000000 -0.10848011
Neuron 73 3 0.75000000 8 5.75398651 0.00000000 0.00000000 -0.32738235
Neuron 210 3 0.50000000 3 2.39546831 0.00000000 0.00000000 0.21616832
Neuron 216 3 0.75000000 11 3.69475434 0.00000000 0.00000000 1.26228759
Neuron 371 3 0.25000000 11 2.94255540 0.00000000 0.00000000 0.12456696
Link 1 8 1 0 -2.01061879
Link 2 8 2 0 -1.35367774
Link 3 8 3 0 0.12525023
Link 7 8 7 0 -2.18596365
Link 1 9 8 0 0.66016617
Link 3 9 10 0 1.32584496
Link 6 9 13 0 0.72717479
Link 7 9 14 0 1.99392843
Link 12 73 748 0 1.00000000
Link 73 8 749 0 -0.02273657
Link 9 12 825 0 1.00000000
Link 4 210 2326 0 1.00000000
Link 210 9 2327 0 -1.05408220
Link 216 9 2421 0 -0.24300085
Link 2 216 2492 0 1.00000000
Link 3 216 2514 0 -0.09897377
Link 210 12 3604 0 0.07282934
Link 2 371 4806 0 1.00000000
Link 371 210 4807 0 0.04276624
Link 1 371 4954 0 0.08479629
GenomeEnd

GenomeStart 42624
Neuron 1 1 0.00000000 1 0.00000000 0.00000000 0.00000000 0.00000000
Neuron 2 1 0.00000000 1 0.00000000 0.00000000 0.00000000 0.00000000
Neuron 3 1 0.00000000 1 0.00000000 0.00000000 0.00000000 0.00000000
Neuron 4 1 0.00000000 1 0.00000000 0.00000000 0.00000000 0.00000000
Neuron 5 1 0.00000000 1 0.00000000 0.00000000 0.00000000 0.00000000
Neuron 6 1 0.00000000 1 0.00000000 0.00000000 0.00000000 0.00000000
Neuron 7 2 0.00000000 1 0.00000000 0.00000000 0.00000000 0.00000000
Neuron 8 4 1.00000000 9 3.50000000 0.00000000 0.00000000 -0.77017076
Neuron 9 4 1.00000000 9 3.50000000 0.00000000 0.00000000 -0.53073164
Neuron 12 3 0.50000000 2 2.06444028 0.00000000 0.00000000 -0.10848011
Neuron 73 3 0.75000000 8 5.75398651 0.00000000 0.00000000 -0.32738235
Neuron 210 3 0.50000000 3 2.39546831 0.00000000 0.00000000 0.21616832
Neuron 216 3 0.75000000 11 3.69475434 0.00000000 0.00000000 1.26228759
Neuron 371 3 0.25000000 11 2.94255540 0.00000000 0.00000000 0.12456696
Link 1 8 1 0 -2.01061879
Link 2 8 2 0 -1.35367774
Link 3 8 3 0 0.12525023
Link 7 8 7 0 -2.18596365
Link 1 9 8 0 0.66016617
Link 3 9 10 0 1.32584496
Link 6 9 13 0 0.72717479
Link 7 9 14 0 1.99392843
Link 12 73 748 0 1.00000000
Link 73 8 749 0 -0.02273657
Link 9 12 825 0 1.00000000
Link 4 210 2326 0 1.00000000
Link 210 9 2327 0 -1.05408220
Link 216 9 2421 0 -0.24300085
Link 2 216 2492 0 1.00000000
Link 3 216 2514 0 -0.09897377
Link 210 12 3604 0 0.07282934
Link 2 371 4806 0 1.00000000
Link 371 210 4807 0 0.04276624
Link 1 371 4954 0 0.08479629
GenomeEnd

GenomeStart 42625
Neuron 1 1 0.00000000 1 0.00000000 0.00000000 0.00000000 0.00000000
Neuron 2 1 0.00000000 1 0.00000000 0.00000000 0.00000000 0.00000000
Neuron 3 1 0.00000000 1 0.00000000 0.00000000 0.00000000 0.00000000
Neuron 4 1 0.00000000 1 0.00000000 0.00000000 0.00000000 0.00000000
Neuron 5 1 0.00000000 1 0.00000000 0.00000000 0.00000000 0.00000000
Neuron 6 1 0.00000000 1 0.00000000 0.00000000 0.00000000 0.00000000
Neuron 7 2 0.00000000 1 0.00000000 0.00000000 0.00000000 0.00000000
Neuron 8 4 1.00000000 9 3.50000000 0.00000000 0.00000000 -0.77017076
Neuron 9 4 1.00000000 9 3.50000000 0.00000000 0.00000000 -0.53073164
Neuron 12 3 0.50000000 2 2.06444028 0.00000000 0.00000000 -0.10848011
Neuron 73 3 0.75000000 8 5.75398651 0.00000000 0.00000000 -0.32738235
Neuron 210 3 0.50000000 3 2.39546831 0.00000000 0.00000000 0.21616832
Neuron 216 3 0.75000000 11 3.69475434 0.00000000 0.00000000 1.26228759
Neuron 371 3 0.25000000 11 2.94255540 0.00000000 0.00000000 0.12456696
Link 1 8 1 0 -2.01061879
Link 2 8 2 0 -1.35367774
Link 3 8 3 0 0.12525023
Link 7 8 7 0 -2.18596365
Link 1 9 8 0 0.66016617
Link 3 9 10 0 1.32584496
Link 6 9 13 0 0.72717479
Link 7 9 14 0 1.99392843
Link 12 73 748 0 1.00000000
Link 73 8 749 0 -0.02273657
Link 9 12 825 0 1.00000000
Link 4 210 2326 0 1.00000000
Link 210 9 2327 0 -1.05408220
Link 216 9 2421 0 -0.24300085
Link 2 216 2492 0 1.00000000
Link 3 216 2514 0 -0.09897377
Link 210 12 3604 0 0.07282934
Link 2 371 4806 0 1.00000000
Link 371 210 4807 0 0.04276624
Link 1 371 4954 0 0.08479629
GenomeEnd

GenomeStart 42626
Neuron 1 1 0.00000000 1 0.00000000 0.00000000 0.00000000 0.00000000
Neuron 2 1 0.00000000 1 0.00000000 0.00000000 0.00000000 0.00000000
Neuron 3 1 0.00000000 1 0.00000000 0.00000000 0.00000000 0.00000000
Neuron 4 1 0.00000000 1 0.00000000 0.00000000 0.00000000 0.00000000
Neuron 5 1 0.00000000 1 0.00000000 0.00000000 0.00000000 0.00000000
Neuron 6 1 0.00000000 1 0.00000000 0.00000000 0.00000000 0.00000000
Neuron 7 2 0.00000000 1 0.00000000 0.00000000 0.00000000 0.00000000
Neuron 8 4 1.00000000 9 3.50000000 0.00000000 0.00000000 -0.77017076
Neuron 9 4 1.00000000 9 3.50000000 0.00000000 0.00000000 -0.53073164
Neuron 12 3 0.50000000 2 2.06444028 0.00000000 0.00000000 -0.10848011
Neuron 73 3 0.75000000 8 5.75398651 0.00000000 0.00000000 -0.32738235
Neuron 210 3 0.50000000 3 2.39546831 0.00000000 0.00000000 0.21616832
Neuron 216 3 0.75000000 11 3.69475434 0.00000000 0.00000000 1.26228759
Neuron 371 3 0.25000000 11 2.94255540 0.00000000 0.00000000 0.12456696
Link 1 8 1 0 -2.01061879
Link 2 8 2 0 -1.35367774
Link 3 8 3 0 0.12525023
Link 7 8 7 0 -2.18596365
Link 1 9 8 0 0.66016617
Link 3 9 10 0 1.32584496
Link 6 9 13 0 0.72717479
Link 7 9 14 0 1.99392843
Link 12 73 748 0 1.00000000
Link 73 8 749 0 -0.02273657
Link 9 12 825 0 1.00000000
Link 4 210 2326 0 1.00000000
Link 210 9 2327 0 -1.05408220
Link 216 9 2421 0 -0.24300085
Link 2 216 2492 0 1.00000000
Link 3 216 2514 0 -0.09897377
Link 210 12 3604 0 0.07282934
Link 2 371 4806 0 1.00000000
Link 371 210 4807 0 0.04276624
Link 1 371 4954 0 0.08479629
GenomeEnd

GenomeStart 42627
Neuron 1 1 0.00000000 1 0.00000000 0.00000000 0.00000000 0.00000000
Neuron 2 1 0.00000000 1 0.00000000 0.00000000 0.00000000 0.00000000
Neuron 3 1 0.00000000 1 0.00000000 0.00000000 0.00000000 0.00000000
Neuron 4 1 0.00000000 1 0.00000000 0.00000000 0.00000000 0.00000000
Neuron 5 1 0.00000000 1 0.00000000 0.00000000 0.00000000 0.00000000
Neuron 6 1 0.00000000 1 0.00000000 0.00000000 0.00000000 0.00000000
Neuron 7 2 0.00000000 1 0.00000000 0.00000000 0.00000000 0.00000000
Neuron 8 4 1.00000000 9 3.50000000 0.00000000 0.00000000 -0.77017076
Neuron 9 4 1.00000000 9 3.50000000 0.00000000 0.00000000 -0.53073164
Neuron 12 3 0.50000000 2 2.06444028 0.00000000 0.00000000 -0.10848011
Neuron 73 3 0.75000000 8 5.75398651 0.00000000 0.00000000 -0.32738235
Neuron 210 3 0.50000000 3 2.39546831 0.00000000 0.00000000 0.21616832
Neuron 216 3 0.75000000 11 3.69475434 0.00000000 0.00000000 1.26228759
Neuron 371 3 0.25000000 11 2.94255540 0.00000000 0.00000000 0.12456696
Link 1 8 1 0 -2.01061879
Link 2 8 2 0 -1.35367774
Link 3 8 3 0 0.12525023
Link 7 8 7 0 -2.18596365
Link 1 9 8 0 0.66016617
Link 3 9 10 0 1.32584496
Link 6 9 13 0 0.72717479
Link 7 9 14 0 1.99392843
Link 12 73 748 0 1.00000000
Link 73 8 749 0 -0.02273657
Link 9 12 825 0 1.00000000
Link 4 210 2326 0 1.00000000
Link 210 9 2327 0 -1.05408220
Link 216 9 2421 0 -0.24300085
Link 2 216 2492 0 1.00000000
Link 3 216 2514 0 -0.09897377
Link 210 12 3604 0 0.07282934
Link 2 371 4806 0 1.00000000
Link 371 210 4807 0 0.04276624
Link 1 371 4954 0 0.08479629
GenomeEnd

GenomeStart 42628
Neuron 1 1 0.00000000 1 0.00000000 0.00000000 0.00000000 0.00000000
Neuron 2 1 0.00000000 1 0.00000000 0.00000000 0.00000000 0.00000000
Neuron 3 1 0.00000000 1 0.00000000 0.00000000 0.00000000 0.00000000
Neuron 4 1 0.00000000 1 0.00000000 0.00000000 0.00000000 0.00000000
Neuron 5 1 0.00000000 1 0.00000000 0.00000000 0.00000000 0.00000000
Neuron 6 1 0.00000000 1 0.00000000 0.00000000 0.00000000 0.00000000
Neuron 7 2 0.00000000 1 0.00000000 0.00000000 0.00000000 0.00000000
Neuron 8 4 1.00000000 9 3.50000000 0.00000000 0.00000000 -0.77017076
Neuron 9 4 1.00000000 9 3.50000000 0.00000000 0.00000000 -0.53073164
Neuron 12 3 0.50000000 2 2.06444028 0.00000000 0.00000000 -0.10848011
Neuron 73 3 0.75000000 8 5.75398651 0.00000000 0.00000000 -0.32738235
Neuron 210 3 0.50000000 3 2.39546831 0.00000000 0.00000000 0.21616832
Neuron 216 3 0.75000000 11 3.69475434 0.00000000 0.00000000 1.26228759
Neuron 371 3 0.25000000 11 2.94255540 0.00000000 0.00000000 0.12456696
Link 1 8 1 0 -2.01061879
Link 3 8 3 0 0.12525023
Link 7 8 7 0 -2.18596365
Link 1 9 8 0 0.66016617
Link 3 9 10 0 1.32584496
Link 6 9 13 0 0.72717479
Link 7 9 14 0 1.99392843
Link 12 73 748 0 1.00000000
Link 73 8 749 0 -0.02273657
Link 9 12 825 0 1.00000000
Link 4 210 2326 0 1.00000000
Link 210 9 2327 0 -1.05408220
Link 216 9 2421 0 -0.24300085
Link 2 216 2492 0 1.00000000
Link 3 216 2514 0 -0.09897377
Link 210 12 3604 0 0.07282934
Link 2 371 4806 0 1.00000000
Link 371 210 4807 0 0.04276624
Link 1 371 4954 0 0.08479629
GenomeEnd

GenomeStart 42629
Neuron 1 1 0.00000000 1 0.00000000 0.00000000 0.00000000 0.00000000
Neuron 2 1 0.00000000 1 0.00000000 0.00000000 0.00000000 0.00000000
Neuron 3 1 0.00000000 1 0.00000000 0.00000000 0.00000000 0.00000000
Neuron 4 1 0.00000000 1 0.00000000 0.00000000 0.00000000 0.00000000
Neuron 5 1 0.00000000 1 0.00000000 0.00000000 0.00000000 0.00000000
Neuron 6 1 0.00000000 1 0.00000000 0.00000000 0.00000000 0.00000000
Neuron 7 2 0.00000000 1 0.00000000 0.00000000 0.00000000 0.00000000
Neuron 8 4 1.00000000 9 3.50000000 0.00000000 0.00000000 -0.77017076
Neuron 9 4 1.00000000 9 3.50000000 0.00000000 0.00000000 -0.53073164
Neuron 12 3 0.50000000 2 2.06444028 0.00000000 0.00000000 -0.10848011
Neuron 73 3 0.75000000 8 5.75398651 0.00000000 0.00000000 -0.32738235
Neuron 210 3 0.50000000 3 2.39546831 0.00000000 0.00000000 0.21616832
Neuron 216 3 0.75000000 11 3.69475434 0.00000000 0.00000000 1.26228759
Neuron 371 3 0.25000000 11 2.94255540 0.00000000 0.00000000 0.12456696
Link 1 8 1 0 -2.01061879
Link 2 8 2 0 -1.35367774
Link 3 8 3 0 0.12525023
Link 7 8 7 0 -2.18596365
Link 1 9 8 0 0.66016617
Link 3 9 10 0 1.32584496
Link 6 9 13 0 0.72717479
Link 7 9 14 0 1.99392843
Link 12 73 748 0 1.00000000
Link 73 8 749 0 -0.02273657
Link 9 12 825 0 1.00000000
Link 4 210 2326 0 1.00000000
Link 210 9 2327 0 -1.05408220
Link 216 9 2421 0 -0.24300085
Link 2 216 2492 0 1.00000000
Link 3 216 2514 0 -0.09897377
Link 210 12 3604 0 0.07282934
Link 2 371 4806 0 1.00000000
Link 371 210 4807 0 0.04276624
Link 1 371 4954 0 0.08479629
GenomeEnd

GenomeStart 42630
Neuron 1 1 0.00000000 1 0.00000000 0.00000000 0.00000000 0.00000000
Neuron 2 1 0.00000000 1 0.00000000 0.00000000 0.00000000 0.00000000
Neuron 3 1 0.00000000 1 0.00000000 0.00000000 0.00000000 0.00000000
Neuron 4 1 0.00000000 1 0.00000000 0.00000000 0.00000000 0.00000000
Neuron 5 1 0.00000000 1 0.00000000 0.00000000 0.00000000 0.00000000
Neuron 6 1 0.00000000 1 0.00000000 0.00000000 0.00000000 0.00000000
Neuron 7 2 0.00000000 1 0.00000000 0.00000000 0.00000000 0.00000000
Neuron 8 4 1.00000000 9 3.50000000 0.00000000 0.00000000 -0.77017076
Neuron 9 4 1.00000000 9 3.50000000 0.00000000 0.00000000 -0.53073164
Neuron 12 3 0.50000000 2 2.06444028 0.00000000 0.00000000 -0.10848011
Neuron 73 3 0.75000000 8 5.75398651 0.00000000 0.00000000 -0.32738235
Neuron 210 3 0.50000000 3 2.39546831 0.00000000 0.00000000 0.21616832
Neuron 216 3 0.75000000 11 3.69475434 0.00000000 0.00000000 1.26228759
Neuron 371 3 0.25000000 11 2.94255540 0.00000000 0.00000000 0.12456696
Link 1 8 1 0 -2.01061879
Link 2 8 2 0 -1.35367774
Link 3 8 3 0 0.12525023
Link 7 8 7 0 -2.18596365
Link 1 9 8 0 0.66016617
Link 3 9 10 0 1.32584496
Link 6 9 13 0 0.72717479
Link 7 9 14 0 1.99392843
Link 12 73 748 0 1.00000000
Link 73 8 749 0 -0.02273657
Link 9 12 825 0 1.00000000
Link 4 210 2326 0 1.00000000
Link 210 9 2327 0 -1.05408220
Link 216 9 2421 0 -0.24300085
Link 2 216 2492 0 1.00000000
Link 3 216 2514 0 -0.09897377
Link 210 12 3604 0 0.07282934
Link 2 371 4806 0 1.00000000
Link 371 210 4807 0 0.04276624
Link 1 371 4954 0 0.08479629
GenomeEnd

GenomeStart 42631
Neuron 1 1 0.00000000 1 0.00000000 0.00000000 0.00000000 0.00000000
Neuron 2 1 0.00000000 1 0.00000000 0.00000000 0.00000000 0.00000000
Neuron 3 1 0.00000000 1 0.00000000 0.00000000 0.00000000 0.00000000
Neuron 4 1 0.00000000 1 0.00000000 0.00000000 0.00000000 0.00000000
Neuron 5 1 0.00000000 1 0.00000000 0.00000000 0.00000000 0.00000000
Neuron 6 1 0.00000000 1 0.00000000 0.00000000 0.00000000 0.00000000
Neuron 7 2 0.00000000 1 0.00000000 0.00000000 0.00000000 0.00000000
Neuron 8 4 1.00000000 9 3.50000000 0.00000000 0.00000000 -0.77017076
Neuron 9 4 1.00000000 9 3.50000000 0.00000000 0.00000000 -0.53073164
Neuron 12 3 0.50000000 2 2.06444028 0.00000000 0.00000000 -0.10848011
Neuron 73 3 0.75000000 8 5.75398651 0.00000000 0.00000000 -0.32738235
Neuron 210 3 0.50000000 3 2.39546831 0.00000000 0.00000000 0.21616832
Neuron 216 3 0.75000000 11 3.69475434 0.00000000 0.00000000 1.26228759
Neuron 371 3 0.25000000 11 2.94255540 0.00000000 0.00000000 0.12456696
Link 1 8 1 0 -2.01061879
Link 2 8 2 0 -1.35367774
Link 3 8 3 0 0.12525023
Link 7 8 7 0 -2.18596365
Link 1 9 8 0 0.66016617
Link 3 9 10 0 1.32584496
Link 6 9 13 0 0.72717479
Link 7 9 14 0 1.99392843
Link 12 73 748 0 1.00000000
Link 73 8 749 0 -0.02273657
Link 9 12 825 0 1.00000000
Link 4 210 2326 0 1.00000000
Link 210 9 2327 0 -1.05408220
Link 216 9 2421 0 -0.24300085
Link 2 216 2492 0 1.00000000
Link 3 216 2514 0 -0.09897377
Link 210 12 3604 0 0.07282934
Link 2 371 4806 0 1.00000000
Link 371 210 4807 0 0.04276624
Link 1 371 4954 0 0.08479629
GenomeEnd

GenomeStart 42632
Neuron 1 1 0.00000000 1 0.00000000 0.00000000 0.00000000 0.00000000
Neuron 2 1 0.00000000 1 0.00000000 0.00000000 0.00000000 0.00000000
Neuron 3 1 0.00000000 1 0.00000000 0.00000000 0.00000000 0.00000000
Neuron 4 1 0.00000000 1 0.00000000 0.00000000 0.00000000 0.00000000
Neuron 5 1 0.00000000 1 0.00000000 0.00000000 0.00000000 0.00000000
Neuron 6 1 0.00000000 1 0.00000000 0.00000000 0.00000000 0.00000000
Neuron 7 2 0.00000000 1 0.00000000 0.00000000 0.00000000 0.00000000
Neuron 8 4 1.00000000 9 3.50000000 0.00000000 0.00000000 -0.77017076
Neuron 9 4 1.00000000 9 3.50000000 0.00000000 0.00000000 -0.53073164
Neuron 12 3 0.50000000 2 2.06444028 0.00000000 0.00000000 -0.10848011
Neuron 73 3 0.75000000 8 5.75398651 0.00000000 0.00000000 -0.32738235
Neuron 210 3 0.50000000 3 2.39546831 0.00000000 0.00000000 0.21616832
Neuron 216 3 0.75000000 11 3.69475434 0.00000000 0.00000000 1.26228759
Neuron 371 3 0.25000000 11 2.94255540 0.00000000 0.00000000 0.12456696
Link 1 8 1 0 -1.97231254
Link 2 8 2 0 -1.56363150
Link 3 8 3 0 0.33298736
Link 7 8 7 0 -2.18596365
Link 1 9 8 0 0.37703981
Link 3 9 10 0 1.06643116
Link 6 9 13 0 0.72717479
Link 7 9 14 0 -0.61071681
Link 12 73 748 0 0.55047762
Link 73 8 749 0 -0.14524768
Link 9 12 825 0 0.82563258
Link 4 210 2326 0 1.19659761
Link 210 9 2327 0 -1.29728721
Link 216 9 2421 0 0.19628690
Link 2 216 2492 0 1.11890604
Link 3 216 2514 0 0.23680592
Link 210 12 3604 0 0.15273177
Link 2 371 4806 0 0.29223845
Link 371 210 4807 0 0.39104143
Link 1 371 4954 0 -0.01691431
GenomeEnd

GenomeStart 42633
Neuron 1 1 0.00000000 1 0.00000000 0.00000000 0.00000000 0.00000000
Neuron 2 1 0.00000000 1 0.00000000 0.00000000 0.00000000 0.00000000
Neuron 3 1 0.00000000 1 0.00000000 0.00000000 0.00000000 0.00000000
Neuron 4 1 0.00000000 1 0.00000000 0.00000000 0.00000000 0.00000000
Neuron 5 1 0.00000000 1 0.00000000 0.00000000 0.00000000 0.00000000
Neuron 6 1 0.00000000 1 0.00000000 0.00000000 0.00000000 0.00000000
Neuron 7 2 0.00000000 1 0.00000000 0.00000000 0.00000000 0.00000000
Neuron 8 4 1.00000000 9 3.50000000 0.00000000 0.00000000 -0.77017076
Neuron 9 4 1.00000000 9 3.50000000 0.00000000 0.00000000 -0.53073164
Neuron 12 3 0.50000000 2 2.06444028 0.00000000 0.00000000 -0.10848011
Neuron 73 3 0.75000000 8 5.75398651 0.00000000 0.00000000 -0.32738235
Neuron 210 3 0.50000000 3 2.39546831 0.00000000 0.00000000 0.21616832
Neuron 216 3 0.75000000 11 3.69475434 0.00000000 0.00000000 1.26228759
Neuron 371 3 0.25000000 11 2.94255540 0.00000000 0.00000000 0.12456696
Link 1 8 1 0 -2.01061879
Link 2 8 2 0 -1.35367774
Link 3 8 3 0 0.12525023
Link 7 8 7 0 -2.18596365
Link 1 9 8 0 0.66016617
Link 3 9 10 0 1.32584496
Link 6 9 13 0 0.72717479
Link 7 9 14 0 1.99392843
Link 12 73 748 0 1.00000000
Link 73 8 749 0 -0.02273657
Link 9 12 825 0 1.00000000
Link 4 210 2326 0 1.00000000
Link 210 9 2327 0 -1.05408220
Link 216 9 2421 0 -0.24300085
Link 2 216 2492 0 1.00000000
Link 3 216 2514 0 -0.09897377
Link 210 12 3604 0 0.07282934
Link 2 371 4806 0 1.00000000
Link 371 210 4807 0 0.04276624
Link 1 371 4954 0 0.08479629
GenomeEnd

GenomeStart 42634
Neuron 1 1 0.00000000 1 0.00000000 0.00000000 0.00000000 0.00000000
Neuron 2 1 0.00000000 1 0.00000000 0.00000000 0.00000000 0.00000000
Neuron 3 1 0.00000000 1 0.00000000 0.00000000 0.00000000 0.00000000
Neuron 4 1 0.00000000 1 0.00000000 0.00000000 0.00000000 0.00000000
Neuron 5 1 0.00000000 1 0.00000000 0.00000000 0.00000000 0.00000000
Neuron 6 1 0.00000000 1 0.00000000 0.00000000 0.00000000 0.00000000
Neuron 7 2 0.00000000 1 0.00000000 0.00000000 0.00000000 0.00000000
Neuron 8 4 1.00000000 9 3.50000000 0.00000000 0.00000000 -0.77017076
Neuron 9 4 1.00000000 9 3.50000000 0.00000000 0.00000000 -0.53073164
Neuron 12 3 0.50000000 2 2.06444028 0.00000000 0.00000000 -0.10848011
Neuron 73 3 0.75000000 8 5.75398651 0.00000000 0.00000000 -0.32738235
Neuron 210 3 0.50000000 3 2.39546831 0.00000000 0.00000000 0.21616832
Neuron 216 3 0.75000000 11 3.69475434 0.00000000 0.00000000 1.26228759
Neuron 371 3 0.25000000 11 2.94255540 0.00000000 0.00000000 0.12456696
Link 1 8 1 0 -2.01061879
Link 2 8 2 0 -1.35367774
Link 3 8 3 0 0.12525023
Link 7 8 7 0 -2.18596365
Link 1 9 8 0 0.66016617
Link 3 9 10 0 1.32584496
Link 6 9 13 0 0.72717479
Link 7 9 14 0 1.99392843
Link 12 73 748 0 1.00000000
Link 73 8 749 0 -0.02273657
Link 9 12 825 0 1.00000000
Link 4 210 2326 0 1.00000000
Link 210 9 2327 0 -1.05408220
Link 216 9 2421 0 -0.24300085
Link 2 216 2492 0 1.00000000
Link 3 216 2514 0 -0.09897377
Link 210 12 3604 0 0.07282934
Link 2 371 4806 0 1.00000000
Link 371 210 4807 0 0.04276624
Link 1 371 4954 0 0.08479629
GenomeEnd

GenomeStart 42635
Neuron 1 1 0.00000000 1 0.00000000 0.00000000 0.00000000 0.00000000
Neuron 2 1 0.00000000 1 0.00000000 0.00000000 0.00000000 0.00000000
Neuron 3 1 0.00000000 1 0.00000000 0.00000000 0.00000000 0.00000000
Neuron 4 1 0.00000000 1 0.00000000 0.00000000 0.00000000 0.00000000
Neuron 5 1 0.00000000 1 0.00000000 0.00000000 0.00000000 0.00000000
Neuron 6 1 0.00000000 1 0.00000000 0.00000000 0.00000000 0.00000000
Neuron 7 2 0.00000000 1 0.00000000 0.00000000 0.00000000 0.00000000
Neuron 8 4 1.00000000 9 3.50000000 0.00000000 0.00000000 -0.77017076
Neuron 9 4 1.00000000 9 3.50000000 0.00000000 0.00000000 -0.53073164
Neuron 12 3 0.50000000 2 2.06444028 0.00000000 0.00000000 -0.10848011
Neuron 73 3 0.75000000 8 5.75398651 0.00000000 0.00000000 -0.32738235
Neuron 210 3 0.50000000 3 2.39546831 0.00000000 0.00000000 0.21616832
Neuron 216 3 0.75000000 11 3.69475434 0.00000000 0.00000000 1.26228759
Neuron 371 3 0.25000000 11 2.94255540 0.00000000 0.00000000 0.12456696
Link 1 8 1 0 -1.65152219
Link 2 8 2 0 0.16197427
Link 3 8 3 0 0.17464218
Link 7 8 7 0 -2.30969329
Link 1 9 8 0 0.62554526
Link 3 9 10 0 0.67580986
Link 6 9 13 0 1.05623706
Link 7 9 14 0 2.33881657
Link 12 73 748 0 -0.07922865
Link 73 8 749 0 -0.48430648
Link 9 12 825 0 1.06554844
Link 4 210 2326 0 0.72828544
Link 210 9 2327 0 -0.99475946
Link 216 9 2421 0 -0.24300085
Link 2 216 2492 0 1.06363158
Link 3 216 2514 0 0.05802134
Link 210 12 3604 0 -0.26616881
Link 2 371 4806 0 0.69597786
Link 371 210 4807 0 -0.41636775
Link 1 371 4954 0 0.08604797
GenomeEnd

GenomeStart 42636
Neuron 1 1 0.00000000 1 0.00000000 0.00000000 0.00000000 0.00000000
Neuron 2 1 0.00000000 1 0.00000000 0.00000000 0.00000000 0.00000000
Neuron 3 1 0.00000000 1 0.00000000 0.00000000 0.00000000 0.00000000
Neuron 4 1 0.00000000 1 0.00000000 0.00000000 0.00000000 0.00000000
Neuron 5 1 0.00000000 1 0.00000000 0.00000000 0.00000000 0.00000000
Neuron 6 1 0.00000000 1 0.00000000 0.00000000 0.00000000 0.00000000
Neuron 7 2 0.00000000 1 0.00000000 0.00000000 0.00000000 0.00000000
Neuron 8 4 1.00000000 9 3.50000000 0.00000000 0.00000000 -0.77017076
Neuron 9 4 1.00000000 9 3.50000000 0.00000000 0.00000000 -0.53073164
Neuron 12 3 0.50000000 2 2.06444028 0.00000000 0.00000000 -0.10848011
Neuron 73 3 0.75000000 8 5.75398651 0.00000000 0.00000000 -0.32738235
Neuron 210 3 0.50000000 3 2.39546831 0.00000000 0.00000000 0.21616832
Neuron 216 3 0.75000000 11 3.69475434 0.00000000 0.00000000 1.26228759
Neuron 371 3 0.25000000 11 2.94255540 0.00000000 0.00000000 0.12456696
Link 1 8 1 0 -2.01061879
Link 2 8 2 0 -1.35367774
Link 3 8 3 0 0.12525023
Link 7 8 7 0 -2.18596365
Link 1 9 8 0 0.66016617
Link 3 9 10 0 1.32584496
Link 6 9 13 0 0.72717479
Link 7 9 14 0 1.99392843
Link 12 73 748 0 1.00000000
Link 73 8 749 0 -0.02273657
Link 9 12 825 0 1.00000000
Link 4 210 2326 0 1.00000000
Link 210 9 2327 0 -1.05408220
Link 216 9 2421 0 -0.24300085
Link 2 216 2492 0 1.00000000
Link 3 216 2514 0 -0.09897377
Link 210 12 3604 0 0.07282934
Link 2 371 4806 0 1.00000000
Link 371 210 4807 0 0.04276624
Link 1 371 4954 0 0.08479629
GenomeEnd

GenomeStart 42637
Neuron 1 1 0.00000000 1 0.00000000 0.00000000 0.00000000 0.00000000
Neuron 2 1 0.00000000 1 0.00000000 0.00000000 0.00000000 0.00000000
Neuron 3 1 0.00000000 1 0.00000000 0.00000000 0.00000000 0.00000000
Neuron 4 1 0.00000000 1 0.00000000 0.00000000 0.00000000 0.00000000
Neuron 5 1 0.00000000 1 0.00000000 0.00000000 0.00000000 0.00000000
Neuron 6 1 0.00000000 1 0.00000000 0.00000000 0.00000000 0.00000000
Neuron 7 2 0.00000000 1 0.00000000 0.00000000 0.00000000 0.00000000
Neuron 8 4 1.00000000 9 3.50000000 0.00000000 0.00000000 -0.77017076
Neuron 9 4 1.00000000 9 3.50000000 0.00000000 0.00000000 -0.53073164
Neuron 12 3 0.50000000 2 2.06444028 0.00000000 0.00000000 -0.10848011
Neuron 73 3 0.75000000 8 5.75398651 0.00000000 0.00000000 -0.32738235
Neuron 210 3 0.50000000 3 2.39546831 0.00000000 0.00000000 0.21616832
Neuron 216 3 0.75000000 11 3.69475434 0.00000000 0.00000000 1.26228759
Neuron 371 3 0.25000000 11 2.94255540 0.00000000 0.00000000 0.12456696
Link 1 8 1 0 -2.01061879
Link 2 8 2 0 -1.35367774
Link 3 8 3 0 0.12525023
Link 7 8 7 0 -2.18596365
Link 1 9 8 0 0.66016617
Link 3 9 10 0 1.32584496
Link 6 9 13 0 0.72717479
Link 7 9 14 0 1.99392843
Link 12 73 748 0 1.00000000
Link 73 8 749 0 -0.02273657
Link 9 12 825 0 1.00000000
Link 4 210 2326 0 1.00000000
Link 210 9 2327 0 -1.05408220
Link 216 9 2421 0 -0.24300085
Link 2 216 2492 0 1.00000000
Link 3 216 2514 0 -0.09897377
Link 210 12 3604 0 0.07282934
Link 2 371 4806 0 1.00000000
Link 371 210 4807 0 0.04276624
Link 1 371 4954 0 0.08479629
GenomeEnd

GenomeStart 42638
Neuron 1 1 0.00000000 1 0.00000000 0.00000000 0.00000000 0.00000000
Neuron 2 1 0.00000000 1 0.00000000 0.00000000 0.00000000 0.00000000
Neuron 3 1 0.00000000 1 0.00000000 0.00000000 0.00000000 0.00000000
Neuron 4 1 0.00000000 1 0.00000000 0.00000000 0.00000000 0.00000000
Neuron 5 1 0.00000000 1 0.00000000 0.00000000 0.00000000 0.00000000
Neuron 6 1 0.00000000 1 0.00000000 0.00000000 0.00000000 0.00000000
Neuron 7 2 0.00000000 1 0.00000000 0.00000000 0.00000000 0.00000000
Neuron 8 4 1.00000000 9 3.50000000 0.00000000 0.00000000 -0.77017076
Neuron 9 4 1.00000000 9 3.50000000 0.00000000 0.00000000 -0.53073164
Neuron 12 3 0.50000000 2 2.06444028 0.00000000 0.00000000 -0.10848011
Neuron 73 3 0.75000000 8 5.75398651 0.00000000 0.00000000 -0.32738235
Neuron 210 3 0.50000000 3 2.39546831 0.00000000 0.00000000 0.21616832
Neuron 216 3 0.75000000 11 3.69475434 0.00000000 0.00000000 1.26228759
Neuron 371 3 0.25000000 11 2.94255540 0.00000000 0.00000000 0.12456696
Link 1 8 1 0 -2.01061879
Link 2 8 2 0 -1.35367774
Link 3 8 3 0 0.12525023
Link 7 8 7 0 -2.18596365
Link 1 9 8 0 0.66016617
Link 3 9 10 0 1.32584496
Link 6 9 13 0 0.72717479
Link 7 9 14 0 1.99392843
Link 12 73 748 0 1.00000000
Link 73 8 749 0 -0.02273657
Link 9 12 825 0 1.00000000
Link 4 210 2326 0 1.00000000
Link 210 9 2327 0 -1.05408220
Link 216 9 2421 0 -0.24300085
Link 2 216 2492 0 1.00000000
Link 3 216 2514 0 -0.09897377
Link 210 12 3604 0 0.07282934
Link 2 371 4806 0 1.00000000
Link 371 210 4807 0 0.04276624
Link 1 371 4954 0 0.08479629
Link 5 216 5435 0 0.25094542
GenomeEnd

GenomeStart 42639
Neuron 1 1 0.00000000 1 0.00000000 0.00000000 0.00000000 0.00000000
Neuron 2 1 0.00000000 1 0.00000000 0.00000000 0.00000000 0.00000000
Neuron 3 1 0.00000000 1 0.00000000 0.00000000 0.00000000 0.00000000
Neuron 4 1 0.00000000 1 0.00000000 0.00000000 0.00000000 0.00000000
Neuron 5 1 0.00000000 1 0.00000000 0.00000000 0.00000000 0.00000000
Neuron 6 1 0.00000000 1 0.00000000 0.00000000 0.00000000 0.00000000
Neuron 7 2 0.00000000 1 0.00000000 0.00000000 0.00000000 0.00000000
Neuron 8 4 1.00000000 9 3.50000000 0.00000000 0.00000000 -0.48223486
Neuron 9 4 1.00000000 9 3.50000000 0.00000000 0.00000000 -0.80470480
Neuron 12 3 0.50000000 2 2.06444028 0.00000000 0.00000000 -0.10848011
Neuron 73 3 0.75000000 8 5.75398651 0.00000000 0.00000000 -0.68548775
Neuron 210 3 0.50000000 3 2.39546831 0.00000000 0.00000000 0.22558430
Neuron 216 3 0.75000000 11 3.69475434 0.00000000 0.00000000 1.01181822
Neuron 371 3 0.25000000 11 2.94255540 0.00000000 0.00000000 0.20030612
Neuron 373 3 0.75000000 8 3.43528569 0.00000000 0.00000000 0.42272712
Neuron 404 3 0.50000000 11 5.01780477 0.00000000 0.00000000 0.02372751
Link 2 8 2 0 -1.35367774
Link 3 8 3 0 0.12525023
Link 7 8 7 0 -2.18596365
Link 1 9 8 0 0.66016617
Link 3 9 10 0 1.32584496
Link 6 9 13 0 0.72717479
Link 7 9 14 0 1.99392843
Link 12 73 748 0 1.00000000
Link 73 8 749 0 -0.02273657
Link 9 12 825 0 1.00000000
Link 4 210 2326 0 1.00000000
Link 216 9 2421 0 -0.24300085
Link 2 216 2492 0 1.00000000
Link 3 216 2514 0 -0.09897377
Link 210 12 3604 0 0.07282934
Link 2 371 4806 0 1.00000000
Link 371 210 4807 0 0.04276624
Link 210 373 4847 0 1.00000000
Link 373 9 4848 0 -1.05408220
Link 373 216 4889 0 -0.73568564
Link 4 216 4919 0 0.24654012
Link 7 73 5055 0 0.64201249
Link 1 404 5219 0 1.00000000
Link 404 8 5220 0 -2.01061879
Link 216 12 5345 1 0.51752038
GenomeEnd

GenomeStart 42640
Neuron 1 1 0.00000000 1 0.00000000 0.00000000 0.00000000 0.00000000
Neuron 2 1 0.00000000 1 0.00000000 0.00000000 0.00000000 0.00000000
Neuron 3 1 0.00000000 1 0.00000000 0.00000000 0.00000000 0.00000000
Neuron 4 1 0.00000000 1 0.00000000 0.00000000 0.00000000 0.00000000
Neuron 5 1 0.00000000 1 0.00000000 0.00000000 0.00000000 0.00000000
Neuron 6 1 0.00000000 1 0.00000000 0.00000000 0.00000000 0.00000000
Neuron 7 2 0.00000000 1 0.00000000 0.00000000 0.00000000 0.00000000
Neuron 8 4 1.00000000 9 3.50000000 0.00000000 0.00000000 -0.48223486
Neuron 9 4 1.00000000 9 3.50000000 0.00000000 0.00000000 -0.80470480
Neuron 12 3 0.50000000 2 2.06444028 0.00000000 0.00000000 -0.10848011
Neuron 73 3 0.75000000 8 5.75398651 0.00000000 0.00000000 -0.68548775
Neuron 210 3 0.50000000 3 2.39546831 0.00000000 0.00000000 0.22558430
Neuron 216 3 0.75000000 11 3.69475434 0.00000000 0.00000000 1.01181822
Neuron 371 3 0.25000000 11 2.94255540 0.00000000 0.00000000 0.20030612
Neuron 373 3 0.75000000 8 3.43528569 0.00000000 0.00000000 0.42272712
Neuron 404 3 0.50000000 11 5.01780477 0.00000000 0.00000000 0.02372751
Link 2 8 2 0 -1.35367774
Link 3 8 3 0 0.12525023
Link 7 8 7 0 -2.18596365
Link 1 9 8 0 0.66016617
Link 3 9 10 0 1.32584496
Link 6 9 13 0 0.72717479
Link 7 9 14 0 1.99392843
Link 12 73 748 0 1.00000000
Link 73 8 749 0 -0.02273657
Link 9 12 825 0 1.00000000
Link 4 210 2326 0 1.00000000
Link 216 9 2421 0 -0.24300085
Link 2 216 2492 0 1.00000000
Link 3 216 2514 0 -0.09897377
Link 210 12 3604 0 0.07282934
Link 2 371 4806 0 1.00000000
Link 371 210 4807 0 0.04276624
Link 210 373 4847 0 1.00000000
Link 373 9 4848 0 -1.05408220
Link 373 216 4889 0 -0.73568564
Link 4 216 4919 0 0.24654012
Link 7 73 5055 0 0.64201249
Link 1 404 5219 0 1.00000000
Link 404 8 5220 0 -2.01061879
Link 216 12 5345 1 0.51752038
GenomeEnd

GenomeStart 42641
Neuron 1 1 0.00000000 1 0.00000000 0.00000000 0.00000000 0.00000000
Neuron 2 1 0.00000000 1 0.00000000 0.00000000 0.00000000 0.00000000
Neuron 3 1 0.00000000 1 0.00000000 0.00000000 0.00000000 0.00000000
Neuron 4 1 0.00000000 1 0.00000000 0.00000000 0.00000000 0.00000000
Neuron 5 1 0.00000000 1 0.00000000 0.00000000 0.00000000 0.00000000
Neuron 6 1 0.00000000 1 0.00000000 0.00000000 0.00000000 0.00000000
Neuron 7 2 0.00000000 1 0.00000000 0.00000000 0.00000000 0.00000000
Neuron 8 4 1.00000000 9 3.50000000 0.00000000 0.00000000 -0.48223486
Neuron 9 4 1.00000000 9 3.50000000 0.00000000 0.00000000 -0.80470480
Neuron 12 3 0.50000000 2 2.06444028 0.00000000 0.00000000 -0.10848011
Neuron 73 3 0.75000000 8 5.75398651 0.00000000 0.00000000 -0.68548775
Neuron 210 3 0.50000000 3 2.39546831 0.00000000 0.00000000 0.22558430
Neuron 216 3 0.75000000 11 3.69475434 0.00000000 0.00000000 1.01181822
Neuron 371 3 0.25000000 11 2.94255540 0.00000000 0.00000000 0.20030612
Neuron 373 3 0.75000000 8 3.43528569 0.00000000 0.00000000 0.42272712
Neuron 404 3 0.50000000 11 5.01780477 0.00000000 0.00000000 0.02372751
Link 2 8 2 0 -1.35367774
Link 3 8 3 0 0.12525023
Link 7 8 7 0 -2.18596365
Link 1 9 8 0 0.66016617
Link 3 9 10 0 1.32584496
Link 6 9 13 0 0.72717479
Link 7 9 14 0 1.99392843
Link 12 73 748 0 1.00000000
Link 73 8 749 0 -0.02273657
Link 9 12 825 0 1.00000000
Link 4 210 2326 0 1.00000000
Link 216 9 2421 0 -0.24300085
Link 2 216 2492 0 1.00000000
Link 3 216 2514 0 -0.09897377
Link 210 12 3604 0 0.07282934
Link 2 371 4806 0 1.00000000
Link 371 210 4807 0 0.04276624
Link 210 373 4847 0 1.00000000
Link 373 9 4848 0 -1.05408220
Link 373 216 4889 0 -0.73568564
Link 4 216 4919 0 0.24654012
Link 7 73 5055 0 0.64201249
Link 1 404 5219 0 1.00000000
Link 404 8 5220 0 -2.01061879
Link 216 12 5345 1 0.51752038
GenomeEnd

GenomeStart 42642
Neuron 1 1 0.00000000 1 0.00000000 0.00000000 0.00000000 0.00000000
Neuron 2 1 0.00000000 1 0.00000000 0.00000000 0.00000000 0.00000000
Neuron 3 1 0.00000000 1 0.00000000 0.00000000 0.00000000 0.00000000
Neuron 4 1 0.00000000 1 0.00000000 0.00000000 0.00000000 0.00000000
Neuron 5 1 0.00000000 1 0.00000000 0.00000000 0.00000000 0.00000000
Neuron 6 1 0.00000000 1 0.00000000 0.00000000 0.00000000 0.00000000
Neuron 7 2 0.00000000 1 0.00000000 0.00000000 0.00000000 0.00000000
Neuron 8 4 1.00000000 9 3.50000000 0.00000000 0.00000000 -0.48223486
Neuron 9 4 1.00000000 9 3.50000000 0.00000000 0.00000000 -0.80470480
Neuron 12 3 0.50000000 2 2.06444028 0.00000000 0.00000000 -0.10848011
Neuron 73 3 0.75000000 8 5.75398651 0.00000000 0.00000000 -0.68548775
Neuron 210 3 0.50000000 3 2.39546831 0.00000000 0.00000000 0.22558430
Neuron 216 3 0.75000000 11 3.69475434 0.00000000 0.00000000 1.01181822
Neuron 371 3 0.25000000 11 2.94255540 0.00000000 0.00000000 0.20030612
Neuron 373 3 0.75000000 8 3.43528569 0.00000000 0.00000000 0.42272712
Neuron 404 3 0.50000000 11 5.01780477 0.00000000 0.00000000 0.02372751
Link 2 8 2 0 -1.35367774
Link 3 8 3 0 0.12525023
Link 7 8 7 0 -2.18596365
Link 1 9 8 0 0.66016617
Link 3 9 10 0 1.32584496
Link 6 9 13 0 0.72717479
Link 7 9 14 0 1.99392843
Link 12 73 748 0 1.00000000
Link 73 8 749 0 -0.02273657
Link 9 12 825 0 1.00000000
Link 4 210 2326 0 1.00000000
Link 216 9 2421 0 -0.24300085
Link 2 216 2492 0 1.00000000
Link 3 216 2514 0 -0.09897377
Link 210 12 3604 0 0.07282934
Link 2 371 4806 0 1.00000000
Link 371 210 4807 0 0.04276624
Link 210 373 4847 0 1.00000000
Link 373 9 4848 0 -1.05408220
Link 373 216 4889 0 -0.73568564
Link 4 216 4919 0 0.24654012
Link 7 73 5055 0 0.64201249
Link 1 404 5219 0 1.00000000
Link 404 8 5220 0 -2.01061879
Link 216 12 5345 1 0.51752038
GenomeEnd

GenomeStart 42643
Neuron 1 1 0.00000000 1 0.00000000 0.00000000 0.00000000 0.00000000
Neuron 2 1 0.00000000 1 0.00000000 0.00000000 0.00000000 0.00000000
Neuron 3 1 0.00000000 1 0.00000000 0.00000000 0.00000000 0.00000000
Neuron 4 1 0.00000000 1 0.00000000 0.00000000 0.00000000 0.00000000
Neuron 5 1 0.00000000 1 0.00000000 0.00000000 0.00000000 0.00000000
Neuron 6 1 0.00000000 1 0.00000000 0.00000000 0.00000000 0.00000000
Neuron 7 2 0.00000000 1 0.00000000 0.00000000 0.00000000 0.00000000
Neuron 8 4 1.00000000 9 3.50000000 0.00000000 0.00000000 -0.48223486
Neuron 9 4 1.00000000 9 3.50000000 0.00000000 0.00000000 -0.80470480
Neuron 12 3 0.50000000 2 2.06444028 0.00000000 0.00000000 -0.10848011
Neuron 73 3 0.75000000 8 5.75398651 0.00000000 0.00000000 -0.68548775
Neuron 210 3 0.50000000 3 2.39546831 0.00000000 0.00000000 0.22558430
Neuron 216 3 0.75000000 11 3.69475434 0.00000000 0.00000000 1.01181822
Neuron 371 3 0.25000000 11 2.94255540 0.00000000 0.00000000 0.20030612
Neuron 373 3 0.75000000 8 3.43528569 0.00000000 0.00000000 0.42272712
Neuron 404 3 0.50000000 11 5.01780477 0.00000000 0.00000000 0.02372751
Link 2 8 2 0 -1.26263345
Link 3 8 3 0 0.32649921
Link 7 8 7 0 -2.42931779
Link 1 9 8 0 0.39488741
Link 3 9 10 0 -0.19460435
Link 6 9 13 0 -0.03793402
Link 7 9 14 0 1.75228494
Link 12 73 748 0 1.37791788
Link 73 8 749 0 -0.23107362
Link 9 12 825 0 0.84441149
Link 4 210 2326 0 -0.39854513
Link 216 9 2421 0 -0.36320990
Link 2 216 2492 0 0.94887695
Link 3 216 2514 0 0.15587460
Link 210 12 3604 0 0.22731360
Link 2 371 4806 0 1.02691821
Link 371 210 4807 0 0.29828850
Link 210 373 4847 0 1.00000000
Link 373 9 4848 0 -1.11860064
Link 373 216 4889 0 -1.00854113
Link 4 216 4919 0 0.31809611
Link 7 73 5055 0 1.01429592
Link 1 404 5219 0 -0.49585124
Link 404 8 5220 0 -1.80966745
Link 216 12 5345 1 -0.08840060
GenomeEnd

GenomeStart 42644
Neuron 1 1 0.00000000 1 0.00000000 0.00000000 0.00000000 0.00000000
Neuron 2 1 0.00000000 1 0.00000000 0.00000000 0.00000000 0.00000000
Neuron 3 1 0.00000000 1 0.00000000 0.00000000 0.00000000 0.00000000
Neuron 4 1 0.00000000 1 0.00000000 0.00000000 0.00000000 0.00000000
Neuron 5 1 0.00000000 1 0.00000000 0.00000000 0.00000000 0.00000000
Neuron 6 1 0.00000000 1 0.00000000 0.00000000 0.00000000 0.00000000
Neuron 7 2 0.00000000 1 0.00000000 0.00000000 0.00000000 0.00000000
Neuron 8 4 1.00000000 9 3.50000000 0.00000000 0.00000000 -0.48223486
Neuron 9 4 1.00000000 9 3.50000000 0.00000000 0.00000000 -0.80470480
Neuron 12 3 0.50000000 2 2.06444028 0.00000000 0.00000000 -0.10848011
Neuron 73 3 0.75000000 8 5.75398651 0.00000000 0.00000000 -0.68548775
Neuron 210 3 0.50000000 3 2.39546831 0.00000000 0.00000000 0.22558430
Neuron 216 3 0.75000000 11 3.69475434 0.00000000 0.00000000 1.01181822
Neuron 371 3 0.25000000 11 2.94255540 0.00000000 0.00000000 0.20030612
Neuron 373 3 0.75000000 8 3.43528569 0.00000000 0.00000000 0.42272712
Neuron 404 3 0.50000000 11 5.01780477 0.00000000 0.00000000 0.02372751
Link 2 8 2 0 -1.36277027
Link 3 8 3 0 0.00711985
Link 7 8 7 0 -2.34658404
Link 1 9 8 0 0.88193804
Link 3 9 10 0 1.10457972
Link 6 9 13 0 0.71170019
Link 7 9 14 0 1.84452702
Link 12 73 748 0 0.75226264
Link 73 8 749 0 -0.14008988
Link 9 12 825 0 0.86998504
Link 4 210 2326 0 1.02347034
Link 216 9 2421 0 -0.12156643
Link 2 216 2492 0 0.82433361
Link 3 216 2514 0 -0.21845074
Link 210 12 3604 0 0.41188960
Link 2 371 4806 0 0.89245673
Link 371 210 4807 0 0.30577408
Link 210 373 4847 0 1.13760273
Link 373 9 4848 0 -1.25286953
Link 373 216 4889 0 -0.93651919
Link 4 216 4919 0 0.22494509
Link 7 73 5055 0 0.53822698
Link 1 404 5219 0 0.75275138
Link 404 8 5220 0 -2.02066234
Link 216 12 5345 1 -0.49407144
GenomeEnd

GenomeStart 42645
Neuron 1 1 0.00000000 1 0.00000000 0.00000000 0.00000000 0.00000000
Neuron 2 1 0.00000000 1 0.00000000 0.00000000 0.00000000 0.00000000
Neuron 3 1 0.00000000 1 0.00000000 0.00000000 0.00000000 0.00000000
Neuron 4 1 0.00000000 1 0.00000000 0.00000000 0.00000000 0.00000000
Neuron 5 1 0.00000000 1 0.00000000 0.00000000 0.00000000 0.00000000
Neuron 6 1 0.00000000 1 0.00000000 0.00000000 0.00000000 0.00000000
Neuron 7 2 0.00000000 1 0.00000000 0.00000000 0.00000000 0.00000000
Neuron 8 4 1.00000000 9 3.50000000 0.00000000 0.00000000 -0.48223486
Neuron 9 4 1.00000000 9 3.50000000 0.00000000 0.00000000 -0.80470480
Neuron 12 3 0.50000000 2 2.06444028 0.00000000 0.00000000 -0.10848011
Neuron 73 3 0.75000000 8 5.75398651 0.00000000 0.00000000 -0.68548775
Neuron 210 3 0.50000000 3 2.39546831 0.00000000 0.00000000 0.22558430
Neuron 216 3 0.75000000 11 3.69475434 0.00000000 0.00000000 1.01181822
Neuron 371 3 0.25000000 11 2.94255540 0.00000000 0.00000000 0.20030612
Neuron 373 3 0.75000000 8 3.43528569 0.00000000 0.00000000 0.42272712
Neuron 404 3 0.50000000 11 5.01780477 0.00000000 0.00000000 0.02372751
Link 2 8 2 0 -1.35367774
Link 3 8 3 0 0.12525023
Link 7 8 7 0 -2.18596365
Link 1 9 8 0 0.66016617
Link 3 9 10 0 1.32584496
Link 6 9 13 0 0.72717479
Link 7 9 14 0 1.99392843
Link 12 73 748 0 1.00000000
Link 73 8 749 0 -0.02273657
Link 9 12 825 0 1.00000000
Link 4 210 2326 0 1.00000000
Link 216 9 2421 0 -0.24300085
Link 2 216 2492 0 1.00000000
Link 3 216 2514 0 -0.09897377
Link 210 12 3604 0 0.07282934
Link 2 371 4806 0 1.00000000
Link 371 210 4807 0 0.04276624
Link 210 373 4847 0 1.00000000
Link 373 9 4848 0 -1.05408220
Link 373 216 4889 0 -0.73568564
Link 4 216 4919 0 0.24654012
Link 7 73 5055 0 0.64201249
Link 1 404 5219 0 1.00000000
Link 404 8 5220 0 -2.01061879
Link 216 12 5345 1 0.51752038
GenomeEnd

GenomeStart 42646
Neuron 1 1 0.00000000 1 0.00000000 0.00000000 0.00000000 0.00000000
Neuron 2 1 0.00000000 1 0.00000000 0.00000000 0.00000000 0.00000000
Neuron 3 1 0.00000000 1 0.00000000 0.00000000 0.00000000 0.00000000
Neuron 4 1 0.00000000 1 0.00000000 0.00000000 0.00000000 0.00000000
Neuron 5 1 0.00000000 1 0.00000000 0.00000000 0.00000000 0.00000000
Neuron 6 1 0.00000000 1 0.00000000 0.00000000 0.00000000 0.00000000
Neuron 7 2 0.00000000 1 0.00000000 0.00000000 0.00000000 0.00000000
Neuron 8 4 1.00000000 9 3.50000000 0.00000000 0.00000000 -0.48223486
Neuron 9 4 1.00000000 9 3.50000000 0.00000000 0.00000000 -0.80470480
Neuron 12 3 0.50000000 2 2.06444028 0.00000000 0.00000000 -0.10848011
Neuron 73 3 0.75000000 8 5.75398651 0.00000000 0.00000000 -0.68548775
Neuron 210 3 0.50000000 3 2.39546831 0.00000000 0.00000000 0.22558430
Neuron 216 3 0.75000000 11 3.69475434 0.00000000 0.00000000 1.01181822
Neuron 371 3 0.25000000 11 2.94255540 0.00000000 0.00000000 0.20030612
Neuron 373 3 0.75000000 8 3.43528569 0.00000000 0.00000000 0.42272712
Neuron 404 3 0.50000000 11 5.01780477 0.00000000 0.00000000 0.02372751
Link 2 8 2 0 -1.35367774
Link 3 8 3 0 0.12525023
Link 7 8 7 0 -2.18596365
Link 1 9 8 0 0.66016617
Link 3 9 10 0 1.32584496
Link 6 9 13 0 0.72717479
Link 7 9 14 0 1.99392843
Link 12 73 748 0 1.00000000
Link 73 8 749 0 -0.02273657
Link 9 12 825 0 1.00000000
Link 4 210 2326 0 1.00000000
Link 216 9 2421 0 -0.24300085
Link 2 216 2492 0 1.00000000
Link 3 216 2514 0 -0.09897377
Link 210 12 3604 0 0.07282934
Link 2 371 4806 0 1.00000000
Link 371 210 4807 0 0.04276624
Link 210 373 4847 0 1.00000000
Link 373 9 4848 0 -1.05408220
Link 373 216 4889 0 -0.73568564
Link 4 216 4919 0 0.24654012
Link 7 73 5055 0 0.64201249
Link 1 404 5219 0 1.00000000
Link 404 8 5220 0 -2.01061879
Link 216 12 5345 1 0.51752038
GenomeEnd

GenomeStart 42647
Neuron 1 1 0.00000000 1 0.00000000 0.00000000 0.00000000 0.00000000
Neuron 2 1 0.00000000 1 0.00000000 0.00000000 0.00000000 0.00000000
Neuron 3 1 0.00000000 1 0.00000000 0.00000000 0.00000000 0.00000000
Neuron 4 1 0.00000000 1 0.00000000 0.00000000 0.00000000 0.00000000
Neuron 5 1 0.00000000 1 0.00000000 0.00000000 0.00000000 0.00000000
Neuron 6 1 0.00000000 1 0.00000000 0.00000000 0.00000000 0.00000000
Neuron 7 2 0.00000000 1 0.00000000 0.00000000 0.00000000 0.00000000
Neuron 8 4 1.00000000 9 3.50000000 0.00000000 0.00000000 -0.48223486
Neuron 9 4 1.00000000 9 3.50000000 0.00000000 0.00000000 -0.80470480
Neuron 12 3 0.50000000 2 2.06444028 0.00000000 0.00000000 -0.10848011
Neuron 73 3 0.75000000 8 5.75398651 0.00000000 0.00000000 -0.68548775
Neuron 210 3 0.50000000 3 2.39546831 0.00000000 0.00000000 0.22558430
Neuron 216 3 0.75000000 11 3.69475434 0.00000000 0.00000000 1.01181822
Neuron 371 3 0.25000000 11 2.94255540 0.00000000 0.00000000 0.20030612
Neuron 373 3 0.75000000 8 3.43528569 0.00000000 0.00000000 0.42272712
Neuron 404 3 0.50000000 11 5.01780477 0.00000000 0.00000000 0.02372751
Link 2 8 2 0 -1.35367774
Link 3 8 3 0 0.12525023
Link 7 8 7 0 -2.18596365
Link 1 9 8 0 0.66016617
Link 3 9 10 0 1.32584496
Link 6 9 13 0 0.72717479
Link 7 9 14 0 1.99392843
Link 12 73 748 0 1.00000000
Link 73 8 749 0 -0.02273657
Link 9 12 825 0 1.00000000
Link 4 210 2326 0 1.00000000
Link 216 9 2421 0 -0.24300085
Link 2 216 2492 0 1.00000000
Link 3 216 2514 0 -0.09897377
Link 210 12 3604 0 0.07282934
Link 2 371 4806 0 1.00000000
Link 371 210 4807 0 0.04276624
Link 210 373 4847 0 1.00000000
Link 373 9 4848 0 -1.05408220
Link 373 216 4889 0 -0.73568564
Link 4 216 4919 0 0.24654012
Link 7 73 5055 0 0.64201249
Link 1 404 5219 0 1.00000000
Link 404 8 5220 0 -2.01061879
Link 216 12 5345 1 0.51752038
GenomeEnd

GenomeStart 42648
Neuron 1 1 0.00000000 1 0.00000000 0.00000000 0.00000000 0.00000000
Neuron 2 1 0.00000000 1 0.00000000 0.00000000 0.00000000 0.00000000
Neuron 3 1 0.00000000 1 0.00000000 0.00000000 0.00000000 0.00000000
Neuron 4 1 0.00000000 1 0.00000000 0.00000000 0.00000000 0.00000000
Neuron 5 1 0.00000000 1 0.00000000 0.00000000 0.00000000 0.00000000
Neuron 6 1 0.00000000 1 0.00000000 0.00000000 0.00000000 0.00000000
Neuron 7 2 0.00000000 1 0.00000000 0.00000000 0.00000000 0.00000000
Neuron 8 4 1.00000000 9 3.50000000 0.00000000 0.00000000 -0.48223486
Neuron 9 4 1.00000000 9 3.50000000 0.00000000 0.00000000 -0.80470480
Neuron 12 3 0.50000000 2 2.06444028 0.00000000 0.00000000 -0.10848011
Neuron 73 3 0.75000000 8 5.75398651 0.00000000 0.00000000 -0.68548775
Neuron 210 3 0.50000000 3 2.39546831 0.00000000 0.00000000 0.22558430
Neuron 216 3 0.75000000 11 3.69475434 0.00000000 0.00000000 1.01181822
Neuron 371 3 0.25000000 11 2.94255540 0.00000000 0.00000000 0.20030612
Neuron 373 3 0.75000000 8 3.43528569 0.00000000 0.00000000 0.42272712
Neuron 404 3 0.50000000 11 5.01780477 0.00000000 0.00000000 0.02372751
Link 2 8 2 0 -1.35367774
Link 3 8 3 0 0.12525023
Link 7 8 7 0 -2.18596365
Link 1 9 8 0 0.66016617
Link 3 9 10 0 1.32584496
Link 6 9 13 0 0.72717479
Link 7 9 14 0 1.99392843
Link 12 73 748 0 1.00000000
Link 73 8 749 0 -0.02273657
Link 9 12 825 0 1.00000000
Link 4 210 2326 0 1.00000000
Link 216 9 2421 0 -0.24300085
Link 2 216 2492 0 1.00000000
Link 3 216 2514 0 -0.09897377
Link 210 12 3604 0 0.07282934
Link 2 371 4806 0 1.00000000
Link 371 210 4807 0 0.04276624
Link 210 373 4847 0 1.00000000
Link 373 9 4848 0 -1.05408220
Link 373 216 4889 0 -0.73568564
Link 4 216 4919 0 0.24654012
Link 7 73 5055 0 0.64201249
Link 1 404 5219 0 1.00000000
Link 404 8 5220 0 -2.01061879
Link 216 12 5345 1 0.51752038
GenomeEnd

GenomeStart 42649
Neuron 1 1 0.00000000 1 0.00000000 0.00000000 0.00000000 0.00000000
Neuron 2 1 0.00000000 1 0.00000000 0.00000000 0.00000000 0.00000000
Neuron 3 1 0.00000000 1 0.00000000 0.00000000 0.00000000 0.00000000
Neuron 4 1 0.00000000 1 0.00000000 0.00000000 0.00000000 0.00000000
Neuron 5 1 0.00000000 1 0.00000000 0.00000000 0.00000000 0.00000000
Neuron 6 1 0.00000000 1 0.00000000 0.00000000 0.00000000 0.00000000
Neuron 7 2 0.00000000 1 0.00000000 0.00000000 0.00000000 0.00000000
Neuron 8 4 1.00000000 9 3.50000000 0.00000000 0.00000000 -0.48223486
Neuron 9 4 1.00000000 9 3.50000000 0.00000000 0.00000000 -0.80470480
Neuron 12 3 0.50000000 2 2.06444028 0.00000000 0.00000000 -0.10848011
Neuron 73 3 0.75000000 8 5.75398651 0.00000000 0.00000000 -0.68548775
Neuron 210 3 0.50000000 3 2.39546831 0.00000000 0.00000000 0.22558430
Neuron 216 3 0.75000000 11 3.69475434 0.00000000 0.00000000 1.01181822
Neuron 371 3 0.25000000 11 2.94255540 0.00000000 0.00000000 0.20030612
Neuron 373 3 0.75000000 8 3.43528569 0.00000000 0.00000000 0.42272712
Neuron 404 3 0.50000000 11 5.01780477 0.00000000 0.00000000 0.02372751
Link 2 8 2 0 -1.35367774
Link 3 8 3 0 0.12525023
Link 7 8 7 0 -2.18596365
Link 1 9 8 0 0.66016617
Link 3 9 10 0 1.32584496
Link 6 9 13 0 0.72717479
Link 7 9 14 0 1.99392843
Link 12 73 748 0 1.00000000
Link 73 8 749 0 -0.02273657
Link 9 12 825 0 1.00000000
Link 4 210 2326 0 1.00000000
Link 216 9 2421 0 -0.24300085
Link 2 216 2492 0 1.00000000
Link 3 216 2514 0 -0.09897377
Link 210 12 3604 0 0.07282934
Link 2 371 4806 0 1.00000000
Link 371 210 4807 0 0.04276624
Link 210 373 4847 0 1.00000000
Link 373 9 4848 0 -1.05408220
Link 373 216 4889 0 -0.73568564
Link 4 216 4919 0 0.24654012
Link 7 73 5055 0 0.64201249
Link 1 404 5219 0 1.00000000
Link 404 8 5220 0 -2.01061879
Link 216 12 5345 1 0.51752038
GenomeEnd

GenomeStart 42650
Neuron 1 1 0.00000000 1 0.00000000 0.00000000 0.00000000 0.00000000
Neuron 2 1 0.00000000 1 0.00000000 0.00000000 0.00000000 0.00000000
Neuron 3 1 0.00000000 1 0.00000000 0.00000000 0.00000000 0.00000000
Neuron 4 1 0.00000000 1 0.00000000 0.00000000 0.00000000 0.00000000
Neuron 5 1 0.00000000 1 0.00000000 0.00000000 0.00000000 0.00000000
Neuron 6 1 0.00000000 1 0.00000000 0.00000000 0.00000000 0.00000000
Neuron 7 2 0.00000000 1 0.00000000 0.00000000 0.00000000 0.00000000
Neuron 8 4 1.00000000 9 3.50000000 0.00000000 0.00000000 -0.48223486
Neuron 9 4 1.00000000 9 3.50000000 0.00000000 0.00000000 -0.80470480
Neuron 12 3 0.50000000 2 2.06444028 0.00000000 0.00000000 -0.10848011
Neuron 73 3 0.75000000 8 5.75398651 0.00000000 0.00000000 -0.68548775
Neuron 210 3 0.50000000 3 2.39546831 0.00000000 0.00000000 0.22558430
Neuron 216 3 0.75000000 9 3.69475434 0.00000000 0.00000000 1.01181822
Neuron 371 3 0.25000000 11 2.94255540 0.00000000 0.00000000 0.20030612
Neuron 373 3 0.75000000 8 3.43528569 0.00000000 0.00000000 0.42272712
Neuron 404 3 0.50000000 11 5.01780477 0.00000000 0.00000000 0.02372751
Link 2 8 2 0 -1.35367774
Link 3 8 3 0 0.12525023
Link 7 8 7 0 -2.18596365
Link 1 9 8 0 0.66016617
Link 3 9 10 0 1.32584496
Link 6 9 13 0 0.72717479
Link 7 9 14 0 1.99392843
Link 12 73 748 0 1.00000000
Link 73 8 749 0 -0.02273657
Link 9 12 825 0 1.00000000
Link 4 210 2326 0 1.00000000
Link 216 9 2421 0 -0.24300085
Link 2 216 2492 0 1.00000000
Link 3 216 2514 0 -0.09897377
Link 210 12 3604 0 0.07282934
Link 2 371 4806 0 1.00000000
Link 371 210 4807 0 0.04276624
Link 210 373 4847 0 1.00000000
Link 373 9 4848 0 -1.05408220
Link 373 216 4889 0 -0.73568564
Link 4 216 4919 0 0.24654012
Link 7 73 5055 0 0.64201249
Link 1 404 5219 0 1.00000000
Link 404 8 5220 0 -2.01061879
Link 216 12 5345 1 0.51752038
GenomeEnd

GenomeStart 42651
Neuron 1 1 0.00000000 1 0.00000000 0.00000000 0.00000000 0.00000000
Neuron 2 1 0.00000000 1 0.00000000 0.00000000 0.00000000 0.00000000
Neuron 3 1 0.00000000 1 0.00000000 0.00000000 0.00000000 0.00000000
Neuron 4 1 0.00000000 1 0.00000000 0.00000000 0.00000000 0.00000000
Neuron 5 1 0.00000000 1 0.00000000 0.00000000 0.00000000 0.00000000
Neuron 6 1 0.00000000 1 0.00000000 0.00000000 0.00000000 0.00000000
Neuron 7 2 0.00000000 1 0.00000000 0.00000000 0.00000000 0.00000000
Neuron 8 4 1.00000000 9 3.50000000 0.00000000 0.00000000 -0.48223486
Neuron 9 4 1.00000000 9 3.50000000 0.00000000 0.00000000 -0.80470480
Neuron 12 3 0.50000000 2 2.06444028 0.00000000 0.00000000 -0.10848011
Neuron 73 3 0.75000000 8 5.75398651 0.00000000 0.00000000 -0.68548775
Neuron 210 3 0.50000000 3 2.39546831 0.00000000 0.00000000 0.22558430
Neuron 216 3 0.75000000 11 3.69475434 0.00000000 0.00000000 1.01181822
Neuron 371 3 0.25000000 11 2.94255540 0.00000000 0.00000000 0.20030612
Neuron 373 3 0.75000000 8 3.43528569 0.00000000 0.00000000 0.42272712
Neuron 404 3 0.50000000 11 5.01780477 0.00000000 0.00000000 0.02372751
Link 2 8 2 0 -1.35367774
Link 3 8 3 0 0.12525023
Link 7 8 7 0 -2.18596365
Link 1 9 8 0 0.66016617
Link 3 9 10 0 1.32584496
Link 6 9 13 0 0.72717479
Link 7 9 14 0 1.99392843
Link 12 73 748 0 1.00000000
Link 73 8 749 0 -0.02273657
Link 9 12 825 0 1.00000000
Link 4 210 2326 0 1.00000000
Link 216 9 2421 0 -0.24300085
Link 2 216 2492 0 1.00000000
Link 3 216 2514 0 -0.09897377
Link 210 12 3604 0 0.07282934
Link 2 371 4806 0 1.00000000
Link 371 210 4807 0 0.04276624
Link 210 373 4847 0 1.00000000
Link 373 9 4848 0 -1.05408220
Link 373 216 4889 0 -0.73568564
Link 4 216 4919 0 0.24654012
Link 7 73 5055 0 0.64201249
Link 1 404 5219 0 1.00000000
Link 404 8 5220 0 -2.01061879
Link 216 12 5345 1 0.51752038
GenomeEnd

GenomeStart 42652
Neuron 1 1 0.00000000 1 0.00000000 0.00000000 0.00000000 0.00000000
Neuron 2 1 0.00000000 1 0.00000000 0.00000000 0.00000000 0.00000000
Neuron 3 1 0.00000000 1 0.00000000 0.00000000 0.00000000 0.00000000
Neuron 4 1 0.00000000 1 0.00000000 0.00000000 0.00000000 0.00000000
Neuron 5 1 0.00000000 1 0.00000000 0.00000000 0.00000000 0.00000000
Neuron 6 1 0.00000000 1 0.00000000 0.00000000 0.00000000 0.00000000
Neuron 7 2 0.00000000 1 0.00000000 0.00000000 0.00000000 0.00000000
Neuron 8 4 1.00000000 9 3.50000000 0.00000000 0.00000000 -0.48223486
Neuron 9 4 1.00000000 9 3.50000000 0.00000000 0.00000000 -0.80470480
Neuron 12 3 0.50000000 2 2.06444028 0.00000000 0.00000000 -0.10848011
Neuron 73 3 0.75000000 8 5.75398651 0.00000000 0.00000000 -0.68548775
Neuron 210 3 0.50000000 3 2.39546831 0.00000000 0.00000000 0.22558430
Neuron 216 3 0.75000000 11 3.69475434 0.00000000 0.00000000 1.01181822
Neuron 371 3 0.25000000 11 2.94255540 0.00000000 0.00000000 0.20030612
Neuron 373 3 0.75000000 8 3.43528569 0.00000000 0.00000000 0.42272712
Neuron 404 3 0.50000000 11 5.01780477 0.00000000 0.00000000 0.02372751
Link 2 8 2 0 -1.35367774
Link 3 8 3 0 0.12525023
Link 7 8 7 0 -2.18596365
Link 1 9 8 0 0.66016617
Link 3 9 10 0 1.32584496
Link 6 9 13 0 0.72717479
Link 7 9 14 0 1.99392843
Link 12 73 748 0 1.00000000
Link 73 8 749 0 -0.02273657
Link 9 12 825 0 1.00000000
Link 4 210 2326 0 1.00000000
Link 216 9 2421 0 -0.24300085
Link 2 216 2492 0 1.00000000
Link 3 216 2514 0 -0.09897377
Link 210 12 3604 0 0.07282934
Link 2 371 4806 0 1.00000000
Link 371 210 4807 0 0.04276624
Link 210 373 4847 0 1.00000000
Link 373 9 4848 0 -1.05408220
Link 373 216 4889 0 -0.73568564
Link 4 216 4919 0 0.24654012
Link 7 73 5055 0 0.64201249
Link 1 404 5219 0 1.00000000
Link 404 8 5220 0 -2.01061879
Link 216 12 5345 1 0.51752038
GenomeEnd

GenomeStart 42654
Neuron 1 1 0.00000000 1 0.00000000 0.00000000 0.00000000 0.00000000
Neuron 2 1 0.00000000 1 0.00000000 0.00000000 0.00000000 0.00000000
Neuron 3 1 0.00000000 1 0.00000000 0.00000000 0.00000000 0.00000000
Neuron 4 1 0.00000000 1 0.00000000 0.00000000 0.00000000 0.00000000
Neuron 5 1 0.00000000 1 0.00000000 0.00000000 0.00000000 0.00000000
Neuron 6 1 0.00000000 1 0.00000000 0.00000000 0.00000000 0.00000000
Neuron 7 2 0.00000000 1 0.00000000 0.00000000 0.00000000 0.00000000
Neuron 8 4 1.00000000 9 3.50000000 0.00000000 0.00000000 -0.48223486
Neuron 9 4 1.00000000 9 3.50000000 0.00000000 0.00000000 -0.80470480
Neuron 12 3 0.50000000 2 2.06444028 0.00000000 0.00000000 -0.10848011
Neuron 73 3 0.75000000 8 5.75398651 0.00000000 0.00000000 -0.68548775
Neuron 210 3 0.50000000 3 2.39546831 0.00000000 0.00000000 0.22558430
Neuron 216 3 0.75000000 11 3.69475434 0.00000000 0.00000000 1.01181822
Neuron 371 3 0.25000000 11 2.94255540 0.00000000 0.00000000 0.20030612
Neuron 373 3 0.75000000 8 3.43528569 0.00000000 0.00000000 0.42272712
Neuron 404 3 0.50000000 11 5.01780477 0.00000000 0.00000000 0.02372751
Link 2 8 2 0 -1.35367774
Link 3 8 3 0 0.12525023
Link 7 8 7 0 -2.18596365
Link 1 9 8 0 0.66016617
Link 3 9 10 0 1.32584496
Link 6 9 13 0 0.72717479
Link 7 9 14 0 1.99392843
Link 12 73 748 0 1.00000000
Link 73 8 749 0 -0.02273657
Link 9 12 825 0 1.00000000
Link 4 210 2326 0 1.00000000
Link 216 9 2421 0 -0.24300085
Link 2 216 2492 0 1.00000000
Link 3 216 2514 0 -0.09897377
Link 210 12 3604 0 0.07282934
Link 2 371 4806 0 1.00000000
Link 371 210 4807 0 0.04276624
Link 210 373 4847 0 1.00000000
Link 373 9 4848 0 -1.05408220
Link 373 216 4889 0 -0.73568564
Link 4 216 4919 0 0.24654012
Link 7 73 5055 0 0.64201249
Link 1 404 5219 0 1.00000000
Link 404 8 5220 0 -2.01061879
Link 216 12 5345 1 0.51752038
Link 2 73 5437 0 -0.22345939
GenomeEnd

GenomeStart 42655
Neuron 1 1 0.00000000 1 0.00000000 0.00000000 0.00000000 0.00000000
Neuron 2 1 0.00000000 1 0.00000000 0.00000000 0.00000000 0.00000000
Neuron 3 1 0.00000000 1 0.00000000 0.00000000 0.00000000 0.00000000
Neuron 4 1 0.00000000 1 0.00000000 0.00000000 0.00000000 0.00000000
Neuron 5 1 0.00000000 1 0.00000000 0.00000000 0.00000000 0.00000000
Neuron 6 1 0.00000000 1 0.00000000 0.00000000 0.00000000 0.00000000
Neuron 7 2 0.00000000 1 0.00000000 0.00000000 0.00000000 0.00000000
Neuron 8 4 1.00000000 9 3.50000000 0.00000000 0.00000000 -0.48223486
Neuron 9 4 1.00000000 9 3.50000000 0.00000000 0.00000000 -0.80470480
Neuron 12 3 0.50000000 2 2.06444028 0.00000000 0.00000000 -0.10848011
Neuron 73 3 0.75000000 8 5.75398651 0.00000000 0.00000000 -0.68548775
Neuron 210 3 0.50000000 3 2.39546831 0.00000000 0.00000000 0.22558430
Neuron 216 3 0.75000000 11 3.69475434 0.00000000 0.00000000 1.01181822
Neuron 371 3 0.25000000 11 2.94255540 0.00000000 0.00000000 0.20030612
Neuron 373 3 0.75000000 8 3.43528569 0.00000000 0.00000000 0.42272712
Neuron 404 3 0.50000000 11 5.01780477 0.00000000 0.00000000 0.02372751
Link 2 8 2 0 -1.79703527
Link 3 8 3 0 0.02552025
Link 7 8 7 0 -1.91902777
Link 1 9 8 0 0.77478288
Link 3 9 10 0 1.19810542
Link 6 9 13 0 0.72132549
Link 7 9 14 0 2.00902119
Link 12 73 748 0 0.97028077
Link 73 8 749 0 0.08557531
Link 9 12 825 0 1.35629542
Link 4 210 2326 0 1.03278891
Link 216 9 2421 0 -0.12746604
Link 2 216 2492 0 1.22970368
Link 3 216 2514 0 -0.39794680
Link 210 12 3604 0 -0.28182031
Link 2 371 4806 0 1.32024315
Link 371 210 4807 0 -0.36427596
Link 210 373 4847 0 0.57385697
Link 373 9 4848 0 -0.97503716
Link 373 216 4889 0 -0.61332608
Link 4 216 4919 0 0.12520473
Link 7 73 5055 0 0.78664152
Link 1 404 5219 0 1.02784759
Link 404 8 5220 0 -1.85231425
Link 216 12 5345 1 0.50252469
GenomeEnd

GenomeStart 42656
Neuron 1 1 0.00000000 1 0.00000000 0.00000000 0.00000000 0.00000000
Neuron 2 1 0.00000000 1 0.00000000 0.00000000 0.00000000 0.00000000
Neuron 3 1 0.00000000 1 0.00000000 0.00000000 0.00000000 0.00000000
Neuron 4 1 0.00000000 1 0.00000000 0.00000000 0.00000000 0.00000000
Neuron 5 1 0.00000000 1 0.00000000 0.00000000 0.00000000 0.00000000
Neuron 6 1 0.00000000 1 0.00000000 0.00000000 0.00000000 0.00000000
Neuron 7 2 0.00000000 1 0.00000000 0.00000000 0.00000000 0.00000000
Neuron 8 4 1.00000000 9 3.50000000 0.00000000 0.00000000 -0.48223486
Neuron 9 4 1.00000000 9 3.50000000 0.00000000 0.00000000 -0.80470480
Neuron 12 3 0.50000000 2 2.06444028 0.00000000 0.00000000 -0.10848011
Neuron 73 3 0.75000000 8 5.75398651 0.00000000 0.00000000 -0.68548775
Neuron 210 3 0.50000000 3 2.39546831 0.00000000 0.00000000 0.22558430
Neuron 216 3 0.75000000 11 3.69475434 0.00000000 0.00000000 1.01181822
Neuron 371 3 0.25000000 11 2.94255540 0.00000000 0.00000000 0.20030612
Neuron 373 3 0.75000000 8 3.43528569 0.00000000 0.00000000 0.42272712
Neuron 404 3 0.50000000 11 5.01780477 0.00000000 0.00000000 0.02372751
Link 2 8 2 0 -1.21252609
Link 3 8 3 0 0.43575854
Link 7 8 7 0 -2.35883727
Link 1 9 8 0 0.07035144
Link 3 9 10 0 1.26206704
Link 6 9 13 0 0.21703838
Link 7 9 14 0 2.16341956
Link 12 73 748 0 1.17979217
Link 73 8 749 0 0.31945455
Link 9 12 825 0 1.04804696
Link 4 210 2326 0 0.89061931
Link 216 9 2421 0 -0.23617280
Link 2 216 2492 0 0.58587657
Link 3 216 2514 0 -0.25630508
Link 210 12 3604 0 0.25236394
Link 2 371 4806 0 1.26291243
Link 371 210 4807 0 0.07856142
Link 210 373 4847 0 0.87772045
Link 373 9 4848 0 -1.02446940
Link 373 216 4889 0 -0.76939564
Link 4 216 4919 0 0.21871014
Link 7 73 5055 0 0.27057255
Link 1 404 5219 0 1.01353728
Link 404 8 5220 0 -1.95688253
Link 216 12 5345 1 0.10705181
GenomeEnd

GenomeStart 42657
Neuron 1 1 0.00000000 1 0.00000000 0.00000000 0.00000000 0.00000000
Neuron 2 1 0.00000000 1 0.00000000 0.00000000 0.00000000 0.00000000
Neuron 3 1 0.00000000 1 0.00000000 0.00000000 0.00000000 0.00000000
Neuron 4 1 0.00000000 1 0.00000000 0.00000000 0.00000000 0.00000000
Neuron 5 1 0.00000000 1 0.00000000 0.00000000 0.00000000 0.00000000
Neuron 6 1 0.00000000 1 0.00000000 0.00000000 0.00000000 0.00000000
Neuron 7 2 0.00000000 1 0.00000000 0.00000000 0.00000000 0.00000000
Neuron 8 4 1.00000000 9 3.50000000 0.00000000 0.00000000 -0.43646048
Neuron 9 4 1.00000000 9 3.50000000 0.00000000 0.00000000 0.67315729
Neuron 73 3 0.75000000 8 5.75398651 0.00000000 0.00000000 -1.22279570
Neuron 210 3 0.50000000 3 2.39546831 0.00000000 0.00000000 0.09265528
Neuron 216 3 0.75000000 11 3.69475434 0.00000000 0.00000000 -0.50266870
Neuron 298 3 0.50000000 11 3.06580267 0.00000000 0.00000000 0.08877989
Neuron 325 3 0.75000000 0 5.14218341 0.00000000 0.00000000 -0.00017303
Neuron 328 3 0.87500000 0 1.86349685 0.00000000 0.00000000 0.87365293
Link 1 8 1 0 -2.09115515
Link 2 8 2 0 -0.57732860
Link 3 8 3 0 0.11766709
Link 7 8 7 0 0.38464351
Link 1 9 8 0 0.55924822
Link 3 9 10 0 -0.47870711
Link 73 8 749 0 0.07489678
Link 4 210 2326 0 1.12984020
Link 210 9 2327 0 -1.10118606
Link 2 210 2377 0 -0.00866099
Link 2 216 2858 0 0.75354795
Link 5 73 3599 0 1.29727773
Link 8 216 3622 1 -0.00956829
Link 6 298 3693 0 1.14844965
Link 73 298 3782 1 0.78660185
Link 8 298 3963 1 -0.07717351
Link 298 325 4135 0 1.00000000
Link 325 9 4136 0 -0.20338338
Link 216 328 4177 0 1.00000000
Link 328 9 4178 0 -0.05300078
Link 6 216 4187 0 0.48608190
Link 6 325 4302 0 0.71105676
Link 328 298 4314 1 0.20948442
Link 4 73 4397 0 0.23146776
Link 2 73 4721 0 -0.39107197
Link 216 298 5140 1 0.13984004
GenomeEnd

GenomeStart 42658
Neuron 1 1 0.00000000 1 0.00000000 0.00000000 0.00000000 0.00000000
Neuron 2 1 0.00000000 1 0.00000000 0.00000000 0.00000000 0.00000000
Neuron 3 1 0.00000000 1 0.00000000 0.00000000 0.00000000 0.00000000
Neuron 4 1 0.00000000 1 0.00000000 0.00000000 0.00000000 0.00000000
Neuron 5 1 0.00000000 1 0.00000000 0.00000000 0.00000000 0.00000000
Neuron 6 1 0.00000000 1 0.00000000 0.00000000 0.00000000 0.00000000
Neuron 7 2 0.00000000 1 0.00000000 0.00000000 0.00000000 0.00000000
Neuron 8 4 1.00000000 9 3.50000000 0.00000000 0.00000000 -0.43646048
Neuron 9 4 1.00000000 9 3.50000000 0.00000000 0.00000000 0.67315729
Neuron 73 3 0.75000000 8 5.75398651 0.00000000 0.00000000 -1.00857524
Neuron 210 3 0.50000000 3 2.39546831 0.00000000 0.00000000 0.09265528
Neuron 216 3 0.75000000 11 3.69475434 0.00000000 0.00000000 -0.50266870
Neuron 298 3 0.50000000 11 3.06580267 0.00000000 0.00000000 0.08877989
Neuron 325 3 0.75000000 0 5.14218341 0.00000000 0.00000000 -0.00017303
Neuron 328 3 0.87500000 0 1.86349685 0.00000000 0.00000000 0.87365293
Link 1 8 1 0 -2.09115515
Link 2 8 2 0 -0.57732860
Link 3 8 3 0 0.11766709
Link 7 8 7 0 0.38464351
Link 1 9 8 0 0.55924822
Link 3 9 10 0 -0.47870711
Link 73 8 749 0 0.07489678
Link 4 210 2326 0 1.12984020
Link 210 9 2327 0 -1.10118606
Link 2 210 2377 0 -0.00866099
Link 2 216 2858 0 0.75354795
Link 5 73 3599 0 1.29727773
Link 8 216 3622 1 -0.00956829
Link 6 298 3693 0 1.14844965
Link 73 298 3782 1 0.78660185
Link 8 298 3963 1 -0.07717351
Link 298 325 4135 0 1.00000000
Link 325 9 4136 0 -0.20338338
Link 216 328 4177 0 1.00000000
Link 328 9 4178 0 -0.05300078
Link 6 216 4187 0 0.48608190
Link 6 325 4302 0 0.71105676
Link 328 298 4314 1 0.20948442
Link 4 73 4397 0 0.23146776
Link 2 73 4721 0 -0.39107197
Link 216 298 5140 1 0.13984004
GenomeEnd

GenomeStart 42660
Neuron 1 1 0.00000000 1 0.00000000 0.00000000 0.00000000 0.00000000
Neuron 2 1 0.00000000 1 0.00000000 0.00000000 0.00000000 0.00000000
Neuron 3 1 0.00000000 1 0.00000000 0.00000000 0.00000000 0.00000000
Neuron 4 1 0.00000000 1 0.00000000 0.00000000 0.00000000 0.00000000
Neuron 5 1 0.00000000 1 0.00000000 0.00000000 0.00000000 0.00000000
Neuron 6 1 0.00000000 1 0.00000000 0.00000000 0.00000000 0.00000000
Neuron 7 2 0.00000000 1 0.00000000 0.00000000 0.00000000 0.00000000
Neuron 8 4 1.00000000 9 3.50000000 0.00000000 0.00000000 -0.43646048
Neuron 9 4 1.00000000 9 3.50000000 0.00000000 0.00000000 0.67315729
Neuron 73 3 0.75000000 8 5.75398651 0.00000000 0.00000000 -1.00857524
Neuron 210 3 0.50000000 3 2.39546831 0.00000000 0.00000000 0.09265528
Neuron 216 3 0.75000000 11 3.69475434 0.00000000 0.00000000 -0.50266870
Neuron 298 3 0.50000000 11 3.06580267 0.00000000 0.00000000 0.08877989
Neuron 325 3 0.75000000 0 5.14218341 0.00000000 0.00000000 -0.00017303
Neuron 328 3 0.87500000 0 1.86349685 0.00000000 0.00000000 0.87365293
Link 1 8 1 0 -2.09115515
Link 2 8 2 0 -0.57732860
Link 3 8 3 0 0.11766709
Link 7 8 7 0 0.38464351
Link 1 9 8 0 0.55924822
Link 3 9 10 0 -0.47870711
Link 73 8 749 0 0.07489678
Link 4 210 2326 0 1.12984020
Link 210 9 2327 0 -1.10118606
Link 2 210 2377 0 -0.00866099
Link 2 216 2858 0 0.75354795
Link 5 73 3599 0 1.29727773
Link 8 216 3622 1 -0.00956829
Link 6 298 3693 0 1.14844965
Link 73 298 3782 1 0.78660185
Link 8 298 3963 1 -0.07717351
Link 298 325 4135 0 1.00000000
Link 325 9 4136 0 -0.20338338
Link 216 328 4177 0 1.00000000
Link 328 9 4178 0 -0.05300078
Link 6 216 4187 0 0.48608190
Link 6 325 4302 0 0.71105676
Link 328 298 4314 1 0.20948442
Link 4 73 4397 0 0.23146776
Link 2 73 4721 0 -0.39107197
Link 216 298 5140 1 0.13984004
Link 2 328 5441 0 -0.11284502
GenomeEnd

GenomeStart 42661
Neuron 1 1 0.00000000 1 0.00000000 0.00000000 0.00000000 0.00000000
Neuron 2 1 0.00000000 1 0.00000000 0.00000000 0.00000000 0.00000000
Neuron 3 1 0.00000000 1 0.00000000 0.00000000 0.00000000 0.00000000
Neuron 4 1 0.00000000 1 0.00000000 0.00000000 0.00000000 0.00000000
Neuron 5 1 0.00000000 1 0.00000000 0.00000000 0.00000000 0.00000000
Neuron 6 1 0.00000000 1 0.00000000 0.00000000 0.00000000 0.00000000
Neuron 7 2 0.00000000 1 0.00000000 0.00000000 0.00000000 0.00000000
Neuron 8 4 1.00000000 9 3.50000000 0.00000000 0.00000000 -0.43646048
Neuron 9 4 1.00000000 9 3.50000000 0.00000000 0.00000000 0.67315729
Neuron 73 3 0.75000000 8 5.75398651 0.00000000 0.00000000 -1.00857524
Neuron 210 3 0.50000000 3 2.39546831 0.00000000 0.00000000 0.09265528
Neuron 216 3 0.75000000 11 3.69475434 0.00000000 0.00000000 -0.50266870
