GenomeStart 42616
Neuron 1 1 0.00000000 1 0.00000000 0.00000000 0.00000000 0.00000000
Neuron 2 1 0.00000000 1 0.00000000 0.00000000 0.00000000 0.00000000
Neuron 3 1 0.00000000 1 0.00000000 0.00000000 0.00000000 0.00000000
Neuron 4 1 0.00000000 1 0.00000000 0.00000000 0.00000000 0.00000000
Neuron 5 1 0.00000000 1 0.00000000 0.00000000 0.00000000 0.00000000
Neuron 6 1 0.00000000 1 0.00000000 0.00000000 0.00000000 0.00000000
Neuron 7 2 0.00000000 1 0.00000000 0.00000000 0.00000000 0.00000000
Neuron 8 4 1.00000000 9 3.50000000 0.00000000 0.00000000 -0.77017076
Neuron 9 4 1.00000000 9 3.50000000 0.00000000 0.00000000 -0.53073164
Neuron 12 3 0.50000000 2 2.06444028 0.00000000 0.00000000 -0.10848011
Neuron 73 3 0.75000000 8 5.75398651 0.00000000 0.00000000 -0.32738235
Neuron 210 3 0.50000000 3 2.39546831 0.00000000 0.00000000 0.21616832
Neuron 216 3 0.75000000 11 3.69475434 0.00000000 0.00000000 1.01181822
Neuron 371 3 0.25000000 11 2.94255540 0.00000000 0.00000000 0.12456696
Neuron 373 3 0.75000000 8 3.43528569 0.00000000 0.00000000 0.52814192
Neuron 383 3 0.50000000 8 5.26227851 0.00000000 0.00000000 0.17566226
Neuron 389 3 0.62500000 0 1.58258368 0.00000000 0.00000000 0.40097204
Link 2 8 2 0 -1.35367774
Link 3 8 3 0 0.12525023
Link 7 8 7 0 -2.18596365
Link 1 9 8 0 0.66016617
Link 3 9 10 0 1.32584496
Link 6 9 13 0 0.72717479
Link 7 9 14 0 1.99392843
Link 73 8 749 0 -0.02273657
Link 9 12 825 0 1.00000000
Link 4 210 2326 0 1.00000000
Link 216 9 2421 0 -0.24300085
Link 2 216 2492 0 1.00000000
Link 3 216 2514 0 -0.09897377
Link 210 12 3604 0 0.07282934
Link 2 371 4806 0 1.00000000
Link 371 210 4807 0 0.04276624
Link 210 373 4847 0 1.00000000
Link 373 9 4848 0 -1.05408220
Link 373 216 4889 0 -0.73568564
Link 4 216 4919 0 0.24654012
Link 1 383 4972 0 1.00000000
Link 383 8 4973 0 -2.01061879
Link 371 216 5017 0 -0.19909484
Link 12 389 5031 0 1.00000000
Link 389 73 5032 0 1.00000000
Link 210 8 5236 0 0.36251236
GenomeEnd

