GenomeStart 40633
Neuron 1 1 0.00000000 1 0.00000000 0.00000000 0.00000000 0.00000000
Neuron 2 1 0.00000000 1 0.00000000 0.00000000 0.00000000 0.00000000
Neuron 3 1 0.00000000 1 0.00000000 0.00000000 0.00000000 0.00000000
Neuron 4 1 0.00000000 1 0.00000000 0.00000000 0.00000000 0.00000000
Neuron 5 1 0.00000000 1 0.00000000 0.00000000 0.00000000 0.00000000
Neuron 6 1 0.00000000 1 0.00000000 0.00000000 0.00000000 0.00000000
Neuron 7 2 0.00000000 1 0.00000000 0.00000000 0.00000000 0.00000000
Neuron 8 4 1.00000000 6 3.50000000 0.00000000 0.08240406 0.26788878
Neuron 9 4 1.00000000 9 3.50000000 0.00000000 0.22615072 -0.64359089
Neuron 108 3 0.50000000 9 1.13827325 0.00000000 0.23408033 -0.12177306
Neuron 113 3 0.50000000 6 4.90552534 0.00000000 0.40000000 0.11999589
Link 2 8 2 0 0.68077780
Link 5 8 5 0 0.89439384
Link 6 8 6 0 0.26575827
Link 7 8 7 0 -1.54655523
Link 2 9 9 0 0.23199777
Link 3 9 10 0 -0.68895925
Link 4 9 11 0 1.86162342
Link 5 9 12 0 -0.32165273
Link 4 108 898 0 1.00000000
Link 108 8 899 0 -0.04590522
Link 1 113 946 0 1.00000000
Link 113 9 947 0 -0.39830601
Link 7 113 1463 0 -0.08688897
Link 2 108 2665 0 0.55812836
GenomeEnd

