NEAT_ParametersStart
PopulationSize 150
DynamicCompatibility true
MinSpecies 10
MaxSpecies 15
InnovationsForever false
AllowClones true
YoungAgeTreshold 5
YoungAgeFitnessBoost 1.10000000000000008882
SpeciesDropoffAge 15
StagnationDelta 0.00000000000000000000
OldAgeTreshold 30
OldAgePenalty 1.10000000000000008882
DetectCompetetiveCoevolutionStagnation false
KillWorstSpeciesEach 15
KillWorstAge 10
SurvivalRate 0.25000000000000000000
CrossoverRate 0.69999999999999995559
OverallMutationRate 0.25000000000000000000
InterspeciesCrossoverRate 0.00010000000000000000
MultipointCrossoverRate 0.75000000000000000000
RouletteWheelSelection false
PhasedSearching false
DeltaCoding false
SimplifyingPhaseMPCTreshold 20
SimplifyingPhaseStagnationTreshold 30
ComplexityFloorGenerations 40
NoveltySearch_K 15
NoveltySearch_P_min 0.50000000000000000000
NoveltySearch_Dynamic_Pmin true
NoveltySearch_No_Archiving_Stagnation_Treshold 150
NoveltySearch_Pmin_lowering_multiplier 0.90000000000000002220
NoveltySearch_Pmin_min 0.05000000000000000278
NoveltySearch_Quick_Archiving_Min_Evaluations 8
NoveltySearch_Pmin_raising_multiplier 1.10000000000000008882
NoveltySearch_Recompute_Sparseness_Each 25
MutateAddNeuronProb 0.02999999999999999889
SplitRecurrent true
SplitLoopedRecurrent true
NeuronTries 32765
MutateAddLinkProb 0.20000000000000001110
MutateAddLinkFromBiasProb 0.00000000000000000000
MutateRemLinkProb 0.10000000000000000555
MutateRemSimpleNeuronProb 0.10000000000000000555
LinkTries 32
RecurrentProb 0.50000000000000000000
RecurrentLoopProb 0.25000000000000000000
MutateWeightsProb 0.80000000000000004441
MutateWeightsSevereProb 0.50000000000000000000
WeightMutationRate 0.95999999999999996447
WeightMutationMaxPower 0.50000000000000000000
WeightReplacementMaxPower 1.00000000000000000000
MaxWeight 4.00000000000000000000
MutateActivationAProb 0.10000000000000000555
MutateActivationBProb 0.10000000000000000555
ActivationAMutationMaxPower 0.00000000000000000000
ActivationBMutationMaxPower 0.00000000000000000000
TimeConstantMutationMaxPower 0.10000000000000000555
BiasMutationMaxPower 0.50000000000000000000
MinActivationA 1.00000000000000000000
MaxActivationA 6.00000000000000000000
MinActivationB 0.00000000000000000000
MaxActivationB 0.00000000000000000000
MutateNeuronActivationTypeProb 0.14999999999999999445
ActivationFunction_SignedSigmoid_Prob 1.00000000000000000000
ActivationFunction_UnsignedSigmoid_Prob 0.00000000000000000000
ActivationFunction_Tanh_Prob 0.00000000000000000000
ActivationFunction_TanhCubic_Prob 0.00000000000000000000
ActivationFunction_SignedStep_Prob 0.00000000000000000000
ActivationFunction_UnsignedStep_Prob 0.00000000000000000000
ActivationFunction_SignedGauss_Prob 1.00000000000000000000
ActivationFunction_UnsignedGauss_Prob 0.00000000000000000000
ActivationFunction_Abs_Prob 0.00000000000000000000
ActivationFunction_SignedSine_Prob 1.00000000000000000000
ActivationFunction_UnsignedSine_Prob 0.00000000000000000000
ActivationFunction_Linear_Prob 1.00000000000000000000
ActivationFunction_Relu_Prob 0.00000000000000000000
ActivationFunction_Softplus_Prob 0.00000000000000000000
MutateNeuronTimeConstantsProb 0.10000000000000000555
MutateNeuronBiasesProb 0.10000000000000000555
MinNeuronTimeConstant 0.04000000000000000083
MaxNeuronTimeConstant 0.40000000000000002220
MinNeuronBias -4.00000000000000000000
MaxNeuronBias 4.00000000000000000000
DontUseBiasNeuron false
AllowLoops false
DisjointCoeff 1.00000000000000000000
ExcessCoeff 1.00000000000000000000
ActivationADiffCoeff 0.00000000000000000000
ActivationBDiffCoeff 0.00000000000000000000
WeightDiffCoeff 1.00000000000000000000
TimeConstantDiffCoeff 0.00000000000000000000
BiasDiffCoeff 0.00000000000000000000
ActivationFunctionDiffCoeff 0.00000000000000000000
CompatTreshold 3.19999999999999928946
MinCompatTreshold 0.20000000000000001110
CompatTresholdModifier 0.29999999999999998890
CompatTreshChangeInterval_Generations 1
CompatTreshChangeInterval_Evaluations 10
DivisionThreshold 0.02999999999999999889
VarianceThreshold 0.05000000000000000278
BandThreshold 0.28000000000000002665
InitialDepth 3
MaxDepth 4
IterationLevel 2
TournamentSize 4
CPPN_Bias 1.00000000000000000000
Width 1.19999999999999995559
Height 0.59999999999999997780
Qtree_X 0.00000000000000000000
Qtree_Y 0.00000000000000000000
Leo false
LeoThreshold 0.10000000000000000555
LeoSeed false
GeometrySeed false
Elitism 0.20000000000000001110
NEAT_ParametersEnd
InnovationDatabaseStart
NextInnovNum: 2991
NextNeuronID: 293
InnovationDatabaseEnd

GenomeStart 40621
Neuron 1 1 0.00000000 1 0.00000000 0.00000000 0.00000000 0.00000000
Neuron 2 1 0.00000000 1 0.00000000 0.00000000 0.00000000 0.00000000
Neuron 3 1 0.00000000 1 0.00000000 0.00000000 0.00000000 0.00000000
Neuron 4 1 0.00000000 1 0.00000000 0.00000000 0.00000000 0.00000000
Neuron 5 1 0.00000000 1 0.00000000 0.00000000 0.00000000 0.00000000
Neuron 6 1 0.00000000 1 0.00000000 0.00000000 0.00000000 0.00000000
Neuron 7 2 0.00000000 1 0.00000000 0.00000000 0.00000000 0.00000000
Neuron 8 4 1.00000000 6 3.50000000 0.00000000 0.08240406 0.26788878
Neuron 9 4 1.00000000 9 3.50000000 0.00000000 0.22615072 -0.64359089
Neuron 108 3 0.50000000 9 1.13827325 0.00000000 0.22286997 -0.12177306
Neuron 113 3 0.50000000 6 4.90552534 0.00000000 0.40000000 0.11999589
Link 2 8 2 0 0.68077780
Link 5 8 5 0 0.89439384
Link 6 8 6 0 0.26575827
Link 7 8 7 0 -1.54655523
Link 2 9 9 0 0.23199777
Link 3 9 10 0 -0.68895925
Link 4 9 11 0 1.86162342
Link 5 9 12 0 -0.32165273
Link 4 108 898 0 1.00000000
Link 108 8 899 0 -0.04590522
Link 1 113 946 0 1.00000000
Link 113 9 947 0 -0.39830601
Link 7 113 1463 0 -0.08688897
Link 2 108 2665 0 0.55812836
GenomeEnd

GenomeStart 40622
Neuron 1 1 0.00000000 1 0.00000000 0.00000000 0.00000000 0.00000000
Neuron 2 1 0.00000000 1 0.00000000 0.00000000 0.00000000 0.00000000
Neuron 3 1 0.00000000 1 0.00000000 0.00000000 0.00000000 0.00000000
Neuron 4 1 0.00000000 1 0.00000000 0.00000000 0.00000000 0.00000000
Neuron 5 1 0.00000000 1 0.00000000 0.00000000 0.00000000 0.00000000
Neuron 6 1 0.00000000 1 0.00000000 0.00000000 0.00000000 0.00000000
Neuron 7 2 0.00000000 1 0.00000000 0.00000000 0.00000000 0.00000000
Neuron 8 4 1.00000000 6 3.50000000 0.00000000 0.08240406 0.26788878
Neuron 9 4 1.00000000 9 3.50000000 0.00000000 0.22615072 -0.64359089
Neuron 108 3 0.50000000 9 1.13827325 0.00000000 0.22286997 -0.12177306
Neuron 113 3 0.50000000 6 4.90552534 0.00000000 0.40000000 0.11999589
Link 2 8 2 0 0.68077780
Link 5 8 5 0 0.89439384
Link 6 8 6 0 0.26575827
Link 7 8 7 0 -1.54655523
Link 2 9 9 0 0.23199777
Link 3 9 10 0 -0.68895925
Link 4 9 11 0 1.86162342
Link 5 9 12 0 -0.32165273
Link 4 108 898 0 1.00000000
Link 108 8 899 0 -0.04590522
Link 1 113 946 0 1.00000000
Link 113 9 947 0 -0.39830601
Link 7 113 1463 0 -0.08688897
Link 2 108 2665 0 0.55812836
GenomeEnd

GenomeStart 40623
Neuron 1 1 0.00000000 1 0.00000000 0.00000000 0.00000000 0.00000000
Neuron 2 1 0.00000000 1 0.00000000 0.00000000 0.00000000 0.00000000
Neuron 3 1 0.00000000 1 0.00000000 0.00000000 0.00000000 0.00000000
Neuron 4 1 0.00000000 1 0.00000000 0.00000000 0.00000000 0.00000000
Neuron 5 1 0.00000000 1 0.00000000 0.00000000 0.00000000 0.00000000
Neuron 6 1 0.00000000 1 0.00000000 0.00000000 0.00000000 0.00000000
Neuron 7 2 0.00000000 1 0.00000000 0.00000000 0.00000000 0.00000000
Neuron 8 4 1.00000000 6 3.50000000 0.00000000 0.08240406 0.26788878
Neuron 9 4 1.00000000 9 3.50000000 0.00000000 0.22615072 -0.64359089
Neuron 108 3 0.50000000 9 1.13827325 0.00000000 0.23408033 -0.12177306
Neuron 113 3 0.50000000 6 4.90552534 0.00000000 0.40000000 0.11999589
Link 2 8 2 0 0.68077780
Link 5 8 5 0 0.89439384
Link 6 8 6 0 0.26575827
Link 7 8 7 0 -1.54655523
Link 2 9 9 0 0.23199777
Link 3 9 10 0 -0.68895925
Link 4 9 11 0 1.86162342
Link 5 9 12 0 -0.32165273
Link 4 108 898 0 1.00000000
Link 108 8 899 0 -0.04590522
Link 1 113 946 0 1.00000000
Link 113 9 947 0 -0.39830601
Link 7 113 1463 0 -0.08688897
Link 2 108 2665 0 0.55812836
GenomeEnd

GenomeStart 40624
Neuron 1 1 0.00000000 1 0.00000000 0.00000000 0.00000000 0.00000000
Neuron 2 1 0.00000000 1 0.00000000 0.00000000 0.00000000 0.00000000
Neuron 3 1 0.00000000 1 0.00000000 0.00000000 0.00000000 0.00000000
Neuron 4 1 0.00000000 1 0.00000000 0.00000000 0.00000000 0.00000000
Neuron 5 1 0.00000000 1 0.00000000 0.00000000 0.00000000 0.00000000
Neuron 6 1 0.00000000 1 0.00000000 0.00000000 0.00000000 0.00000000
Neuron 7 2 0.00000000 1 0.00000000 0.00000000 0.00000000 0.00000000
Neuron 8 4 1.00000000 6 3.50000000 0.00000000 0.08240406 0.26788878
Neuron 9 4 1.00000000 9 3.50000000 0.00000000 0.22615072 -0.64359089
Neuron 108 3 0.50000000 9 1.13827325 0.00000000 0.22286997 -0.12177306
Neuron 113 3 0.50000000 6 4.90552534 0.00000000 0.40000000 0.11999589
Link 2 8 2 0 0.74703679
Link 5 8 5 0 0.94111314
Link 6 8 6 0 0.17628809
Link 7 8 7 0 -1.28626842
Link 2 9 9 0 0.18154274
Link 3 9 10 0 -0.95206775
Link 4 9 11 0 1.70971657
Link 5 9 12 0 -0.54659747
Link 4 108 898 0 1.15845710
Link 108 8 899 0 -0.00872950
Link 1 113 946 0 0.89963691
Link 113 9 947 0 -0.63171438
Link 7 113 1463 0 -0.14316797
Link 2 108 2665 0 0.74956406
GenomeEnd

GenomeStart 40625
Neuron 1 1 0.00000000 1 0.00000000 0.00000000 0.00000000 0.00000000
Neuron 2 1 0.00000000 1 0.00000000 0.00000000 0.00000000 0.00000000
Neuron 3 1 0.00000000 1 0.00000000 0.00000000 0.00000000 0.00000000
Neuron 4 1 0.00000000 1 0.00000000 0.00000000 0.00000000 0.00000000
Neuron 5 1 0.00000000 1 0.00000000 0.00000000 0.00000000 0.00000000
Neuron 6 1 0.00000000 1 0.00000000 0.00000000 0.00000000 0.00000000
Neuron 7 2 0.00000000 1 0.00000000 0.00000000 0.00000000 0.00000000
Neuron 8 4 1.00000000 6 3.50000000 0.00000000 0.08240406 0.26788878
Neuron 9 4 1.00000000 9 3.50000000 0.00000000 0.22615072 -0.64359089
Neuron 108 3 0.50000000 9 1.13827325 0.00000000 0.22286997 -0.12177306
Neuron 113 3 0.50000000 6 4.90552534 0.00000000 0.40000000 0.11999589
Link 2 8 2 0 0.68077780
Link 5 8 5 0 0.89439384
Link 6 8 6 0 0.26575827
Link 7 8 7 0 -1.54655523
Link 2 9 9 0 0.23199777
Link 3 9 10 0 -0.68895925
Link 4 9 11 0 1.86162342
Link 5 9 12 0 -0.32165273
Link 4 108 898 0 1.00000000
Link 108 8 899 0 -0.04590522
Link 1 113 946 0 1.00000000
Link 113 9 947 0 -0.39830601
Link 7 113 1463 0 -0.08688897
Link 2 108 2665 0 0.55812836
GenomeEnd

GenomeStart 40626
Neuron 1 1 0.00000000 1 0.00000000 0.00000000 0.00000000 0.00000000
Neuron 2 1 0.00000000 1 0.00000000 0.00000000 0.00000000 0.00000000
Neuron 3 1 0.00000000 1 0.00000000 0.00000000 0.00000000 0.00000000
Neuron 4 1 0.00000000 1 0.00000000 0.00000000 0.00000000 0.00000000
Neuron 5 1 0.00000000 1 0.00000000 0.00000000 0.00000000 0.00000000
Neuron 6 1 0.00000000 1 0.00000000 0.00000000 0.00000000 0.00000000
Neuron 7 2 0.00000000 1 0.00000000 0.00000000 0.00000000 0.00000000
Neuron 8 4 1.00000000 6 3.50000000 0.00000000 0.08240406 0.26788878
Neuron 9 4 1.00000000 9 3.50000000 0.00000000 0.22615072 -0.64359089
Neuron 108 3 0.50000000 9 1.13827325 0.00000000 0.22286997 -0.12177306
Neuron 113 3 0.50000000 6 4.90552534 0.00000000 0.40000000 0.11999589
Link 2 8 2 0 0.68077780
Link 5 8 5 0 0.89439384
Link 6 8 6 0 0.26575827
Link 7 8 7 0 -1.54655523
Link 2 9 9 0 0.23199777
Link 3 9 10 0 -0.68895925
Link 4 9 11 0 1.86162342
Link 5 9 12 0 -0.32165273
Link 4 108 898 0 1.00000000
Link 108 8 899 0 -0.04590522
Link 1 113 946 0 1.00000000
Link 113 9 947 0 -0.39830601
Link 7 113 1463 0 -0.08688897
Link 2 108 2665 0 0.55812836
GenomeEnd

GenomeStart 40627
Neuron 1 1 0.00000000 1 0.00000000 0.00000000 0.00000000 0.00000000
Neuron 2 1 0.00000000 1 0.00000000 0.00000000 0.00000000 0.00000000
Neuron 3 1 0.00000000 1 0.00000000 0.00000000 0.00000000 0.00000000
Neuron 4 1 0.00000000 1 0.00000000 0.00000000 0.00000000 0.00000000
Neuron 5 1 0.00000000 1 0.00000000 0.00000000 0.00000000 0.00000000
Neuron 6 1 0.00000000 1 0.00000000 0.00000000 0.00000000 0.00000000
Neuron 7 2 0.00000000 1 0.00000000 0.00000000 0.00000000 0.00000000
Neuron 8 4 1.00000000 6 3.50000000 0.00000000 0.08240406 0.26788878
Neuron 9 4 1.00000000 9 3.50000000 0.00000000 0.22615072 -0.64359089
Neuron 108 3 0.50000000 9 1.13827325 0.00000000 0.22286997 -0.12177306
Neuron 113 3 0.50000000 6 4.90552534 0.00000000 0.40000000 0.11999589
Link 2 8 2 0 0.68077780
Link 5 8 5 0 0.89439384
Link 6 8 6 0 0.26575827
Link 7 8 7 0 -1.54655523
Link 2 9 9 0 0.23199777
Link 3 9 10 0 -0.68895925
Link 4 9 11 0 1.86162342
Link 5 9 12 0 -0.32165273
Link 4 108 898 0 1.00000000
Link 108 8 899 0 -0.04590522
Link 1 113 946 0 1.00000000
Link 113 9 947 0 -0.39830601
Link 7 113 1463 0 -0.08688897
Link 2 108 2665 0 0.55812836
GenomeEnd

GenomeStart 40628
Neuron 1 1 0.00000000 1 0.00000000 0.00000000 0.00000000 0.00000000
Neuron 2 1 0.00000000 1 0.00000000 0.00000000 0.00000000 0.00000000
Neuron 3 1 0.00000000 1 0.00000000 0.00000000 0.00000000 0.00000000
Neuron 4 1 0.00000000 1 0.00000000 0.00000000 0.00000000 0.00000000
Neuron 5 1 0.00000000 1 0.00000000 0.00000000 0.00000000 0.00000000
Neuron 6 1 0.00000000 1 0.00000000 0.00000000 0.00000000 0.00000000
Neuron 7 2 0.00000000 1 0.00000000 0.00000000 0.00000000 0.00000000
Neuron 8 4 1.00000000 6 3.50000000 0.00000000 0.08240406 0.26788878
Neuron 9 4 1.00000000 9 3.50000000 0.00000000 0.22615072 -0.64359089
Neuron 108 3 0.50000000 9 1.13827325 0.00000000 0.22286997 -0.12177306
Neuron 113 3 0.50000000 6 4.90552534 0.00000000 0.40000000 0.11999589
Link 2 8 2 0 0.68077780
Link 5 8 5 0 0.89439384
Link 6 8 6 0 0.26575827
Link 7 8 7 0 -1.54655523
Link 2 9 9 0 0.23199777
Link 3 9 10 0 -0.68895925
Link 4 9 11 0 1.86162342
Link 5 9 12 0 -0.32165273
Link 4 108 898 0 1.00000000
Link 108 8 899 0 -0.04590522
Link 1 113 946 0 1.00000000
Link 113 9 947 0 -0.39830601
Link 7 113 1463 0 -0.08688897
Link 2 108 2665 0 0.55812836
GenomeEnd

GenomeStart 40629
Neuron 1 1 0.00000000 1 0.00000000 0.00000000 0.00000000 0.00000000
Neuron 2 1 0.00000000 1 0.00000000 0.00000000 0.00000000 0.00000000
Neuron 3 1 0.00000000 1 0.00000000 0.00000000 0.00000000 0.00000000
Neuron 4 1 0.00000000 1 0.00000000 0.00000000 0.00000000 0.00000000
Neuron 5 1 0.00000000 1 0.00000000 0.00000000 0.00000000 0.00000000
Neuron 6 1 0.00000000 1 0.00000000 0.00000000 0.00000000 0.00000000
Neuron 7 2 0.00000000 1 0.00000000 0.00000000 0.00000000 0.00000000
Neuron 8 4 1.00000000 6 3.50000000 0.00000000 0.08240406 0.26788878
Neuron 9 4 1.00000000 9 3.50000000 0.00000000 0.22615072 -0.64359089
Neuron 108 3 0.50000000 9 1.13827325 0.00000000 0.22286997 -0.12177306
Neuron 113 3 0.50000000 6 4.90552534 0.00000000 0.40000000 0.11999589
Link 2 8 2 0 0.96757855
Link 5 8 5 0 0.24000539
Link 6 8 6 0 -0.51440463
Link 7 8 7 0 -1.53647753
Link 2 9 9 0 -0.05863890
Link 3 9 10 0 -1.00152557
Link 4 9 11 0 1.86162342
Link 5 9 12 0 -0.02266121
Link 4 108 898 0 0.52396593
Link 108 8 899 0 0.44788675
Link 1 113 946 0 1.00000000
Link 113 9 947 0 -0.21646206
Link 7 113 1463 0 -0.24067663
Link 2 108 2665 0 0.84715455
GenomeEnd

GenomeStart 40630
Neuron 1 1 0.00000000 1 0.00000000 0.00000000 0.00000000 0.00000000
Neuron 2 1 0.00000000 1 0.00000000 0.00000000 0.00000000 0.00000000
Neuron 3 1 0.00000000 1 0.00000000 0.00000000 0.00000000 0.00000000
Neuron 4 1 0.00000000 1 0.00000000 0.00000000 0.00000000 0.00000000
Neuron 5 1 0.00000000 1 0.00000000 0.00000000 0.00000000 0.00000000
Neuron 6 1 0.00000000 1 0.00000000 0.00000000 0.00000000 0.00000000
Neuron 7 2 0.00000000 1 0.00000000 0.00000000 0.00000000 0.00000000
Neuron 8 4 1.00000000 6 3.50000000 0.00000000 0.08240406 0.26788878
Neuron 9 4 1.00000000 9 3.50000000 0.00000000 0.22615072 -0.64359089
Neuron 108 3 0.50000000 9 1.13827325 0.00000000 0.22286997 -0.12177306
Neuron 113 3 0.50000000 6 4.90552534 0.00000000 0.40000000 0.11999589
Link 2 8 2 0 0.98839601
Link 5 8 5 0 1.25772085
Link 6 8 6 0 0.26575827
Link 7 8 7 0 -0.32987791
Link 2 9 9 0 0.29100219
Link 3 9 10 0 -0.37881247
Link 4 9 11 0 1.70971330
Link 5 9 12 0 -0.31561705
Link 4 108 898 0 0.90677917
Link 108 8 899 0 0.27169513
Link 1 113 946 0 0.93778487
Link 113 9 947 0 -0.65290293
Link 7 113 1463 0 -0.47815888
Link 2 108 2665 0 0.69844185
GenomeEnd

GenomeStart 40631
Neuron 1 1 0.00000000 1 0.00000000 0.00000000 0.00000000 0.00000000
Neuron 2 1 0.00000000 1 0.00000000 0.00000000 0.00000000 0.00000000
Neuron 3 1 0.00000000 1 0.00000000 0.00000000 0.00000000 0.00000000
Neuron 4 1 0.00000000 1 0.00000000 0.00000000 0.00000000 0.00000000
Neuron 5 1 0.00000000 1 0.00000000 0.00000000 0.00000000 0.00000000
Neuron 6 1 0.00000000 1 0.00000000 0.00000000 0.00000000 0.00000000
Neuron 7 2 0.00000000 1 0.00000000 0.00000000 0.00000000 0.00000000
Neuron 8 4 1.00000000 6 3.50000000 0.00000000 0.08240406 0.26788878
Neuron 9 4 1.00000000 9 3.50000000 0.00000000 0.22615072 -0.64359089
Neuron 108 3 0.50000000 9 1.13827325 0.00000000 0.22286997 -0.12177306
Neuron 113 3 0.50000000 6 4.90552534 0.00000000 0.40000000 0.11999589
Link 2 8 2 0 0.74221356
Link 5 8 5 0 0.90795414
Link 6 8 6 0 0.12099296
Link 7 8 7 0 -1.12043481
Link 2 9 9 0 0.38109503
Link 3 9 10 0 -0.95723834
Link 4 9 11 0 1.76994592
Link 5 9 12 0 -0.11150596
Link 4 108 898 0 1.06311191
Link 108 8 899 0 -0.38567092
Link 1 113 946 0 1.20390443
Link 113 9 947 0 -0.71601785
Link 7 113 1463 0 0.06591284
Link 2 108 2665 0 0.64378257
GenomeEnd

GenomeStart 40632
Neuron 1 1 0.00000000 1 0.00000000 0.00000000 0.00000000 0.00000000
Neuron 2 1 0.00000000 1 0.00000000 0.00000000 0.00000000 0.00000000
Neuron 3 1 0.00000000 1 0.00000000 0.00000000 0.00000000 0.00000000
Neuron 4 1 0.00000000 1 0.00000000 0.00000000 0.00000000 0.00000000
Neuron 5 1 0.00000000 1 0.00000000 0.00000000 0.00000000 0.00000000
Neuron 6 1 0.00000000 1 0.00000000 0.00000000 0.00000000 0.00000000
Neuron 7 2 0.00000000 1 0.00000000 0.00000000 0.00000000 0.00000000
Neuron 8 4 1.00000000 6 3.50000000 0.00000000 0.08240406 0.26788878
Neuron 9 4 1.00000000 9 3.50000000 0.00000000 0.22615072 -0.64359089
Neuron 108 3 0.50000000 9 1.13827325 0.00000000 0.22286997 -0.12177306
Neuron 113 3 0.50000000 6 4.90552534 0.00000000 0.40000000 0.11999589
Link 2 8 2 0 0.68077780
Link 5 8 5 0 0.89439384
Link 6 8 6 0 0.26575827
Link 7 8 7 0 -1.54655523
Link 2 9 9 0 0.23199777
Link 3 9 10 0 -0.68895925
Link 4 9 11 0 1.86162342
Link 5 9 12 0 -0.32165273
Link 4 108 898 0 1.00000000
Link 108 8 899 0 -0.04590522
Link 1 113 946 0 1.00000000
Link 113 9 947 0 -0.39830601
Link 7 113 1463 0 -0.08688897
Link 2 108 2665 0 0.55812836
GenomeEnd

GenomeStart 40633
Neuron 1 1 0.00000000 1 0.00000000 0.00000000 0.00000000 0.00000000
Neuron 2 1 0.00000000 1 0.00000000 0.00000000 0.00000000 0.00000000
Neuron 3 1 0.00000000 1 0.00000000 0.00000000 0.00000000 0.00000000
Neuron 4 1 0.00000000 1 0.00000000 0.00000000 0.00000000 0.00000000
Neuron 5 1 0.00000000 1 0.00000000 0.00000000 0.00000000 0.00000000
Neuron 6 1 0.00000000 1 0.00000000 0.00000000 0.00000000 0.00000000
Neuron 7 2 0.00000000 1 0.00000000 0.00000000 0.00000000 0.00000000
Neuron 8 4 1.00000000 6 3.50000000 0.00000000 0.08240406 0.26788878
Neuron 9 4 1.00000000 9 3.50000000 0.00000000 0.22615072 -0.64359089
Neuron 108 3 0.50000000 9 1.13827325 0.00000000 0.23408033 -0.12177306
Neuron 113 3 0.50000000 6 4.90552534 0.00000000 0.40000000 0.11999589
Link 2 8 2 0 0.68077780
Link 5 8 5 0 0.89439384
Link 6 8 6 0 0.26575827
Link 7 8 7 0 -1.54655523
Link 2 9 9 0 0.23199777
Link 3 9 10 0 -0.68895925
Link 4 9 11 0 1.86162342
Link 5 9 12 0 -0.32165273
Link 4 108 898 0 1.00000000
Link 108 8 899 0 -0.04590522
Link 1 113 946 0 1.00000000
Link 113 9 947 0 -0.39830601
Link 7 113 1463 0 -0.08688897
Link 2 108 2665 0 0.55812836
GenomeEnd

GenomeStart 40634
Neuron 1 1 0.00000000 1 0.00000000 0.00000000 0.00000000 0.00000000
Neuron 2 1 0.00000000 1 0.00000000 0.00000000 0.00000000 0.00000000
Neuron 3 1 0.00000000 1 0.00000000 0.00000000 0.00000000 0.00000000
Neuron 4 1 0.00000000 1 0.00000000 0.00000000 0.00000000 0.00000000
Neuron 5 1 0.00000000 1 0.00000000 0.00000000 0.00000000 0.00000000
Neuron 6 1 0.00000000 1 0.00000000 0.00000000 0.00000000 0.00000000
Neuron 7 2 0.00000000 1 0.00000000 0.00000000 0.00000000 0.00000000
Neuron 8 4 1.00000000 6 3.50000000 0.00000000 0.08240406 0.26788878
Neuron 9 4 1.00000000 9 3.50000000 0.00000000 0.22615072 -0.64359089
Neuron 108 3 0.50000000 9 1.13827325 0.00000000 0.22286997 -0.12177306
Neuron 113 3 0.50000000 6 4.90552534 0.00000000 0.40000000 0.11999589
Link 2 8 2 0 0.68077780
Link 5 8 5 0 0.89439384
Link 6 8 6 0 0.26575827
Link 7 8 7 0 -1.54655523
Link 2 9 9 0 0.23199777
Link 3 9 10 0 -0.68895925
Link 4 9 11 0 1.86162342
Link 5 9 12 0 -0.32165273
Link 4 108 898 0 1.00000000
Link 108 8 899 0 -0.04590522
Link 1 113 946 0 1.00000000
Link 113 9 947 0 -0.39830601
Link 7 113 1463 0 -0.08688897
Link 2 108 2665 0 0.55812836
GenomeEnd

GenomeStart 40635
Neuron 1 1 0.00000000 1 0.00000000 0.00000000 0.00000000 0.00000000
Neuron 2 1 0.00000000 1 0.00000000 0.00000000 0.00000000 0.00000000
Neuron 3 1 0.00000000 1 0.00000000 0.00000000 0.00000000 0.00000000
Neuron 4 1 0.00000000 1 0.00000000 0.00000000 0.00000000 0.00000000
Neuron 5 1 0.00000000 1 0.00000000 0.00000000 0.00000000 0.00000000
Neuron 6 1 0.00000000 1 0.00000000 0.00000000 0.00000000 0.00000000
Neuron 7 2 0.00000000 1 0.00000000 0.00000000 0.00000000 0.00000000
Neuron 8 4 1.00000000 6 3.50000000 0.00000000 0.08240406 0.26788878
Neuron 9 4 1.00000000 9 3.50000000 0.00000000 0.22615072 -0.64359089
Neuron 108 3 0.50000000 9 1.13827325 0.00000000 0.22286997 -0.12177306
Neuron 113 3 0.50000000 6 4.90552534 0.00000000 0.40000000 0.11999589
Link 2 8 2 0 0.68077780
Link 5 8 5 0 0.89439384
Link 6 8 6 0 0.26575827
Link 7 8 7 0 -1.54655523
Link 2 9 9 0 0.23199777
Link 3 9 10 0 -0.68895925
Link 4 9 11 0 1.86162342
Link 5 9 12 0 -0.32165273
Link 4 108 898 0 1.00000000
Link 108 8 899 0 -0.04590522
Link 1 113 946 0 1.00000000
Link 113 9 947 0 -0.39830601
Link 7 113 1463 0 -0.08688897
Link 2 108 2665 0 0.55812836
GenomeEnd

GenomeStart 40636
Neuron 1 1 0.00000000 1 0.00000000 0.00000000 0.00000000 0.00000000
Neuron 2 1 0.00000000 1 0.00000000 0.00000000 0.00000000 0.00000000
Neuron 3 1 0.00000000 1 0.00000000 0.00000000 0.00000000 0.00000000
Neuron 4 1 0.00000000 1 0.00000000 0.00000000 0.00000000 0.00000000
Neuron 5 1 0.00000000 1 0.00000000 0.00000000 0.00000000 0.00000000
Neuron 6 1 0.00000000 1 0.00000000 0.00000000 0.00000000 0.00000000
Neuron 7 2 0.00000000 1 0.00000000 0.00000000 0.00000000 0.00000000
Neuron 8 4 1.00000000 6 3.50000000 0.00000000 0.08240406 0.26788878
Neuron 9 4 1.00000000 9 3.50000000 0.00000000 0.22615072 -0.64359089
Neuron 108 3 0.50000000 9 1.13827325 0.00000000 0.22286997 -0.12177306
Neuron 113 3 0.50000000 6 4.90552534 0.00000000 0.40000000 0.11999589
Link 2 8 2 0 0.57344971
Link 5 8 5 0 -0.14570952
Link 6 8 6 0 0.10965345
Link 7 8 7 0 -1.54655523
Link 2 9 9 0 0.08774039
Link 3 9 10 0 -0.68895925
Link 4 9 11 0 1.71035947
Link 5 9 12 0 -0.65516968
Link 4 108 898 0 1.25294603
Link 108 8 899 0 -0.29475132
Link 1 113 946 0 0.50044894
Link 113 9 947 0 -0.82505467
Link 7 113 1463 0 -0.43604387
Link 2 108 2665 0 0.44677953
GenomeEnd

GenomeStart 40637
Neuron 1 1 0.00000000 1 0.00000000 0.00000000 0.00000000 0.00000000
Neuron 2 1 0.00000000 1 0.00000000 0.00000000 0.00000000 0.00000000
Neuron 3 1 0.00000000 1 0.00000000 0.00000000 0.00000000 0.00000000
Neuron 4 1 0.00000000 1 0.00000000 0.00000000 0.00000000 0.00000000
Neuron 5 1 0.00000000 1 0.00000000 0.00000000 0.00000000 0.00000000
Neuron 6 1 0.00000000 1 0.00000000 0.00000000 0.00000000 0.00000000
Neuron 7 2 0.00000000 1 0.00000000 0.00000000 0.00000000 0.00000000
Neuron 8 4 1.00000000 6 3.50000000 0.00000000 0.08240406 0.43362622
Neuron 9 4 1.00000000 9 3.50000000 0.00000000 0.22615072 -0.49193070
Neuron 108 3 0.50000000 9 1.13827325 0.00000000 0.22286997 -0.22874396
Neuron 113 3 0.50000000 6 4.90552534 0.00000000 0.40000000 0.41775111
Link 2 8 2 0 0.68077780
Link 5 8 5 0 0.89439384
Link 6 8 6 0 0.26575827
Link 7 8 7 0 -1.54655523
Link 2 9 9 0 0.23199777
Link 3 9 10 0 -0.68895925
Link 4 9 11 0 1.86162342
Link 5 9 12 0 -0.32165273
Link 4 108 898 0 1.00000000
Link 108 8 899 0 -0.04590522
Link 1 113 946 0 1.00000000
Link 113 9 947 0 -0.39830601
Link 7 113 1463 0 -0.08688897
Link 2 108 2665 0 0.55812836
GenomeEnd

GenomeStart 40638
Neuron 1 1 0.00000000 1 0.00000000 0.00000000 0.00000000 0.00000000
Neuron 2 1 0.00000000 1 0.00000000 0.00000000 0.00000000 0.00000000
Neuron 3 1 0.00000000 1 0.00000000 0.00000000 0.00000000 0.00000000
Neuron 4 1 0.00000000 1 0.00000000 0.00000000 0.00000000 0.00000000
Neuron 5 1 0.00000000 1 0.00000000 0.00000000 0.00000000 0.00000000
Neuron 6 1 0.00000000 1 0.00000000 0.00000000 0.00000000 0.00000000
Neuron 7 2 0.00000000 1 0.00000000 0.00000000 0.00000000 0.00000000
Neuron 8 4 1.00000000 6 3.50000000 0.00000000 0.08240406 0.26788878
Neuron 9 4 1.00000000 9 3.50000000 0.00000000 0.22615072 -0.64359089
Neuron 108 3 0.50000000 9 1.13827325 0.00000000 0.22286997 -0.12177306
Neuron 113 3 0.50000000 6 4.90552534 0.00000000 0.40000000 0.11999589
Link 2 8 2 0 0.68077780
Link 5 8 5 0 0.89439384
Link 6 8 6 0 0.26575827
Link 7 8 7 0 -1.54655523
Link 2 9 9 0 0.23199777
Link 3 9 10 0 -0.68895925
Link 4 9 11 0 1.86162342
Link 5 9 12 0 -0.32165273
Link 4 108 898 0 1.00000000
Link 108 8 899 0 -0.04590522
Link 1 113 946 0 1.00000000
Link 113 9 947 0 -0.39830601
Link 7 113 1463 0 -0.08688897
Link 2 108 2665 0 0.55812836
GenomeEnd

GenomeStart 40749
Neuron 1 1 0.00000000 1 0.00000000 0.00000000 0.00000000 0.00000000
Neuron 2 1 0.00000000 1 0.00000000 0.00000000 0.00000000 0.00000000
Neuron 3 1 0.00000000 1 0.00000000 0.00000000 0.00000000 0.00000000
Neuron 4 1 0.00000000 1 0.00000000 0.00000000 0.00000000 0.00000000
Neuron 5 1 0.00000000 1 0.00000000 0.00000000 0.00000000 0.00000000
Neuron 6 1 0.00000000 1 0.00000000 0.00000000 0.00000000 0.00000000
Neuron 7 2 0.00000000 1 0.00000000 0.00000000 0.00000000 0.00000000
Neuron 8 4 1.00000000 6 3.50000000 0.00000000 0.08240406 0.26788878
Neuron 9 4 1.00000000 9 3.50000000 0.00000000 0.22615072 -0.64359089
Neuron 108 3 0.50000000 9 1.13827325 0.00000000 0.22286997 -0.12177306
Neuron 113 3 0.50000000 6 4.90552534 0.00000000 0.40000000 0.11999589
Link 5 8 5 0 0.89439384
Link 6 8 6 0 0.26575827
Link 7 8 7 0 -1.54655523
Link 2 9 9 0 0.23199777
Link 3 9 10 0 -0.68895925
Link 4 9 11 0 1.86162342
Link 5 9 12 0 -0.32165273
Link 4 108 898 0 1.00000000
Link 108 8 899 0 -0.04590522
Link 1 113 946 0 1.00000000
Link 113 9 947 0 -0.39830601
Link 7 113 1463 0 -0.08688897
Link 2 108 2665 0 0.55812836
GenomeEnd

GenomeStart 40750
Neuron 1 1 0.00000000 1 0.00000000 0.00000000 0.00000000 0.00000000
Neuron 2 1 0.00000000 1 0.00000000 0.00000000 0.00000000 0.00000000
Neuron 3 1 0.00000000 1 0.00000000 0.00000000 0.00000000 0.00000000
Neuron 4 1 0.00000000 1 0.00000000 0.00000000 0.00000000 0.00000000
Neuron 5 1 0.00000000 1 0.00000000 0.00000000 0.00000000 0.00000000
Neuron 6 1 0.00000000 1 0.00000000 0.00000000 0.00000000 0.00000000
Neuron 7 2 0.00000000 1 0.00000000 0.00000000 0.00000000 0.00000000
Neuron 8 4 1.00000000 6 3.50000000 0.00000000 0.08240406 0.26788878
Neuron 9 4 1.00000000 9 3.50000000 0.00000000 0.22615072 -0.64359089
Neuron 108 3 0.50000000 9 1.13827325 0.00000000 0.22286997 -0.12177306
Neuron 113 3 0.50000000 6 4.90552534 0.00000000 0.40000000 0.11999589
Link 5 8 5 0 1.04393868
Link 6 8 6 0 0.26456120
Link 7 8 7 0 -1.39858784
Link 2 9 9 0 0.25436006
Link 3 9 10 0 -0.40422145
Link 4 9 11 0 1.97893034
Link 5 9 12 0 -0.18266772
Link 4 108 898 0 1.02802258
Link 108 8 899 0 -0.16606912
Link 1 113 946 0 1.08702670
Link 113 9 947 0 -0.57438661
Link 7 113 1463 0 0.08767692
Link 2 108 2665 0 0.59518656
GenomeEnd

GenomeStart 40751
Neuron 1 1 0.00000000 1 0.00000000 0.00000000 0.00000000 0.00000000
Neuron 2 1 0.00000000 1 0.00000000 0.00000000 0.00000000 0.00000000
Neuron 3 1 0.00000000 1 0.00000000 0.00000000 0.00000000 0.00000000
Neuron 4 1 0.00000000 1 0.00000000 0.00000000 0.00000000 0.00000000
Neuron 5 1 0.00000000 1 0.00000000 0.00000000 0.00000000 0.00000000
Neuron 6 1 0.00000000 1 0.00000000 0.00000000 0.00000000 0.00000000
Neuron 7 2 0.00000000 1 0.00000000 0.00000000 0.00000000 0.00000000
Neuron 8 4 1.00000000 6 3.50000000 0.00000000 0.08240406 0.26788878
Neuron 9 4 1.00000000 9 3.50000000 0.00000000 0.22615072 -0.64359089
Neuron 108 3 0.50000000 9 1.13827325 0.00000000 0.22286997 -0.12177306
Neuron 113 3 0.50000000 6 4.90552534 0.00000000 0.40000000 0.11999589
Link 5 8 5 0 1.08524185
Link 6 8 6 0 0.23965194
Link 7 8 7 0 -1.69948565
Link 2 9 9 0 -0.04919583
Link 3 9 10 0 -0.20115163
Link 4 9 11 0 2.09491842
Link 5 9 12 0 0.16750763
Link 4 108 898 0 1.03357371
Link 108 8 899 0 0.05200302
Link 1 113 946 0 1.05289549
Link 113 9 947 0 -0.26827118
Link 7 113 1463 0 -0.03191472
Link 2 108 2665 0 0.14772921
GenomeEnd

GenomeStart 40752
Neuron 1 1 0.00000000 1 0.00000000 0.00000000 0.00000000 0.00000000
Neuron 2 1 0.00000000 1 0.00000000 0.00000000 0.00000000 0.00000000
Neuron 3 1 0.00000000 1 0.00000000 0.00000000 0.00000000 0.00000000
Neuron 4 1 0.00000000 1 0.00000000 0.00000000 0.00000000 0.00000000
Neuron 5 1 0.00000000 1 0.00000000 0.00000000 0.00000000 0.00000000
Neuron 6 1 0.00000000 1 0.00000000 0.00000000 0.00000000 0.00000000
Neuron 7 2 0.00000000 1 0.00000000 0.00000000 0.00000000 0.00000000
Neuron 8 4 1.00000000 6 3.50000000 0.00000000 0.08240406 0.26788878
Neuron 9 4 1.00000000 9 3.50000000 0.00000000 0.22615072 -0.64359089
Neuron 108 3 0.50000000 9 1.13827325 0.00000000 0.22286997 -0.12177306
Neuron 113 3 0.50000000 6 4.90552534 0.00000000 0.40000000 0.11999589
Link 5 8 5 0 1.04393868
Link 6 8 6 0 0.26456120
Link 7 8 7 0 -1.39858784
Link 2 9 9 0 0.25436006
Link 3 9 10 0 -0.40422145
Link 4 9 11 0 1.97893034
Link 5 9 12 0 -0.18266772
Link 4 108 898 0 1.02802258
Link 108 8 899 0 -0.16606912
Link 1 113 946 0 1.08702670
Link 113 9 947 0 -0.57438661
Link 7 113 1463 0 0.08767692
Link 2 108 2665 0 0.59518656
Link 113 8 2989 0 -0.00060717
GenomeEnd

GenomeStart 40753
Neuron 1 1 0.00000000 1 0.00000000 0.00000000 0.00000000 0.00000000
Neuron 2 1 0.00000000 1 0.00000000 0.00000000 0.00000000 0.00000000
Neuron 3 1 0.00000000 1 0.00000000 0.00000000 0.00000000 0.00000000
Neuron 4 1 0.00000000 1 0.00000000 0.00000000 0.00000000 0.00000000
Neuron 5 1 0.00000000 1 0.00000000 0.00000000 0.00000000 0.00000000
Neuron 6 1 0.00000000 1 0.00000000 0.00000000 0.00000000 0.00000000
Neuron 7 2 0.00000000 1 0.00000000 0.00000000 0.00000000 0.00000000
Neuron 8 4 1.00000000 6 3.50000000 0.00000000 0.08240406 0.26788878
Neuron 9 4 1.00000000 9 3.50000000 0.00000000 0.22615072 -0.64359089
Neuron 108 3 0.50000000 9 1.13827325 0.00000000 0.22286997 -0.12177306
Neuron 113 3 0.50000000 6 4.90552534 0.00000000 0.40000000 0.11999589
Link 2 8 2 0 -0.40849380
Link 5 8 5 0 1.19348351
Link 6 8 6 0 0.26336414
Link 7 8 7 0 -1.25062045
Link 2 9 9 0 0.27672235
Link 3 9 10 0 -0.11948365
Link 4 9 11 0 2.09623727
Link 5 9 12 0 -0.04368270
Link 4 108 898 0 1.05604516
Link 108 8 899 0 -0.28623303
Link 1 113 946 0 1.17405340
Link 113 9 947 0 -0.75046722
Link 7 113 1463 0 0.26224282
Link 2 108 2665 0 0.63224476
Link 8 113 2990 1 -0.21066748
GenomeEnd

GenomeStart 40754
Neuron 1 1 0.00000000 1 0.00000000 0.00000000 0.00000000 0.00000000
Neuron 2 1 0.00000000 1 0.00000000 0.00000000 0.00000000 0.00000000
Neuron 3 1 0.00000000 1 0.00000000 0.00000000 0.00000000 0.00000000
Neuron 4 1 0.00000000 1 0.00000000 0.00000000 0.00000000 0.00000000
Neuron 5 1 0.00000000 1 0.00000000 0.00000000 0.00000000 0.00000000
Neuron 6 1 0.00000000 1 0.00000000 0.00000000 0.00000000 0.00000000
Neuron 7 2 0.00000000 1 0.00000000 0.00000000 0.00000000 0.00000000
Neuron 8 4 1.00000000 6 3.50000000 0.00000000 0.08240406 0.26788878
Neuron 9 4 1.00000000 9 3.50000000 0.00000000 0.22615072 -0.64359089
Neuron 108 3 0.50000000 9 1.13827325 0.00000000 0.22286997 -0.12177306
Neuron 113 3 0.50000000 6 4.90552534 0.00000000 0.40000000 0.11999589
Link 5 8 5 0 0.89439384
Link 6 8 6 0 0.34963262
Link 7 8 7 0 -1.50403718
Link 2 9 9 0 0.28001383
Link 3 9 10 0 -0.94093986
Link 4 9 11 0 1.68617718
Link 5 9 12 0 -0.11444916
Link 4 108 898 0 1.09241293
Link 108 8 899 0 0.08756924
Link 1 113 946 0 1.00000000
Link 113 9 947 0 -0.42704140
Link 7 113 1463 0 0.01515741
Link 2 108 2665 0 0.24404909
GenomeEnd

GenomeStart 40755
Neuron 1 1 0.00000000 1 0.00000000 0.00000000 0.00000000 0.00000000
Neuron 2 1 0.00000000 1 0.00000000 0.00000000 0.00000000 0.00000000
Neuron 3 1 0.00000000 1 0.00000000 0.00000000 0.00000000 0.00000000
Neuron 4 1 0.00000000 1 0.00000000 0.00000000 0.00000000 0.00000000
Neuron 5 1 0.00000000 1 0.00000000 0.00000000 0.00000000 0.00000000
Neuron 6 1 0.00000000 1 0.00000000 0.00000000 0.00000000 0.00000000
Neuron 7 2 0.00000000 1 0.00000000 0.00000000 0.00000000 0.00000000
Neuron 8 4 1.00000000 6 3.50000000 0.00000000 0.08240406 0.26788878
Neuron 9 4 1.00000000 9 3.50000000 0.00000000 0.22615072 -0.64359089
Neuron 108 3 0.50000000 9 1.13827325 0.00000000 0.22286997 -0.12177306
Neuron 113 3 0.50000000 6 4.90552534 0.00000000 0.40000000 0.11999589
Link 5 8 5 0 0.89439384
Link 6 8 6 0 0.26575827
Link 7 8 7 0 -1.54655523
Link 2 9 9 0 0.23199777
Link 3 9 10 0 -0.68895925
Link 4 9 11 0 2.09623727
Link 5 9 12 0 -0.32165273
Link 4 108 898 0 1.05604516
Link 108 8 899 0 -0.28623303
Link 1 113 946 0 1.17405340
Link 113 9 947 0 -0.39830601
Link 7 113 1463 0 0.26224282
Link 2 108 2665 0 0.63224476
GenomeEnd

GenomeStart 40756
Neuron 1 1 0.00000000 1 0.00000000 0.00000000 0.00000000 0.00000000
Neuron 2 1 0.00000000 1 0.00000000 0.00000000 0.00000000 0.00000000
Neuron 3 1 0.00000000 1 0.00000000 0.00000000 0.00000000 0.00000000
Neuron 4 1 0.00000000 1 0.00000000 0.00000000 0.00000000 0.00000000
Neuron 5 1 0.00000000 1 0.00000000 0.00000000 0.00000000 0.00000000
Neuron 6 1 0.00000000 1 0.00000000 0.00000000 0.00000000 0.00000000
Neuron 7 2 0.00000000 1 0.00000000 0.00000000 0.00000000 0.00000000
Neuron 8 4 1.00000000 6 3.50000000 0.00000000 0.08240406 0.26788878
Neuron 9 4 1.00000000 9 3.50000000 0.00000000 0.22615072 -0.64359089
Neuron 108 3 0.50000000 9 1.13827325 0.00000000 0.22286997 -0.12177306
Neuron 113 3 0.50000000 6 4.90552534 0.00000000 0.40000000 0.11999589
Link 5 8 5 0 1.19348351
Link 6 8 6 0 0.26575827
Link 7 8 7 0 -1.54655523
Link 2 9 9 0 0.23199777
Link 3 9 10 0 -0.11948365
Link 4 9 11 0 2.09623727
Link 5 9 12 0 -0.32165273
Link 4 108 898 0 1.05604516
Link 108 8 899 0 -0.04590522
Link 1 113 946 0 1.00000000
Link 113 9 947 0 -0.75046722
Link 7 113 1463 0 0.26224282
Link 2 108 2665 0 0.55812836
GenomeEnd

GenomeStart 40757
Neuron 1 1 0.00000000 1 0.00000000 0.00000000 0.00000000 0.00000000
Neuron 2 1 0.00000000 1 0.00000000 0.00000000 0.00000000 0.00000000
Neuron 3 1 0.00000000 1 0.00000000 0.00000000 0.00000000 0.00000000
Neuron 4 1 0.00000000 1 0.00000000 0.00000000 0.00000000 0.00000000
Neuron 5 1 0.00000000 1 0.00000000 0.00000000 0.00000000 0.00000000
Neuron 6 1 0.00000000 1 0.00000000 0.00000000 0.00000000 0.00000000
Neuron 7 2 0.00000000 1 0.00000000 0.00000000 0.00000000 0.00000000
Neuron 8 4 1.00000000 6 3.50000000 0.00000000 0.08240406 0.26788878
Neuron 9 4 1.00000000 9 3.50000000 0.00000000 0.22615072 -0.64359089
Neuron 108 3 0.50000000 9 1.13827325 0.00000000 0.22286997 -0.12177306
Neuron 113 3 0.50000000 6 4.90552534 0.00000000 0.40000000 0.11999589
Link 2 8 2 0 -0.40849380
Link 5 8 5 0 1.19348351
Link 6 8 6 0 0.26336414
Link 7 8 7 0 -1.25062045
Link 2 9 9 0 0.27672235
Link 3 9 10 0 -0.11948365
Link 4 9 11 0 2.09623727
Link 5 9 12 0 -0.04368270
Link 4 108 898 0 1.05604516
Link 108 8 899 0 -0.28623303
Link 1 113 946 0 1.17405340
Link 113 9 947 0 -0.75046722
Link 7 113 1463 0 0.26224282
Link 2 108 2665 0 0.63224476
GenomeEnd

GenomeStart 40621
Neuron 1 1 0.00000000 1 0.00000000 0.00000000 0.00000000 0.00000000
Neuron 2 1 0.00000000 1 0.00000000 0.00000000 0.00000000 0.00000000
Neuron 3 1 0.00000000 1 0.00000000 0.00000000 0.00000000 0.00000000
Neuron 4 1 0.00000000 1 0.00000000 0.00000000 0.00000000 0.00000000
Neuron 5 1 0.00000000 1 0.00000000 0.00000000 0.00000000 0.00000000
Neuron 6 1 0.00000000 1 0.00000000 0.00000000 0.00000000 0.00000000
Neuron 7 2 0.00000000 1 0.00000000 0.00000000 0.00000000 0.00000000
Neuron 8 4 1.00000000 6 3.50000000 0.00000000 0.08240406 0.26788878
Neuron 9 4 1.00000000 9 3.50000000 0.00000000 0.22615072 -0.64359089
Neuron 108 3 0.50000000 9 1.13827325 0.00000000 0.22286997 -0.12177306
Neuron 113 3 0.50000000 6 4.90552534 0.00000000 0.40000000 0.11999589
Link 2 8 2 0 0.68077780
Link 5 8 5 0 0.89439384
Link 6 8 6 0 0.26575827
Link 7 8 7 0 -1.54655523
Link 2 9 9 0 0.23199777
Link 3 9 10 0 -0.68895925
Link 4 9 11 0 1.86162342
Link 5 9 12 0 -0.32165273
Link 4 108 898 0 1.00000000
Link 108 8 899 0 -0.04590522
Link 1 113 946 0 1.00000000
Link 113 9 947 0 -0.39830601
Link 7 113 1463 0 -0.08688897
Link 2 108 2665 0 0.55812836
GenomeEnd

GenomeStart 40639
Neuron 1 1 0.00000000 1 0.00000000 0.00000000 0.00000000 0.00000000
Neuron 2 1 0.00000000 1 0.00000000 0.00000000 0.00000000 0.00000000
Neuron 3 1 0.00000000 1 0.00000000 0.00000000 0.00000000 0.00000000
Neuron 4 1 0.00000000 1 0.00000000 0.00000000 0.00000000 0.00000000
Neuron 5 1 0.00000000 1 0.00000000 0.00000000 0.00000000 0.00000000
Neuron 6 1 0.00000000 1 0.00000000 0.00000000 0.00000000 0.00000000
Neuron 7 2 0.00000000 1 0.00000000 0.00000000 0.00000000 0.00000000
Neuron 8 4 1.00000000 6 3.50000000 0.00000000 0.08126519 0.80456287
Neuron 9 4 1.00000000 9 3.50000000 0.00000000 0.22615072 -0.64359089
Neuron 108 3 0.50000000 9 1.13827325 0.00000000 0.16988050 -0.12177306
Neuron 113 3 0.50000000 6 4.90552534 0.00000000 0.40000000 0.11999589
Link 2 8 2 0 0.79765183
Link 5 8 5 0 0.48913422
Link 6 8 6 0 -0.07467382
Link 7 8 7 0 -1.33790318
Link 2 9 9 0 -0.05465537
Link 3 9 10 0 -0.86431187
Link 4 9 11 0 2.04128945
Link 5 9 12 0 -0.31152889
Link 108 8 899 0 0.08246395
Link 113 9 947 0 -0.20041772
Link 7 113 1463 0 -0.00100373
Link 1 113 2724 0 0.41599287
Link 4 108 2909 0 -0.04544045
Link 6 108 2930 0 0.70122430
Link 3 113 2946 0 0.16117429
GenomeEnd

GenomeStart 40640
Neuron 1 1 0.00000000 1 0.00000000 0.00000000 0.00000000 0.00000000
Neuron 2 1 0.00000000 1 0.00000000 0.00000000 0.00000000 0.00000000
Neuron 3 1 0.00000000 1 0.00000000 0.00000000 0.00000000 0.00000000
Neuron 4 1 0.00000000 1 0.00000000 0.00000000 0.00000000 0.00000000
Neuron 5 1 0.00000000 1 0.00000000 0.00000000 0.00000000 0.00000000
Neuron 6 1 0.00000000 1 0.00000000 0.00000000 0.00000000 0.00000000
Neuron 7 2 0.00000000 1 0.00000000 0.00000000 0.00000000 0.00000000
Neuron 8 4 1.00000000 6 3.50000000 0.00000000 0.08126519 0.80456287
Neuron 9 4 1.00000000 9 3.50000000 0.00000000 0.22615072 -0.64359089
Neuron 108 3 0.50000000 9 1.13827325 0.00000000 0.16988050 -0.12177306
Neuron 113 3 0.50000000 6 4.90552534 0.00000000 0.40000000 0.11999589
Link 2 8 2 0 0.79765183
Link 5 8 5 0 0.48913422
Link 6 8 6 0 -0.07467382
Link 7 8 7 0 -1.33790318
Link 2 9 9 0 -0.05465537
Link 3 9 10 0 -0.86431187
Link 4 9 11 0 2.04128945
Link 5 9 12 0 -0.31152889
Link 108 8 899 0 0.08246395
Link 113 9 947 0 -0.20041772
Link 7 113 1463 0 -0.00100373
Link 1 113 2724 0 0.41599287
Link 4 108 2909 0 -0.04544045
Link 6 108 2930 0 0.70122430
Link 3 113 2946 0 0.16117429
GenomeEnd

GenomeStart 40641
Neuron 1 1 0.00000000 1 0.00000000 0.00000000 0.00000000 0.00000000
Neuron 2 1 0.00000000 1 0.00000000 0.00000000 0.00000000 0.00000000
Neuron 3 1 0.00000000 1 0.00000000 0.00000000 0.00000000 0.00000000
Neuron 4 1 0.00000000 1 0.00000000 0.00000000 0.00000000 0.00000000
Neuron 5 1 0.00000000 1 0.00000000 0.00000000 0.00000000 0.00000000
Neuron 6 1 0.00000000 1 0.00000000 0.00000000 0.00000000 0.00000000
Neuron 7 2 0.00000000 1 0.00000000 0.00000000 0.00000000 0.00000000
Neuron 8 4 1.00000000 6 3.50000000 0.00000000 0.08126519 0.80456287
Neuron 9 4 1.00000000 9 3.50000000 0.00000000 0.22615072 -0.64359089
Neuron 108 3 0.50000000 9 1.13827325 0.00000000 0.16988050 -0.12177306
Neuron 113 3 0.50000000 6 4.90552534 0.00000000 0.40000000 0.11999589
Link 2 8 2 0 0.79765183
Link 5 8 5 0 0.48913422
Link 6 8 6 0 -0.07467382
Link 7 8 7 0 -1.33790318
Link 2 9 9 0 -0.05465537
Link 3 9 10 0 -0.86431187
Link 4 9 11 0 2.04128945
Link 5 9 12 0 -0.31152889
Link 108 8 899 0 0.08246395
Link 113 9 947 0 -0.20041772
Link 7 113 1463 0 -0.00100373
Link 1 113 2724 0 0.41599287
Link 4 108 2909 0 -0.04544045
Link 6 108 2930 0 0.70122430
Link 3 113 2946 0 0.16117429
GenomeEnd

GenomeStart 40642
Neuron 1 1 0.00000000 1 0.00000000 0.00000000 0.00000000 0.00000000
Neuron 2 1 0.00000000 1 0.00000000 0.00000000 0.00000000 0.00000000
Neuron 3 1 0.00000000 1 0.00000000 0.00000000 0.00000000 0.00000000
Neuron 4 1 0.00000000 1 0.00000000 0.00000000 0.00000000 0.00000000
Neuron 5 1 0.00000000 1 0.00000000 0.00000000 0.00000000 0.00000000
Neuron 6 1 0.00000000 1 0.00000000 0.00000000 0.00000000 0.00000000
Neuron 7 2 0.00000000 1 0.00000000 0.00000000 0.00000000 0.00000000
Neuron 8 4 1.00000000 6 3.50000000 0.00000000 0.08126519 0.80456287
Neuron 9 4 1.00000000 9 3.50000000 0.00000000 0.22615072 -0.64359089
Neuron 108 3 0.50000000 9 1.13827325 0.00000000 0.16988050 -0.12177306
Neuron 113 3 0.50000000 6 4.90552534 0.00000000 0.40000000 0.11999589
Link 2 8 2 0 0.64070711
Link 5 8 5 0 0.42915567
Link 6 8 6 0 -0.25488336
Link 7 8 7 0 -1.33790318
Link 2 9 9 0 0.09398898
Link 3 9 10 0 -0.86431187
Link 4 9 11 0 2.26802087
Link 5 9 12 0 -0.34030682
Link 108 8 899 0 -0.03348596
Link 113 9 947 0 0.53604714
Link 7 113 1463 0 -0.00100373
Link 1 113 2724 0 0.22479414
Link 4 108 2909 0 0.00531230
Link 6 108 2930 0 0.30405030
Link 3 113 2946 0 0.16107346
GenomeEnd

GenomeStart 40643
Neuron 1 1 0.00000000 1 0.00000000 0.00000000 0.00000000 0.00000000
Neuron 2 1 0.00000000 1 0.00000000 0.00000000 0.00000000 0.00000000
Neuron 3 1 0.00000000 1 0.00000000 0.00000000 0.00000000 0.00000000
Neuron 4 1 0.00000000 1 0.00000000 0.00000000 0.00000000 0.00000000
Neuron 5 1 0.00000000 1 0.00000000 0.00000000 0.00000000 0.00000000
Neuron 6 1 0.00000000 1 0.00000000 0.00000000 0.00000000 0.00000000
Neuron 7 2 0.00000000 1 0.00000000 0.00000000 0.00000000 0.00000000
Neuron 8 4 1.00000000 6 3.50000000 0.00000000 0.08126519 0.80456287
Neuron 9 4 1.00000000 9 3.50000000 0.00000000 0.22615072 -0.64359089
Neuron 108 3 0.50000000 9 1.13827325 0.00000000 0.16988050 -0.12177306
Neuron 113 3 0.50000000 6 4.90552534 0.00000000 0.40000000 0.11999589
Link 2 8 2 0 0.79765183
Link 5 8 5 0 0.48913422
Link 6 8 6 0 -0.07467382
Link 7 8 7 0 -1.33790318
Link 2 9 9 0 -0.05465537
Link 3 9 10 0 -0.86431187
Link 4 9 11 0 2.04128945
Link 5 9 12 0 -0.31152889
Link 108 8 899 0 0.08246395
Link 113 9 947 0 -0.20041772
Link 1 113 2724 0 0.41599287
Link 4 108 2909 0 -0.04544045
Link 6 108 2930 0 0.70122430
Link 3 113 2946 0 0.16117429
GenomeEnd

GenomeStart 40644
Neuron 1 1 0.00000000 1 0.00000000 0.00000000 0.00000000 0.00000000
Neuron 2 1 0.00000000 1 0.00000000 0.00000000 0.00000000 0.00000000
Neuron 3 1 0.00000000 1 0.00000000 0.00000000 0.00000000 0.00000000
Neuron 4 1 0.00000000 1 0.00000000 0.00000000 0.00000000 0.00000000
Neuron 5 1 0.00000000 1 0.00000000 0.00000000 0.00000000 0.00000000
Neuron 6 1 0.00000000 1 0.00000000 0.00000000 0.00000000 0.00000000
Neuron 7 2 0.00000000 1 0.00000000 0.00000000 0.00000000 0.00000000
Neuron 8 4 1.00000000 6 3.50000000 0.00000000 0.08126519 0.80456287
Neuron 9 4 1.00000000 9 3.50000000 0.00000000 0.22615072 -0.64359089
Neuron 108 3 0.50000000 9 1.13827325 0.00000000 0.16988050 -0.12177306
Neuron 113 3 0.50000000 6 4.90552534 0.00000000 0.40000000 0.11999589
Link 2 8 2 0 0.94440131
Link 5 8 5 0 0.44468497
Link 6 8 6 0 -0.06837033
Link 7 8 7 0 -1.22877368
Link 2 9 9 0 0.05437329
Link 3 9 10 0 -0.92880377
Link 4 9 11 0 2.03234786
Link 5 9 12 0 -0.53818874
Link 108 8 899 0 0.05368790
Link 113 9 947 0 -0.03601988
Link 7 113 1463 0 0.06897157
Link 1 113 2724 0 0.19380116
Link 4 108 2909 0 -0.26288090
Link 6 108 2930 0 0.78822189
Link 3 113 2946 0 0.03726294
GenomeEnd

GenomeStart 40645
Neuron 1 1 0.00000000 1 0.00000000 0.00000000 0.00000000 0.00000000
Neuron 2 1 0.00000000 1 0.00000000 0.00000000 0.00000000 0.00000000
Neuron 3 1 0.00000000 1 0.00000000 0.00000000 0.00000000 0.00000000
Neuron 4 1 0.00000000 1 0.00000000 0.00000000 0.00000000 0.00000000
Neuron 5 1 0.00000000 1 0.00000000 0.00000000 0.00000000 0.00000000
Neuron 6 1 0.00000000 1 0.00000000 0.00000000 0.00000000 0.00000000
Neuron 7 2 0.00000000 1 0.00000000 0.00000000 0.00000000 0.00000000
Neuron 8 4 1.00000000 6 3.50000000 0.00000000 0.08126519 0.80456287
Neuron 9 4 1.00000000 9 3.50000000 0.00000000 0.22615072 -0.64359089
Neuron 108 3 0.50000000 9 1.13827325 0.00000000 0.16988050 -0.12177306
Neuron 113 3 0.50000000 6 4.90552534 0.00000000 0.40000000 0.11999589
Link 2 8 2 0 0.79765183
Link 5 8 5 0 0.48913422
Link 6 8 6 0 -0.07467382
Link 7 8 7 0 -1.33790318
Link 2 9 9 0 -0.05465537
Link 3 9 10 0 -0.86431187
Link 4 9 11 0 2.04128945
Link 5 9 12 0 -0.31152889
Link 108 8 899 0 0.08246395
Link 113 9 947 0 -0.20041772
Link 7 113 1463 0 -0.00100373
Link 1 113 2724 0 0.41599287
Link 4 108 2909 0 -0.04544045
Link 6 108 2930 0 0.70122430
Link 3 113 2946 0 0.16117429
Link 5 113 2983 0 -0.14091556
GenomeEnd

GenomeStart 40646
Neuron 1 1 0.00000000 1 0.00000000 0.00000000 0.00000000 0.00000000
Neuron 2 1 0.00000000 1 0.00000000 0.00000000 0.00000000 0.00000000
Neuron 3 1 0.00000000 1 0.00000000 0.00000000 0.00000000 0.00000000
Neuron 4 1 0.00000000 1 0.00000000 0.00000000 0.00000000 0.00000000
Neuron 5 1 0.00000000 1 0.00000000 0.00000000 0.00000000 0.00000000
Neuron 6 1 0.00000000 1 0.00000000 0.00000000 0.00000000 0.00000000
Neuron 7 2 0.00000000 1 0.00000000 0.00000000 0.00000000 0.00000000
Neuron 8 4 1.00000000 6 3.50000000 0.00000000 0.08126519 0.80456287
Neuron 9 4 1.00000000 9 3.50000000 0.00000000 0.22615072 -0.64359089
Neuron 108 3 0.50000000 9 1.13827325 0.00000000 0.16988050 -0.12177306
Neuron 113 3 0.50000000 6 4.90552534 0.00000000 0.40000000 0.11999589
Link 2 8 2 0 0.79765183
Link 5 8 5 0 0.48913422
Link 6 8 6 0 -0.07467382
Link 7 8 7 0 -1.33790318
Link 2 9 9 0 -0.05465537
Link 3 9 10 0 -0.86431187
Link 4 9 11 0 2.04128945
Link 5 9 12 0 -0.31152889
Link 108 8 899 0 0.08246395
Link 113 9 947 0 -0.20041772
Link 7 113 1463 0 -0.00100373
Link 1 113 2724 0 0.41599287
Link 4 108 2909 0 -0.04544045
Link 6 108 2930 0 0.70122430
Link 3 113 2946 0 0.16117429
Link 1 108 2984 0 0.05446154
GenomeEnd

GenomeStart 40647
Neuron 1 1 0.00000000 1 0.00000000 0.00000000 0.00000000 0.00000000
Neuron 2 1 0.00000000 1 0.00000000 0.00000000 0.00000000 0.00000000
Neuron 3 1 0.00000000 1 0.00000000 0.00000000 0.00000000 0.00000000
Neuron 4 1 0.00000000 1 0.00000000 0.00000000 0.00000000 0.00000000
Neuron 5 1 0.00000000 1 0.00000000 0.00000000 0.00000000 0.00000000
Neuron 6 1 0.00000000 1 0.00000000 0.00000000 0.00000000 0.00000000
Neuron 7 2 0.00000000 1 0.00000000 0.00000000 0.00000000 0.00000000
Neuron 8 4 1.00000000 6 3.50000000 0.00000000 0.08126519 0.80456287
Neuron 9 4 1.00000000 9 3.50000000 0.00000000 0.22615072 -0.64359089
Neuron 108 3 0.50000000 9 1.13827325 0.00000000 0.16988050 -0.12177306
Neuron 113 3 0.50000000 6 4.90552534 0.00000000 0.40000000 0.11999589
Link 5 8 5 0 0.48913422
Link 6 8 6 0 -0.07467382
Link 7 8 7 0 -1.33790318
Link 2 9 9 0 -0.05465537
Link 3 9 10 0 -0.86431187
Link 4 9 11 0 2.04128945
Link 5 9 12 0 -0.31152889
Link 108 8 899 0 0.08246395
Link 113 9 947 0 -0.20041772
Link 7 113 1463 0 -0.00100373
Link 1 113 2724 0 0.41599287
Link 4 108 2909 0 -0.04544045
Link 6 108 2930 0 0.70122430
Link 3 113 2946 0 0.16117429
GenomeEnd

GenomeStart 40648
Neuron 1 1 0.00000000 1 0.00000000 0.00000000 0.00000000 0.00000000
Neuron 2 1 0.00000000 1 0.00000000 0.00000000 0.00000000 0.00000000
Neuron 3 1 0.00000000 1 0.00000000 0.00000000 0.00000000 0.00000000
Neuron 4 1 0.00000000 1 0.00000000 0.00000000 0.00000000 0.00000000
Neuron 5 1 0.00000000 1 0.00000000 0.00000000 0.00000000 0.00000000
Neuron 6 1 0.00000000 1 0.00000000 0.00000000 0.00000000 0.00000000
Neuron 7 2 0.00000000 1 0.00000000 0.00000000 0.00000000 0.00000000
Neuron 8 4 1.00000000 6 3.50000000 0.00000000 0.08126519 0.80456287
Neuron 9 4 1.00000000 9 3.50000000 0.00000000 0.22615072 -0.64359089
Neuron 108 3 0.50000000 9 1.13827325 0.00000000 0.16988050 -0.12177306
Neuron 113 3 0.50000000 6 4.90552534 0.00000000 0.40000000 0.11999589
Link 2 8 2 0 0.79765183
Link 5 8 5 0 0.48913422
Link 6 8 6 0 -0.07467382
Link 7 8 7 0 -1.33790318
Link 2 9 9 0 -0.05465537
Link 3 9 10 0 -0.86431187
Link 4 9 11 0 2.04128945
Link 5 9 12 0 -0.31152889
Link 108 8 899 0 0.08246395
Link 113 9 947 0 -0.20041772
Link 7 113 1463 0 -0.00100373
Link 1 113 2724 0 0.41599287
Link 4 108 2909 0 -0.04544045
Link 6 108 2930 0 0.70122430
Link 3 113 2946 0 0.16117429
GenomeEnd

GenomeStart 40649
Neuron 1 1 0.00000000 1 0.00000000 0.00000000 0.00000000 0.00000000
Neuron 2 1 0.00000000 1 0.00000000 0.00000000 0.00000000 0.00000000
Neuron 3 1 0.00000000 1 0.00000000 0.00000000 0.00000000 0.00000000
Neuron 4 1 0.00000000 1 0.00000000 0.00000000 0.00000000 0.00000000
Neuron 5 1 0.00000000 1 0.00000000 0.00000000 0.00000000 0.00000000
Neuron 6 1 0.00000000 1 0.00000000 0.00000000 0.00000000 0.00000000
Neuron 7 2 0.00000000 1 0.00000000 0.00000000 0.00000000 0.00000000
Neuron 8 4 1.00000000 6 3.50000000 0.00000000 0.08126519 0.80456287
Neuron 9 4 1.00000000 9 3.50000000 0.00000000 0.22615072 -0.64359089
Neuron 108 3 0.50000000 9 1.13827325 0.00000000 0.16988050 -0.12177306
Neuron 113 3 0.50000000 6 4.90552534 0.00000000 0.40000000 0.11999589
Link 2 8 2 0 0.81689354
Link 5 8 5 0 0.85107681
Link 6 8 6 0 0.23479715
Link 7 8 7 0 0.55038376
Link 2 9 9 0 0.13399216
Link 3 9 10 0 -0.96860357
Link 4 9 11 0 1.93130723
Link 5 9 12 0 -0.69206674
Link 108 8 899 0 0.12500665
Link 113 9 947 0 -0.15086598
Link 7 113 1463 0 0.18223872
Link 1 113 2724 0 0.31696154
Link 4 108 2909 0 -0.04544045
Link 6 108 2930 0 0.72423811
Link 3 113 2946 0 0.16117429
GenomeEnd

GenomeStart 40650
Neuron 1 1 0.00000000 1 0.00000000 0.00000000 0.00000000 0.00000000
Neuron 2 1 0.00000000 1 0.00000000 0.00000000 0.00000000 0.00000000
Neuron 3 1 0.00000000 1 0.00000000 0.00000000 0.00000000 0.00000000
Neuron 4 1 0.00000000 1 0.00000000 0.00000000 0.00000000 0.00000000
Neuron 5 1 0.00000000 1 0.00000000 0.00000000 0.00000000 0.00000000
Neuron 6 1 0.00000000 1 0.00000000 0.00000000 0.00000000 0.00000000
Neuron 7 2 0.00000000 1 0.00000000 0.00000000 0.00000000 0.00000000
Neuron 8 4 1.00000000 6 3.50000000 0.00000000 0.08126519 0.80456287
Neuron 9 4 1.00000000 9 3.50000000 0.00000000 0.22615072 -0.64359089
Neuron 108 3 0.50000000 9 1.13827325 0.00000000 0.16988050 -0.12177306
Neuron 113 3 0.50000000 6 4.90552534 0.00000000 0.40000000 0.11999589
Link 2 8 2 0 1.24679002
Link 5 8 5 0 0.94700810
Link 6 8 6 0 0.06898412
Link 7 8 7 0 0.17362284
Link 2 9 9 0 -0.05465537
Link 3 9 10 0 -0.59858683
Link 4 9 11 0 0.70935606
Link 5 9 12 0 -0.30154919
Link 108 8 899 0 0.05414137
Link 113 9 947 0 -0.13722054
Link 7 113 1463 0 -0.34758647
Link 1 113 2724 0 -0.79488910
Link 4 108 2909 0 -0.04544045
Link 6 108 2930 0 0.70122430
Link 3 113 2946 0 0.10296795
GenomeEnd

GenomeStart 40651
Neuron 1 1 0.00000000 1 0.00000000 0.00000000 0.00000000 0.00000000
Neuron 2 1 0.00000000 1 0.00000000 0.00000000 0.00000000 0.00000000
Neuron 3 1 0.00000000 1 0.00000000 0.00000000 0.00000000 0.00000000
Neuron 4 1 0.00000000 1 0.00000000 0.00000000 0.00000000 0.00000000
Neuron 5 1 0.00000000 1 0.00000000 0.00000000 0.00000000 0.00000000
Neuron 6 1 0.00000000 1 0.00000000 0.00000000 0.00000000 0.00000000
Neuron 7 2 0.00000000 1 0.00000000 0.00000000 0.00000000 0.00000000
Neuron 8 4 1.00000000 6 3.50000000 0.00000000 0.08126519 0.80456287
Neuron 9 4 1.00000000 9 3.50000000 0.00000000 0.22615072 -0.64359089
Neuron 108 3 0.50000000 11 1.13827325 0.00000000 0.16988050 -0.12177306
Neuron 113 3 0.50000000 6 4.90552534 0.00000000 0.40000000 0.11999589
Link 2 8 2 0 0.79765183
Link 5 8 5 0 0.48913422
Link 6 8 6 0 -0.07467382
Link 7 8 7 0 -1.33790318
Link 2 9 9 0 -0.05465537
Link 3 9 10 0 -0.86431187
Link 4 9 11 0 2.04128945
Link 5 9 12 0 -0.31152889
Link 108 8 899 0 0.08246395
Link 113 9 947 0 -0.20041772
Link 7 113 1463 0 -0.00100373
Link 1 113 2724 0 0.41599287
Link 4 108 2909 0 -0.04544045
Link 6 108 2930 0 0.70122430
Link 3 113 2946 0 0.16117429
GenomeEnd

GenomeStart 40652
Neuron 1 1 0.00000000 1 0.00000000 0.00000000 0.00000000 0.00000000
Neuron 2 1 0.00000000 1 0.00000000 0.00000000 0.00000000 0.00000000
Neuron 3 1 0.00000000 1 0.00000000 0.00000000 0.00000000 0.00000000
Neuron 4 1 0.00000000 1 0.00000000 0.00000000 0.00000000 0.00000000
Neuron 5 1 0.00000000 1 0.00000000 0.00000000 0.00000000 0.00000000
Neuron 6 1 0.00000000 1 0.00000000 0.00000000 0.00000000 0.00000000
Neuron 7 2 0.00000000 1 0.00000000 0.00000000 0.00000000 0.00000000
Neuron 8 4 1.00000000 6 3.50000000 0.00000000 0.08126519 0.80456287
Neuron 9 4 1.00000000 9 3.50000000 0.00000000 0.22615072 -0.64359089
Neuron 108 3 0.50000000 9 1.13827325 0.00000000 0.16988050 -0.12177306
Neuron 113 3 0.50000000 6 4.90552534 0.00000000 0.40000000 0.11999589
Link 2 8 2 0 0.79765183
Link 5 8 5 0 0.48913422
Link 6 8 6 0 -0.07467382
Link 7 8 7 0 -1.33790318
Link 2 9 9 0 -0.05465537
Link 3 9 10 0 -0.86431187
Link 4 9 11 0 2.04128945
Link 5 9 12 0 -0.31152889
Link 108 8 899 0 0.08246395
Link 113 9 947 0 -0.20041772
Link 7 113 1463 0 -0.00100373
Link 1 113 2724 0 0.41599287
Link 4 108 2909 0 -0.04544045
Link 6 108 2930 0 0.70122430
Link 3 113 2946 0 0.16117429
GenomeEnd

GenomeStart 40653
Neuron 1 1 0.00000000 1 0.00000000 0.00000000 0.00000000 0.00000000
Neuron 2 1 0.00000000 1 0.00000000 0.00000000 0.00000000 0.00000000
Neuron 3 1 0.00000000 1 0.00000000 0.00000000 0.00000000 0.00000000
Neuron 4 1 0.00000000 1 0.00000000 0.00000000 0.00000000 0.00000000
Neuron 5 1 0.00000000 1 0.00000000 0.00000000 0.00000000 0.00000000
Neuron 6 1 0.00000000 1 0.00000000 0.00000000 0.00000000 0.00000000
Neuron 7 2 0.00000000 1 0.00000000 0.00000000 0.00000000 0.00000000
Neuron 8 4 1.00000000 6 3.50000000 0.00000000 0.08126519 0.48279398
Neuron 9 4 1.00000000 9 3.50000000 0.00000000 0.22615072 -0.64359089
Neuron 108 3 0.50000000 9 1.13827325 0.00000000 0.15017865 -0.12177306
Neuron 113 3 0.50000000 6 4.90552534 0.00000000 0.36470973 0.11999589
Neuron 265 3 0.25000000 6 4.23707321 0.00000000 0.09979389 0.28439478
Link 2 8 2 0 0.79765183
Link 5 8 5 0 0.48913422
Link 6 8 6 0 -0.07467382
Link 7 8 7 0 -1.33790318
Link 2 9 9 0 -0.05465537
Link 3 9 10 0 -0.86431187
Link 4 9 11 0 2.04128945
Link 5 9 12 0 -0.31152889
Link 108 8 899 0 0.08246395
Link 113 9 947 0 -0.20041772
Link 7 113 1463 0 -0.00100373
Link 1 113 2724 0 0.41599287
Link 4 265 2729 0 -0.04544045
Link 265 108 2730 0 0.80668079
GenomeEnd

GenomeStart 40654
Neuron 1 1 0.00000000 1 0.00000000 0.00000000 0.00000000 0.00000000
Neuron 2 1 0.00000000 1 0.00000000 0.00000000 0.00000000 0.00000000
Neuron 3 1 0.00000000 1 0.00000000 0.00000000 0.00000000 0.00000000
Neuron 4 1 0.00000000 1 0.00000000 0.00000000 0.00000000 0.00000000
Neuron 5 1 0.00000000 1 0.00000000 0.00000000 0.00000000 0.00000000
Neuron 6 1 0.00000000 1 0.00000000 0.00000000 0.00000000 0.00000000
Neuron 7 2 0.00000000 1 0.00000000 0.00000000 0.00000000 0.00000000
Neuron 8 4 1.00000000 6 3.50000000 0.00000000 0.08126519 0.48279398
Neuron 9 4 1.00000000 9 3.50000000 0.00000000 0.22615072 -0.64359089
Neuron 108 3 0.50000000 9 1.13827325 0.00000000 0.15017865 -0.12177306
Neuron 113 3 0.50000000 6 4.90552534 0.00000000 0.36470973 0.11999589
Neuron 265 3 0.25000000 6 4.23707321 0.00000000 0.09979389 0.28439478
Link 2 8 2 0 0.79765183
Link 5 8 5 0 0.48913422
Link 6 8 6 0 -0.07467382
Link 7 8 7 0 -1.33790318
Link 2 9 9 0 -0.05465537
Link 3 9 10 0 -0.86431187
Link 4 9 11 0 2.04128945
Link 5 9 12 0 -0.31152889
Link 108 8 899 0 0.08246395
Link 113 9 947 0 -0.20041772
Link 7 113 1463 0 -0.00100373
Link 1 113 2724 0 0.41599287
Link 4 265 2729 0 -0.04544045
Link 265 108 2730 0 0.80668079
GenomeEnd

GenomeStart 40655
Neuron 1 1 0.00000000 1 0.00000000 0.00000000 0.00000000 0.00000000
Neuron 2 1 0.00000000 1 0.00000000 0.00000000 0.00000000 0.00000000
Neuron 3 1 0.00000000 1 0.00000000 0.00000000 0.00000000 0.00000000
Neuron 4 1 0.00000000 1 0.00000000 0.00000000 0.00000000 0.00000000
Neuron 5 1 0.00000000 1 0.00000000 0.00000000 0.00000000 0.00000000
Neuron 6 1 0.00000000 1 0.00000000 0.00000000 0.00000000 0.00000000
Neuron 7 2 0.00000000 1 0.00000000 0.00000000 0.00000000 0.00000000
Neuron 8 4 1.00000000 6 3.50000000 0.00000000 0.04000000 0.48279398
Neuron 9 4 1.00000000 9 3.50000000 0.00000000 0.20578932 -0.64359089
Neuron 108 3 0.50000000 9 1.13827325 0.00000000 0.15017865 -0.12177306
Neuron 113 3 0.50000000 6 4.90552534 0.00000000 0.36470973 0.11999589
Neuron 265 3 0.25000000 6 4.23707321 0.00000000 0.09611788 0.28439478
Link 2 8 2 0 0.79765183
Link 5 8 5 0 0.48913422
Link 6 8 6 0 -0.07467382
Link 7 8 7 0 -1.33790318
Link 2 9 9 0 -0.05465537
Link 3 9 10 0 -0.86431187
Link 4 9 11 0 2.04128945
Link 5 9 12 0 -0.31152889
Link 108 8 899 0 0.08246395
Link 113 9 947 0 -0.20041772
Link 7 113 1463 0 -0.00100373
Link 1 113 2724 0 0.41599287
Link 4 265 2729 0 -0.04544045
Link 265 108 2730 0 0.80668079
GenomeEnd

GenomeStart 40656
Neuron 1 1 0.00000000 1 0.00000000 0.00000000 0.00000000 0.00000000
Neuron 2 1 0.00000000 1 0.00000000 0.00000000 0.00000000 0.00000000
Neuron 3 1 0.00000000 1 0.00000000 0.00000000 0.00000000 0.00000000
Neuron 4 1 0.00000000 1 0.00000000 0.00000000 0.00000000 0.00000000
Neuron 5 1 0.00000000 1 0.00000000 0.00000000 0.00000000 0.00000000
Neuron 6 1 0.00000000 1 0.00000000 0.00000000 0.00000000 0.00000000
Neuron 7 2 0.00000000 1 0.00000000 0.00000000 0.00000000 0.00000000
Neuron 8 4 1.00000000 6 3.50000000 0.00000000 0.08126519 0.48279398
Neuron 9 4 1.00000000 9 3.50000000 0.00000000 0.22615072 -0.64359089
Neuron 108 3 0.50000000 9 1.13827325 0.00000000 0.15017865 -0.12177306
Neuron 113 3 0.50000000 6 4.90552534 0.00000000 0.36470973 0.11999589
Neuron 265 3 0.25000000 6 4.23707321 0.00000000 0.09979389 0.28439478
Link 2 8 2 0 0.79765183
Link 5 8 5 0 0.48913422
Link 6 8 6 0 -0.07467382
Link 7 8 7 0 -1.33790318
Link 2 9 9 0 -0.05465537
Link 3 9 10 0 -0.86431187
Link 4 9 11 0 2.04128945
Link 5 9 12 0 -0.31152889
Link 108 8 899 0 0.08246395
Link 113 9 947 0 -0.20041772
Link 7 113 1463 0 -0.00100373
Link 1 113 2724 0 0.41599287
Link 4 265 2729 0 -0.04544045
Link 265 108 2730 0 0.80668079
GenomeEnd

GenomeStart 40657
Neuron 1 1 0.00000000 1 0.00000000 0.00000000 0.00000000 0.00000000
Neuron 2 1 0.00000000 1 0.00000000 0.00000000 0.00000000 0.00000000
Neuron 3 1 0.00000000 1 0.00000000 0.00000000 0.00000000 0.00000000
Neuron 4 1 0.00000000 1 0.00000000 0.00000000 0.00000000 0.00000000
Neuron 5 1 0.00000000 1 0.00000000 0.00000000 0.00000000 0.00000000
Neuron 6 1 0.00000000 1 0.00000000 0.00000000 0.00000000 0.00000000
Neuron 7 2 0.00000000 1 0.00000000 0.00000000 0.00000000 0.00000000
Neuron 8 4 1.00000000 6 3.50000000 0.00000000 0.08126519 0.48279398
Neuron 9 4 1.00000000 9 3.50000000 0.00000000 0.22615072 -0.64359089
Neuron 108 3 0.50000000 9 1.13827325 0.00000000 0.15017865 -0.12177306
Neuron 113 3 0.50000000 6 4.90552534 0.00000000 0.36470973 0.11999589
Neuron 265 3 0.25000000 6 4.23707321 0.00000000 0.09979389 0.28439478
Link 2 8 2 0 0.79765183
Link 5 8 5 0 0.48913422
Link 6 8 6 0 -0.07467382
Link 7 8 7 0 -1.33790318
Link 2 9 9 0 -0.05465537
Link 3 9 10 0 -0.86431187
Link 4 9 11 0 2.04128945
Link 5 9 12 0 -0.31152889
Link 108 8 899 0 0.08246395
Link 113 9 947 0 -0.20041772
Link 7 113 1463 0 -0.00100373
Link 1 113 2724 0 0.41599287
Link 4 265 2729 0 -0.04544045
Link 265 108 2730 0 0.80668079
GenomeEnd

GenomeStart 40658
Neuron 1 1 0.00000000 1 0.00000000 0.00000000 0.00000000 0.00000000
Neuron 2 1 0.00000000 1 0.00000000 0.00000000 0.00000000 0.00000000
Neuron 3 1 0.00000000 1 0.00000000 0.00000000 0.00000000 0.00000000
Neuron 4 1 0.00000000 1 0.00000000 0.00000000 0.00000000 0.00000000
Neuron 5 1 0.00000000 1 0.00000000 0.00000000 0.00000000 0.00000000
Neuron 6 1 0.00000000 1 0.00000000 0.00000000 0.00000000 0.00000000
Neuron 7 2 0.00000000 1 0.00000000 0.00000000 0.00000000 0.00000000
Neuron 8 4 1.00000000 6 3.50000000 0.00000000 0.08126519 0.48279398
Neuron 9 4 1.00000000 9 3.50000000 0.00000000 0.22615072 -0.64359089
Neuron 108 3 0.50000000 9 1.13827325 0.00000000 0.15017865 -0.12177306
Neuron 113 3 0.50000000 6 4.90552534 0.00000000 0.36470973 0.11999589
Neuron 265 3 0.25000000 6 4.23707321 0.00000000 0.09979389 0.28439478
Link 2 8 2 0 0.43085984
Link 5 8 5 0 0.12425765
Link 6 8 6 0 -0.05529271
Link 7 8 7 0 -1.33909667
Link 2 9 9 0 -0.17357782
Link 3 9 10 0 -0.80070475
Link 4 9 11 0 1.68877544
Link 5 9 12 0 -0.26620059
Link 108 8 899 0 -0.07254264
Link 113 9 947 0 0.09362092
Link 7 113 1463 0 0.20322657
Link 1 113 2724 0 0.77463184
Link 4 265 2729 0 0.23941862
Link 265 108 2730 0 1.24006829
GenomeEnd

GenomeStart 40659
Neuron 1 1 0.00000000 1 0.00000000 0.00000000 0.00000000 0.00000000
Neuron 2 1 0.00000000 1 0.00000000 0.00000000 0.00000000 0.00000000
Neuron 3 1 0.00000000 1 0.00000000 0.00000000 0.00000000 0.00000000
Neuron 4 1 0.00000000 1 0.00000000 0.00000000 0.00000000 0.00000000
Neuron 5 1 0.00000000 1 0.00000000 0.00000000 0.00000000 0.00000000
Neuron 6 1 0.00000000 1 0.00000000 0.00000000 0.00000000 0.00000000
Neuron 7 2 0.00000000 1 0.00000000 0.00000000 0.00000000 0.00000000
Neuron 8 4 1.00000000 6 3.50000000 0.00000000 0.04000000 0.48279398
Neuron 9 4 1.00000000 9 3.50000000 0.00000000 0.22615072 -0.64359089
Neuron 108 3 0.50000000 9 1.13827325 0.00000000 0.15017865 -0.12177306
Neuron 113 3 0.50000000 6 4.90552534 0.00000000 0.36470973 0.11999589
Neuron 265 3 0.25000000 6 4.23707321 0.00000000 0.09979389 0.28439478
Link 2 8 2 0 0.79765183
Link 5 8 5 0 0.48913422
Link 6 8 6 0 -0.07467382
Link 7 8 7 0 -1.33790318
Link 2 9 9 0 -0.05465537
Link 3 9 10 0 -0.86431187
Link 4 9 11 0 2.04128945
Link 5 9 12 0 -0.31152889
Link 108 8 899 0 0.08246395
Link 113 9 947 0 -0.20041772
Link 7 113 1463 0 -0.00100373
Link 1 113 2724 0 0.41599287
Link 4 265 2729 0 -0.04544045
Link 265 108 2730 0 0.80668079
GenomeEnd

GenomeStart 40660
Neuron 1 1 0.00000000 1 0.00000000 0.00000000 0.00000000 0.00000000
Neuron 2 1 0.00000000 1 0.00000000 0.00000000 0.00000000 0.00000000
Neuron 3 1 0.00000000 1 0.00000000 0.00000000 0.00000000 0.00000000
Neuron 4 1 0.00000000 1 0.00000000 0.00000000 0.00000000 0.00000000
Neuron 5 1 0.00000000 1 0.00000000 0.00000000 0.00000000 0.00000000
Neuron 6 1 0.00000000 1 0.00000000 0.00000000 0.00000000 0.00000000
Neuron 7 2 0.00000000 1 0.00000000 0.00000000 0.00000000 0.00000000
Neuron 8 4 1.00000000 6 3.50000000 0.00000000 0.04000000 0.48279398
Neuron 9 4 1.00000000 9 3.50000000 0.00000000 0.22615072 -0.64359089
Neuron 108 3 0.50000000 9 1.13827325 0.00000000 0.15017865 -0.12177306
Neuron 113 3 0.50000000 6 4.90552534 0.00000000 0.36470973 0.11999589
Neuron 265 3 0.25000000 6 4.23707321 0.00000000 0.09979389 0.28439478
Link 2 8 2 0 0.79765183
Link 5 8 5 0 0.48913422
Link 6 8 6 0 -0.07467382
Link 7 8 7 0 -1.33790318
Link 2 9 9 0 -0.05465537
Link 3 9 10 0 -0.86431187
Link 4 9 11 0 2.04128945
Link 5 9 12 0 -0.31152889
Link 108 8 899 0 0.08246395
Link 113 9 947 0 -0.20041772
Link 7 113 1463 0 -0.00100373
Link 1 113 2724 0 0.41599287
Link 4 265 2729 0 -0.04544045
Link 265 108 2730 0 0.80668079
GenomeEnd

GenomeStart 40661
Neuron 1 1 0.00000000 1 0.00000000 0.00000000 0.00000000 0.00000000
Neuron 2 1 0.00000000 1 0.00000000 0.00000000 0.00000000 0.00000000
Neuron 3 1 0.00000000 1 0.00000000 0.00000000 0.00000000 0.00000000
Neuron 4 1 0.00000000 1 0.00000000 0.00000000 0.00000000 0.00000000
Neuron 5 1 0.00000000 1 0.00000000 0.00000000 0.00000000 0.00000000
Neuron 6 1 0.00000000 1 0.00000000 0.00000000 0.00000000 0.00000000
Neuron 7 2 0.00000000 1 0.00000000 0.00000000 0.00000000 0.00000000
Neuron 8 4 1.00000000 6 3.50000000 0.00000000 0.08126519 0.48279398
Neuron 9 4 1.00000000 9 3.50000000 0.00000000 0.22615072 -0.64359089
Neuron 108 3 0.50000000 9 1.13827325 0.00000000 0.15017865 -0.12177306
Neuron 113 3 0.50000000 6 4.90552534 0.00000000 0.36470973 0.11999589
Neuron 265 3 0.25000000 6 4.23707321 0.00000000 0.09979389 0.28439478
Link 2 8 2 0 0.77624751
Link 5 8 5 0 0.22518333
Link 6 8 6 0 -0.02501896
Link 7 8 7 0 -1.25483647
Link 2 9 9 0 0.35893327
Link 3 9 10 0 -0.80366841
Link 4 9 11 0 1.87898205
Link 5 9 12 0 0.06008839
Link 108 8 899 0 0.16767566
Link 113 9 947 0 -0.39852712
Link 7 113 1463 0 0.12892399
Link 1 113 2724 0 0.44205591
Link 4 265 2729 0 -0.12713430
Link 265 108 2730 0 0.80668079
GenomeEnd

GenomeStart 40662
Neuron 1 1 0.00000000 1 0.00000000 0.00000000 0.00000000 0.00000000
Neuron 2 1 0.00000000 1 0.00000000 0.00000000 0.00000000 0.00000000
Neuron 3 1 0.00000000 1 0.00000000 0.00000000 0.00000000 0.00000000
Neuron 4 1 0.00000000 1 0.00000000 0.00000000 0.00000000 0.00000000
Neuron 5 1 0.00000000 1 0.00000000 0.00000000 0.00000000 0.00000000
Neuron 6 1 0.00000000 1 0.00000000 0.00000000 0.00000000 0.00000000
Neuron 7 2 0.00000000 1 0.00000000 0.00000000 0.00000000 0.00000000
Neuron 8 4 1.00000000 6 3.50000000 0.00000000 0.08126519 0.48279398
Neuron 9 4 1.00000000 9 3.50000000 0.00000000 0.22615072 -0.64359089
Neuron 108 3 0.50000000 9 1.13827325 0.00000000 0.15017865 -0.12177306
Neuron 113 3 0.50000000 6 4.90552534 0.00000000 0.36470973 0.11999589
Neuron 265 3 0.25000000 6 4.23707321 0.00000000 0.09979389 0.28439478
Link 2 8 2 0 0.67014622
Link 5 8 5 0 0.55451326
Link 6 8 6 0 0.08717182
Link 7 8 7 0 -1.29197361
Link 2 9 9 0 -0.04850314
Link 3 9 10 0 -1.06622205
Link 4 9 11 0 2.13391302
Link 5 9 12 0 -0.36756431
Link 108 8 899 0 -0.04021228
Link 113 9 947 0 -0.22772239
Link 7 113 1463 0 0.14353104
Link 1 113 2724 0 0.41599287
Link 4 265 2729 0 0.21943827
Link 265 108 2730 0 1.11514542
GenomeEnd

GenomeStart 40663
Neuron 1 1 0.00000000 1 0.00000000 0.00000000 0.00000000 0.00000000
Neuron 2 1 0.00000000 1 0.00000000 0.00000000 0.00000000 0.00000000
Neuron 3 1 0.00000000 1 0.00000000 0.00000000 0.00000000 0.00000000
Neuron 4 1 0.00000000 1 0.00000000 0.00000000 0.00000000 0.00000000
Neuron 5 1 0.00000000 1 0.00000000 0.00000000 0.00000000 0.00000000
Neuron 6 1 0.00000000 1 0.00000000 0.00000000 0.00000000 0.00000000
Neuron 7 2 0.00000000 1 0.00000000 0.00000000 0.00000000 0.00000000
Neuron 8 4 1.00000000 6 3.50000000 0.00000000 0.08126519 0.48279398
Neuron 9 4 1.00000000 9 3.50000000 0.00000000 0.22615072 -0.64359089
Neuron 108 3 0.50000000 9 1.13827325 0.00000000 0.15017865 -0.12177306
Neuron 113 3 0.50000000 6 4.90552534 0.00000000 0.36470973 0.11999589
Neuron 265 3 0.25000000 6 4.23707321 0.00000000 0.09611788 0.28439478
Link 2 8 2 0 0.79765183
Link 5 8 5 0 0.48913422
Link 6 8 6 0 -0.07467382
Link 7 8 7 0 -1.33790318
Link 2 9 9 0 -0.05465537
Link 3 9 10 0 -0.86431187
Link 4 9 11 0 2.04128945
Link 5 9 12 0 -0.31152889
Link 108 8 899 0 0.08246395
Link 113 9 947 0 -0.20041772
Link 7 113 1463 0 -0.00100373
Link 1 113 2724 0 0.41599287
Link 4 265 2729 0 -0.04544045
Link 265 108 2730 0 0.80668079
GenomeEnd

GenomeStart 40664
Neuron 1 1 0.00000000 1 0.00000000 0.00000000 0.00000000 0.00000000
Neuron 2 1 0.00000000 1 0.00000000 0.00000000 0.00000000 0.00000000
Neuron 3 1 0.00000000 1 0.00000000 0.00000000 0.00000000 0.00000000
Neuron 4 1 0.00000000 1 0.00000000 0.00000000 0.00000000 0.00000000
Neuron 5 1 0.00000000 1 0.00000000 0.00000000 0.00000000 0.00000000
Neuron 6 1 0.00000000 1 0.00000000 0.00000000 0.00000000 0.00000000
Neuron 7 2 0.00000000 1 0.00000000 0.00000000 0.00000000 0.00000000
Neuron 8 4 1.00000000 6 3.50000000 0.00000000 0.08126519 0.48279398
Neuron 9 4 1.00000000 9 3.50000000 0.00000000 0.22615072 -0.64359089
Neuron 108 3 0.50000000 9 1.13827325 0.00000000 0.15017865 -0.12177306
Neuron 113 3 0.50000000 6 4.90552534 0.00000000 0.36470973 0.11999589
Neuron 265 3 0.25000000 6 4.23707321 0.00000000 0.09979389 0.28439478
Link 2 8 2 0 0.79765183
Link 5 8 5 0 0.48913422
Link 6 8 6 0 -0.07467382
Link 7 8 7 0 -1.33790318
Link 2 9 9 0 -0.05465537
Link 3 9 10 0 -0.86431187
Link 4 9 11 0 2.04128945
Link 5 9 12 0 -0.31152889
Link 108 8 899 0 0.08246395
Link 113 9 947 0 -0.20041772
Link 7 113 1463 0 -0.00100373
Link 1 113 2724 0 0.41599287
Link 4 265 2729 0 -0.04544045
Link 265 108 2730 0 0.80668079
GenomeEnd

GenomeStart 40665
Neuron 1 1 0.00000000 1 0.00000000 0.00000000 0.00000000 0.00000000
Neuron 2 1 0.00000000 1 0.00000000 0.00000000 0.00000000 0.00000000
Neuron 3 1 0.00000000 1 0.00000000 0.00000000 0.00000000 0.00000000
Neuron 4 1 0.00000000 1 0.00000000 0.00000000 0.00000000 0.00000000
Neuron 5 1 0.00000000 1 0.00000000 0.00000000 0.00000000 0.00000000
Neuron 6 1 0.00000000 1 0.00000000 0.00000000 0.00000000 0.00000000
Neuron 7 2 0.00000000 1 0.00000000 0.00000000 0.00000000 0.00000000
Neuron 8 4 1.00000000 6 3.50000000 0.00000000 0.08126519 0.48279398
Neuron 9 4 1.00000000 9 3.50000000 0.00000000 0.22615072 -0.64359089
Neuron 108 3 0.50000000 9 1.13827325 0.00000000 0.15017865 -0.12177306
Neuron 113 3 0.50000000 6 4.90552534 0.00000000 0.36470973 0.11999589
Neuron 265 3 0.25000000 6 4.23707321 0.00000000 0.09979389 0.28439478
Link 2 8 2 0 0.79765183
Link 5 8 5 0 0.48913422
Link 6 8 6 0 -0.07467382
Link 7 8 7 0 -1.33790318
Link 2 9 9 0 -0.05465537
Link 3 9 10 0 -0.86431187
Link 4 9 11 0 2.04128945
Link 5 9 12 0 -0.31152889
Link 108 8 899 0 0.08246395
Link 113 9 947 0 -0.20041772
Link 7 113 1463 0 -0.00100373
Link 1 113 2724 0 0.41599287
Link 4 265 2729 0 -0.04544045
Link 265 108 2730 0 0.80668079
GenomeEnd

GenomeStart 40666
Neuron 1 1 0.00000000 1 0.00000000 0.00000000 0.00000000 0.00000000
Neuron 2 1 0.00000000 1 0.00000000 0.00000000 0.00000000 0.00000000
Neuron 3 1 0.00000000 1 0.00000000 0.00000000 0.00000000 0.00000000
Neuron 4 1 0.00000000 1 0.00000000 0.00000000 0.00000000 0.00000000
Neuron 5 1 0.00000000 1 0.00000000 0.00000000 0.00000000 0.00000000
Neuron 6 1 0.00000000 1 0.00000000 0.00000000 0.00000000 0.00000000
Neuron 7 2 0.00000000 1 0.00000000 0.00000000 0.00000000 0.00000000
Neuron 8 4 1.00000000 6 3.50000000 0.00000000 0.08126519 0.48279398
Neuron 9 4 1.00000000 9 3.50000000 0.00000000 0.22615072 -0.64359089
Neuron 108 3 0.50000000 9 1.13827325 0.00000000 0.15017865 -0.12177306
Neuron 113 3 0.50000000 6 4.90552534 0.00000000 0.36470973 0.11999589
Neuron 265 3 0.25000000 6 4.23707321 0.00000000 0.09979389 0.28439478
Link 2 8 2 0 0.80575304
Link 5 8 5 0 0.30812018
Link 6 8 6 0 -0.41183583
Link 7 8 7 0 -1.11223724
Link 2 9 9 0 0.03377525
Link 3 9 10 0 -0.80686318
Link 4 9 11 0 2.04152377
Link 5 9 12 0 -0.27127448
Link 108 8 899 0 0.29912129
Link 113 9 947 0 -0.45521674
Link 7 113 1463 0 -0.02573809
Link 1 113 2724 0 0.57777339
Link 4 265 2729 0 -0.18802612
Link 265 108 2730 0 1.00206427
GenomeEnd

GenomeStart 40667
Neuron 1 1 0.00000000 1 0.00000000 0.00000000 0.00000000 0.00000000
Neuron 2 1 0.00000000 1 0.00000000 0.00000000 0.00000000 0.00000000
Neuron 3 1 0.00000000 1 0.00000000 0.00000000 0.00000000 0.00000000
Neuron 4 1 0.00000000 1 0.00000000 0.00000000 0.00000000 0.00000000
Neuron 5 1 0.00000000 1 0.00000000 0.00000000 0.00000000 0.00000000
Neuron 6 1 0.00000000 1 0.00000000 0.00000000 0.00000000 0.00000000
Neuron 7 2 0.00000000 1 0.00000000 0.00000000 0.00000000 0.00000000
Neuron 8 4 1.00000000 6 3.50000000 0.00000000 0.08240406 0.58055743
Neuron 9 4 1.00000000 9 3.50000000 0.00000000 0.26229829 -0.59900077
Neuron 108 3 0.50000000 9 1.13827325 0.00000000 0.22286997 -0.02654075
Neuron 113 3 0.50000000 6 4.90552534 0.00000000 0.40000000 0.18859909
Neuron 291 3 0.75000000 11 4.50356569 0.00000000 0.30468275 0.16166440
Link 2 8 2 0 0.68077780
Link 5 8 5 0 0.89439384
Link 6 8 6 0 0.26575827
Link 7 8 7 0 -1.54655523
Link 2 9 9 0 0.23199777
Link 3 9 10 0 -0.68895925
Link 4 9 11 0 1.86162342
Link 5 9 12 0 -0.32165273
Link 4 108 898 0 1.00000000
Link 108 8 899 0 -0.04590522
Link 1 113 946 0 1.00000000
Link 7 113 1463 0 -0.08688897
Link 2 108 2665 0 0.55812836
Link 8 113 2943 1 -0.06221315
Link 113 291 2962 0 1.00000000
Link 291 9 2963 0 -0.39830601
GenomeEnd

GenomeStart 40668
Neuron 1 1 0.00000000 1 0.00000000 0.00000000 0.00000000 0.00000000
Neuron 2 1 0.00000000 1 0.00000000 0.00000000 0.00000000 0.00000000
Neuron 3 1 0.00000000 1 0.00000000 0.00000000 0.00000000 0.00000000
Neuron 4 1 0.00000000 1 0.00000000 0.00000000 0.00000000 0.00000000
Neuron 5 1 0.00000000 1 0.00000000 0.00000000 0.00000000 0.00000000
Neuron 6 1 0.00000000 1 0.00000000 0.00000000 0.00000000 0.00000000
Neuron 7 2 0.00000000 1 0.00000000 0.00000000 0.00000000 0.00000000
Neuron 8 4 1.00000000 6 3.50000000 0.00000000 0.08240406 0.11884440
Neuron 9 4 1.00000000 9 3.50000000 0.00000000 0.26229829 -0.44284298
Neuron 108 3 0.50000000 9 1.13827325 0.00000000 0.22286997 -0.21505789
Neuron 113 3 0.50000000 6 4.90552534 0.00000000 0.40000000 0.38082446
Neuron 291 3 0.75000000 11 4.50356569 0.00000000 0.30468275 0.59299266
Link 2 8 2 0 0.68077780
Link 5 8 5 0 0.89439384
Link 6 8 6 0 0.26575827
Link 7 8 7 0 -1.54655523
Link 2 9 9 0 0.23199777
Link 3 9 10 0 -0.68895925
Link 4 9 11 0 1.86162342
Link 5 9 12 0 -0.32165273
Link 4 108 898 0 1.00000000
Link 108 8 899 0 -0.04590522
Link 1 113 946 0 1.00000000
Link 7 113 1463 0 -0.08688897
Link 2 108 2665 0 0.55812836
Link 8 113 2943 1 -0.06221315
Link 113 291 2962 0 1.00000000
Link 291 9 2963 0 -0.39830601
GenomeEnd

GenomeStart 40669
Neuron 1 1 0.00000000 1 0.00000000 0.00000000 0.00000000 0.00000000
Neuron 2 1 0.00000000 1 0.00000000 0.00000000 0.00000000 0.00000000
Neuron 3 1 0.00000000 1 0.00000000 0.00000000 0.00000000 0.00000000
Neuron 4 1 0.00000000 1 0.00000000 0.00000000 0.00000000 0.00000000
Neuron 5 1 0.00000000 1 0.00000000 0.00000000 0.00000000 0.00000000
Neuron 6 1 0.00000000 1 0.00000000 0.00000000 0.00000000 0.00000000
Neuron 7 2 0.00000000 1 0.00000000 0.00000000 0.00000000 0.00000000
Neuron 8 4 1.00000000 6 3.50000000 0.00000000 0.08240406 0.26788878
Neuron 9 4 1.00000000 9 3.50000000 0.00000000 0.26229829 -0.64688208
Neuron 108 3 0.50000000 9 1.13827325 0.00000000 0.22286997 -0.12177306
Neuron 113 3 0.50000000 6 4.90552534 0.00000000 0.40000000 0.11999589
Neuron 291 3 0.75000000 11 4.50356569 0.00000000 0.30468275 0.40388616
Link 2 8 2 0 0.68077780
Link 5 8 5 0 0.89439384
Link 6 8 6 0 0.26575827
Link 7 8 7 0 -1.54655523
Link 2 9 9 0 0.23199777
Link 3 9 10 0 -0.68895925
Link 4 9 11 0 1.86162342
Link 5 9 12 0 -0.32165273
Link 4 108 898 0 1.00000000
Link 108 8 899 0 -0.04590522
Link 1 113 946 0 1.00000000
Link 7 113 1463 0 -0.08688897
Link 2 108 2665 0 0.55812836
Link 8 113 2943 1 -0.06221315
Link 113 291 2962 0 1.00000000
Link 291 9 2963 0 -0.39830601
GenomeEnd

GenomeStart 40670
Neuron 1 1 0.00000000 1 0.00000000 0.00000000 0.00000000 0.00000000
Neuron 2 1 0.00000000 1 0.00000000 0.00000000 0.00000000 0.00000000
Neuron 3 1 0.00000000 1 0.00000000 0.00000000 0.00000000 0.00000000
Neuron 4 1 0.00000000 1 0.00000000 0.00000000 0.00000000 0.00000000
Neuron 5 1 0.00000000 1 0.00000000 0.00000000 0.00000000 0.00000000
Neuron 6 1 0.00000000 1 0.00000000 0.00000000 0.00000000 0.00000000
Neuron 7 2 0.00000000 1 0.00000000 0.00000000 0.00000000 0.00000000
Neuron 8 4 1.00000000 6 3.50000000 0.00000000 0.08240406 0.26788878
Neuron 9 4 1.00000000 9 3.50000000 0.00000000 0.26229829 -0.64688208
Neuron 108 3 0.50000000 9 1.13827325 0.00000000 0.22286997 -0.12177306
Neuron 113 3 0.50000000 6 4.90552534 0.00000000 0.40000000 0.11999589
Neuron 291 3 0.75000000 11 4.50356569 0.00000000 0.30468275 0.40388616
Link 2 8 2 0 0.68077780
Link 5 8 5 0 0.89439384
Link 6 8 6 0 0.26575827
Link 7 8 7 0 -1.54655523
Link 2 9 9 0 0.23199777
Link 3 9 10 0 -0.68895925
Link 4 9 11 0 1.86162342
Link 5 9 12 0 -0.32165273
Link 4 108 898 0 1.00000000
Link 108 8 899 0 -0.04590522
Link 1 113 946 0 1.00000000
Link 7 113 1463 0 -0.08688897
Link 2 108 2665 0 0.55812836
Link 8 113 2943 1 -0.06221315
Link 113 291 2962 0 1.00000000
Link 291 9 2963 0 -0.39830601
GenomeEnd

GenomeStart 40671
Neuron 1 1 0.00000000 1 0.00000000 0.00000000 0.00000000 0.00000000
Neuron 2 1 0.00000000 1 0.00000000 0.00000000 0.00000000 0.00000000
Neuron 3 1 0.00000000 1 0.00000000 0.00000000 0.00000000 0.00000000
Neuron 4 1 0.00000000 1 0.00000000 0.00000000 0.00000000 0.00000000
Neuron 5 1 0.00000000 1 0.00000000 0.00000000 0.00000000 0.00000000
Neuron 6 1 0.00000000 1 0.00000000 0.00000000 0.00000000 0.00000000
Neuron 7 2 0.00000000 1 0.00000000 0.00000000 0.00000000 0.00000000
Neuron 8 4 1.00000000 6 3.50000000 0.00000000 0.08240406 0.26788878
Neuron 9 4 1.00000000 9 3.50000000 0.00000000 0.26229829 -0.59900077
Neuron 108 3 0.50000000 9 1.13827325 0.00000000 0.22286997 -0.02654075
Neuron 113 3 0.50000000 6 4.90552534 0.00000000 0.40000000 0.11999589
Neuron 291 3 0.75000000 11 4.50356569 0.00000000 0.30468275 0.16166440
Link 2 8 2 0 0.68077780
Link 5 8 5 0 0.89439384
Link 6 8 6 0 0.26575827
Link 7 8 7 0 -1.54655523
Link 2 9 9 0 0.23199777
Link 3 9 10 0 -0.68895925
Link 4 9 11 0 1.86162342
Link 5 9 12 0 -0.32165273
Link 4 108 898 0 1.00000000
Link 108 8 899 0 -0.04590522
Link 1 113 946 0 1.00000000
Link 7 113 1463 0 -0.08688897
Link 2 108 2665 0 0.55812836
Link 8 113 2943 1 -0.06221315
Link 113 291 2962 0 1.00000000
Link 291 9 2963 0 -0.39830601
GenomeEnd

GenomeStart 40672
Neuron 1 1 0.00000000 1 0.00000000 0.00000000 0.00000000 0.00000000
Neuron 2 1 0.00000000 1 0.00000000 0.00000000 0.00000000 0.00000000
Neuron 3 1 0.00000000 1 0.00000000 0.00000000 0.00000000 0.00000000
Neuron 4 1 0.00000000 1 0.00000000 0.00000000 0.00000000 0.00000000
Neuron 5 1 0.00000000 1 0.00000000 0.00000000 0.00000000 0.00000000
Neuron 6 1 0.00000000 1 0.00000000 0.00000000 0.00000000 0.00000000
Neuron 7 2 0.00000000 1 0.00000000 0.00000000 0.00000000 0.00000000
Neuron 8 4 1.00000000 6 3.50000000 0.00000000 0.08240406 0.58055743
Neuron 9 4 1.00000000 9 3.50000000 0.00000000 0.26229829 -0.59900077
Neuron 108 3 0.50000000 9 1.13827325 0.00000000 0.22286997 -0.02654075
Neuron 113 3 0.50000000 6 4.90552534 0.00000000 0.40000000 0.18859909
Neuron 291 3 0.75000000 11 4.50356569 0.00000000 0.30468275 0.16166440
Link 2 8 2 0 0.51079082
Link 5 8 5 0 0.78451592
Link 6 8 6 0 -0.08387591
Link 7 8 7 0 -1.55649241
Link 2 9 9 0 0.44287183
Link 3 9 10 0 -0.79827137
Link 4 9 11 0 2.21267312
Link 5 9 12 0 -0.26901840
Link 4 108 898 0 1.30903909
Link 108 8 899 0 -0.14166538
Link 1 113 946 0 1.23626697
Link 7 113 1463 0 -0.43162281
Link 2 108 2665 0 0.35666108
Link 8 113 2943 1 -0.35703733
Link 113 291 2962 0 0.96937485
Link 291 9 2963 0 -0.39830601
GenomeEnd

GenomeStart 40673
Neuron 1 1 0.00000000 1 0.00000000 0.00000000 0.00000000 0.00000000
Neuron 2 1 0.00000000 1 0.00000000 0.00000000 0.00000000 0.00000000
Neuron 3 1 0.00000000 1 0.00000000 0.00000000 0.00000000 0.00000000
Neuron 4 1 0.00000000 1 0.00000000 0.00000000 0.00000000 0.00000000
Neuron 5 1 0.00000000 1 0.00000000 0.00000000 0.00000000 0.00000000
Neuron 6 1 0.00000000 1 0.00000000 0.00000000 0.00000000 0.00000000
Neuron 7 2 0.00000000 1 0.00000000 0.00000000 0.00000000 0.00000000
Neuron 8 4 1.00000000 6 3.50000000 0.00000000 0.08240406 0.58055743
Neuron 9 4 1.00000000 9 3.50000000 0.00000000 0.26229829 -0.59900077
Neuron 108 3 0.50000000 9 1.13827325 0.00000000 0.22286997 -0.02654075
Neuron 113 3 0.50000000 6 4.90552534 0.00000000 0.40000000 0.18859909
Neuron 291 3 0.75000000 11 4.50356569 0.00000000 0.30468275 0.16166440
Link 2 8 2 0 0.83647408
Link 5 8 5 0 0.78322641
Link 6 8 6 0 -0.16843928
Link 7 8 7 0 -1.68699617
Link 2 9 9 0 -0.13587651
Link 3 9 10 0 -0.59625264
Link 4 9 11 0 2.01927906
Link 5 9 12 0 -0.32496489
Link 4 108 898 0 1.21247906
Link 108 8 899 0 -0.06093851
Link 1 113 946 0 1.18470685
Link 7 113 1463 0 0.31554457
Link 2 108 2665 0 0.94361545
Link 8 113 2943 1 0.05663728
Link 113 291 2962 0 1.09932037
Link 291 9 2963 0 -0.74903243
GenomeEnd

GenomeStart 40674
Neuron 1 1 0.00000000 1 0.00000000 0.00000000 0.00000000 0.00000000
Neuron 2 1 0.00000000 1 0.00000000 0.00000000 0.00000000 0.00000000
Neuron 3 1 0.00000000 1 0.00000000 0.00000000 0.00000000 0.00000000
Neuron 4 1 0.00000000 1 0.00000000 0.00000000 0.00000000 0.00000000
Neuron 5 1 0.00000000 1 0.00000000 0.00000000 0.00000000 0.00000000
Neuron 6 1 0.00000000 1 0.00000000 0.00000000 0.00000000 0.00000000
Neuron 7 2 0.00000000 1 0.00000000 0.00000000 0.00000000 0.00000000
Neuron 8 4 1.00000000 6 3.50000000 0.00000000 0.08240406 0.03771762
Neuron 9 4 1.00000000 9 3.50000000 0.00000000 0.26229829 -0.35281273
Neuron 108 3 0.50000000 9 1.13827325 0.00000000 0.22286997 -0.04508760
Neuron 113 3 0.50000000 6 4.90552534 0.00000000 0.40000000 0.02866458
Neuron 291 3 0.75000000 11 4.50356569 0.00000000 0.30468275 1.00548362
Link 2 8 2 0 0.68077780
Link 5 8 5 0 0.89439384
Link 6 8 6 0 0.26575827
Link 7 8 7 0 -1.54655523
Link 2 9 9 0 0.23199777
Link 3 9 10 0 -0.68895925
Link 4 9 11 0 1.86162342
Link 5 9 12 0 -0.32165273
Link 4 108 898 0 1.00000000
Link 108 8 899 0 -0.04590522
Link 1 113 946 0 1.00000000
Link 7 113 1463 0 -0.08688897
Link 2 108 2665 0 0.55812836
Link 8 113 2943 1 -0.06221315
Link 113 291 2962 0 1.00000000
Link 291 9 2963 0 -0.39830601
GenomeEnd

GenomeStart 40675
Neuron 1 1 0.00000000 1 0.00000000 0.00000000 0.00000000 0.00000000
Neuron 2 1 0.00000000 1 0.00000000 0.00000000 0.00000000 0.00000000
Neuron 3 1 0.00000000 1 0.00000000 0.00000000 0.00000000 0.00000000
Neuron 4 1 0.00000000 1 0.00000000 0.00000000 0.00000000 0.00000000
Neuron 5 1 0.00000000 1 0.00000000 0.00000000 0.00000000 0.00000000
Neuron 6 1 0.00000000 1 0.00000000 0.00000000 0.00000000 0.00000000
Neuron 7 2 0.00000000 1 0.00000000 0.00000000 0.00000000 0.00000000
Neuron 8 4 1.00000000 6 3.50000000 0.00000000 0.08240406 0.58055743
Neuron 9 4 1.00000000 9 3.50000000 0.00000000 0.26229829 -0.44284298
Neuron 108 3 0.50000000 9 1.13827325 0.00000000 0.22286997 -0.21505789
Neuron 113 3 0.50000000 6 4.90552534 0.00000000 0.40000000 0.38082446
Neuron 291 3 0.75000000 11 4.50356569 0.00000000 0.30468275 0.16166440
Link 2 8 2 0 0.68077780
Link 5 8 5 0 0.89439384
Link 6 8 6 0 0.26575827
Link 7 8 7 0 -1.54655523
Link 2 9 9 0 0.23199777
Link 3 9 10 0 -0.68895925
Link 4 9 11 0 1.86162342
Link 5 9 12 0 -0.32165273
Link 4 108 898 0 1.00000000
Link 108 8 899 0 -0.04590522
Link 1 113 946 0 1.00000000
Link 7 113 1463 0 -0.08688897
Link 2 108 2665 0 0.55812836
Link 8 113 2943 1 -0.06221315
Link 113 291 2962 0 1.00000000
Link 291 9 2963 0 -0.39830601
GenomeEnd

GenomeStart 40676
Neuron 1 1 0.00000000 1 0.00000000 0.00000000 0.00000000 0.00000000
Neuron 2 1 0.00000000 1 0.00000000 0.00000000 0.00000000 0.00000000
Neuron 3 1 0.00000000 1 0.00000000 0.00000000 0.00000000 0.00000000
Neuron 4 1 0.00000000 1 0.00000000 0.00000000 0.00000000 0.00000000
Neuron 5 1 0.00000000 1 0.00000000 0.00000000 0.00000000 0.00000000
Neuron 6 1 0.00000000 1 0.00000000 0.00000000 0.00000000 0.00000000
Neuron 7 2 0.00000000 1 0.00000000 0.00000000 0.00000000 0.00000000
Neuron 8 4 1.00000000 6 3.50000000 0.00000000 0.08240406 0.58055743
Neuron 9 4 1.00000000 9 3.50000000 0.00000000 0.26229829 -0.59900077
Neuron 108 3 0.50000000 9 1.13827325 0.00000000 0.22286997 -0.02654075
Neuron 113 3 0.50000000 6 4.90552534 0.00000000 0.40000000 0.18859909
Neuron 291 3 0.75000000 11 4.50356569 0.00000000 0.30468275 0.16166440
Link 2 8 2 0 0.68077780
Link 5 8 5 0 0.89439384
Link 6 8 6 0 0.26575827
Link 7 8 7 0 -1.54655523
Link 2 9 9 0 0.23199777
Link 3 9 10 0 -0.68895925
Link 4 9 11 0 1.86162342
Link 5 9 12 0 -0.32165273
Link 4 108 898 0 1.00000000
Link 108 8 899 0 -0.04590522
Link 1 113 946 0 1.00000000
Link 7 113 1463 0 -0.08688897
Link 2 108 2665 0 0.55812836
Link 8 113 2943 1 -0.06221315
Link 113 291 2962 0 1.00000000
Link 291 9 2963 0 -0.39830601
GenomeEnd

GenomeStart 40677
Neuron 1 1 0.00000000 1 0.00000000 0.00000000 0.00000000 0.00000000
Neuron 2 1 0.00000000 1 0.00000000 0.00000000 0.00000000 0.00000000
Neuron 3 1 0.00000000 1 0.00000000 0.00000000 0.00000000 0.00000000
Neuron 4 1 0.00000000 1 0.00000000 0.00000000 0.00000000 0.00000000
Neuron 5 1 0.00000000 1 0.00000000 0.00000000 0.00000000 0.00000000
Neuron 6 1 0.00000000 1 0.00000000 0.00000000 0.00000000 0.00000000
Neuron 7 2 0.00000000 1 0.00000000 0.00000000 0.00000000 0.00000000
Neuron 8 4 1.00000000 6 3.50000000 0.00000000 0.08240406 0.58055743
Neuron 9 4 1.00000000 9 3.50000000 0.00000000 0.26229829 -0.59900077
Neuron 108 3 0.50000000 9 1.13827325 0.00000000 0.22286997 -0.21505789
Neuron 113 3 0.50000000 6 4.90552534 0.00000000 0.40000000 0.18859909
Neuron 291 3 0.75000000 11 4.50356569 0.00000000 0.30468275 0.16166440
Link 2 8 2 0 0.68077780
Link 5 8 5 0 0.89439384
Link 6 8 6 0 0.26575827
Link 7 8 7 0 -1.54655523
Link 2 9 9 0 0.23199777
Link 3 9 10 0 -0.68895925
Link 4 9 11 0 1.86162342
Link 5 9 12 0 -0.32165273
Link 4 108 898 0 1.00000000
Link 108 8 899 0 -0.04590522
Link 1 113 946 0 1.00000000
Link 7 113 1463 0 -0.08688897
Link 2 108 2665 0 0.55812836
Link 8 113 2943 1 -0.06221315
Link 113 291 2962 0 1.00000000
Link 291 9 2963 0 -0.39830601
GenomeEnd

GenomeStart 40678
Neuron 1 1 0.00000000 1 0.00000000 0.00000000 0.00000000 0.00000000
Neuron 2 1 0.00000000 1 0.00000000 0.00000000 0.00000000 0.00000000
Neuron 3 1 0.00000000 1 0.00000000 0.00000000 0.00000000 0.00000000
Neuron 4 1 0.00000000 1 0.00000000 0.00000000 0.00000000 0.00000000
Neuron 5 1 0.00000000 1 0.00000000 0.00000000 0.00000000 0.00000000
Neuron 6 1 0.00000000 1 0.00000000 0.00000000 0.00000000 0.00000000
Neuron 7 2 0.00000000 1 0.00000000 0.00000000 0.00000000 0.00000000
Neuron 8 4 1.00000000 6 3.50000000 0.00000000 0.08240406 0.58055743
Neuron 9 4 1.00000000 9 3.50000000 0.00000000 0.26229829 -0.59900077
Neuron 108 3 0.50000000 9 1.13827325 0.00000000 0.22286997 -0.02654075
Neuron 113 3 0.50000000 6 4.90552534 0.00000000 0.40000000 0.18859909
Neuron 291 3 0.75000000 11 4.50356569 0.00000000 0.30468275 0.16166440
Link 2 8 2 0 0.64963975
Link 5 8 5 0 0.49328469
Link 6 8 6 0 0.03451009
Link 7 8 7 0 -1.54465776
Link 2 9 9 0 0.00626157
Link 3 9 10 0 -0.38868912
Link 4 9 11 0 1.90959650
Link 5 9 12 0 -0.65068034
Link 4 108 898 0 0.75587803
Link 108 8 899 0 0.25413115
Link 1 113 946 0 0.59427738
Link 7 113 1463 0 0.02546106
Link 2 108 2665 0 0.39425439
Link 8 113 2943 1 0.09922803
Link 113 291 2962 0 1.38444874
Link 291 9 2963 0 -0.43273607
GenomeEnd

GenomeStart 40679
Neuron 1 1 0.00000000 1 0.00000000 0.00000000 0.00000000 0.00000000
Neuron 2 1 0.00000000 1 0.00000000 0.00000000 0.00000000 0.00000000
Neuron 3 1 0.00000000 1 0.00000000 0.00000000 0.00000000 0.00000000
Neuron 4 1 0.00000000 1 0.00000000 0.00000000 0.00000000 0.00000000
Neuron 5 1 0.00000000 1 0.00000000 0.00000000 0.00000000 0.00000000
Neuron 6 1 0.00000000 1 0.00000000 0.00000000 0.00000000 0.00000000
Neuron 7 2 0.00000000 1 0.00000000 0.00000000 0.00000000 0.00000000
Neuron 8 4 1.00000000 6 3.50000000 0.00000000 0.08240406 0.58055743
Neuron 9 4 1.00000000 9 3.50000000 0.00000000 0.26229829 -0.59900077
Neuron 108 3 0.50000000 9 1.13827325 0.00000000 0.22286997 -0.02654075
Neuron 113 3 0.50000000 6 4.90552534 0.00000000 0.40000000 0.18859909
Neuron 291 3 0.75000000 11 4.50356569 0.00000000 0.30468275 0.16166440
Link 2 8 2 0 0.47618155
Link 5 8 5 0 0.78597244
Link 6 8 6 0 0.74842155
Link 7 8 7 0 -1.54655523
Link 2 9 9 0 0.41905029
Link 3 9 10 0 -1.10691921
Link 4 9 11 0 2.32811220
Link 5 9 12 0 0.04381983
Link 4 108 898 0 1.00000000
Link 108 8 899 0 -0.38901111
Link 1 113 946 0 0.73311096
Link 7 113 1463 0 -0.27947093
Link 2 108 2665 0 0.55812836
Link 8 113 2943 1 -0.19085966
Link 113 291 2962 0 -0.45194666
Link 291 9 2963 0 -0.04078159
GenomeEnd

GenomeStart 40680
Neuron 1 1 0.00000000 1 0.00000000 0.00000000 0.00000000 0.00000000
Neuron 2 1 0.00000000 1 0.00000000 0.00000000 0.00000000 0.00000000
Neuron 3 1 0.00000000 1 0.00000000 0.00000000 0.00000000 0.00000000
Neuron 4 1 0.00000000 1 0.00000000 0.00000000 0.00000000 0.00000000
Neuron 5 1 0.00000000 1 0.00000000 0.00000000 0.00000000 0.00000000
Neuron 6 1 0.00000000 1 0.00000000 0.00000000 0.00000000 0.00000000
Neuron 7 2 0.00000000 1 0.00000000 0.00000000 0.00000000 0.00000000
Neuron 8 4 1.00000000 6 3.50000000 0.00000000 0.08240406 0.11884440
Neuron 9 4 1.00000000 9 3.50000000 0.00000000 0.26229829 -0.44284298
Neuron 108 3 0.50000000 9 1.13827325 0.00000000 0.22286997 -0.02654075
Neuron 113 3 0.50000000 6 4.90552534 0.00000000 0.40000000 0.38082446
Neuron 291 3 0.75000000 11 4.50356569 0.00000000 0.30468275 0.59299266
Link 2 8 2 0 0.68077780
Link 5 8 5 0 0.89439384
Link 6 8 6 0 0.26575827
Link 7 8 7 0 -1.54655523
Link 2 9 9 0 0.23199777
Link 3 9 10 0 -0.68895925
Link 4 9 11 0 1.86162342
Link 5 9 12 0 -0.32165273
Link 4 108 898 0 1.00000000
Link 108 8 899 0 -0.04590522
Link 1 113 946 0 1.00000000
Link 7 113 1463 0 -0.08688897
Link 2 108 2665 0 0.55812836
Link 8 113 2943 1 -0.06221315
Link 113 291 2962 0 1.00000000
Link 291 9 2963 0 -0.39830601
GenomeEnd

GenomeStart 40681
Neuron 1 1 0.00000000 1 0.00000000 0.00000000 0.00000000 0.00000000
Neuron 2 1 0.00000000 1 0.00000000 0.00000000 0.00000000 0.00000000
Neuron 3 1 0.00000000 1 0.00000000 0.00000000 0.00000000 0.00000000
Neuron 4 1 0.00000000 1 0.00000000 0.00000000 0.00000000 0.00000000
Neuron 5 1 0.00000000 1 0.00000000 0.00000000 0.00000000 0.00000000
Neuron 6 1 0.00000000 1 0.00000000 0.00000000 0.00000000 0.00000000
Neuron 7 2 0.00000000 1 0.00000000 0.00000000 0.00000000 0.00000000
Neuron 8 4 1.00000000 0 3.50000000 0.00000000 0.04000000 -0.04059168
Neuron 9 4 1.00000000 9 3.50000000 0.00000000 0.04728239 0.67549971
Neuron 52 3 0.50000000 6 2.81835393 0.00000000 0.09104386 -0.24306566
Neuron 167 3 0.75000000 9 5.72276945 0.00000000 0.20029103 0.71879688
Neuron 173 3 0.62500000 6 3.46530460 0.00000000 0.14700844 0.07485717
Neuron 250 3 0.87500000 6 5.70101943 0.00000000 0.32000815 0.67085987
Link 1 8 1 0 0.17228670
Link 7 8 7 0 -2.53659414
Link 1 9 8 0 -0.11052982
Link 6 9 13 0 0.66394639
Link 7 9 14 0 -0.23541586
Link 3 8 419 0 -0.40898141
Link 2 9 1041 0 -0.58268368
Link 3 52 1072 0 -0.29157030
Link 1 52 1526 0 -0.13747438
Link 52 167 1560 0 1.01449785
Link 52 173 1628 0 -0.45934704
Link 167 173 1711 1 0.14837257
Link 5 52 2018 0 0.63959453
Link 5 9 2393 0 1.27683342
Link 167 250 2584 0 1.27703789
Link 250 8 2585 0 -0.19622587
Link 173 9 2631 0 0.05526300
GenomeEnd

GenomeStart 40682
Neuron 1 1 0.00000000 1 0.00000000 0.00000000 0.00000000 0.00000000
Neuron 2 1 0.00000000 1 0.00000000 0.00000000 0.00000000 0.00000000
Neuron 3 1 0.00000000 1 0.00000000 0.00000000 0.00000000 0.00000000
Neuron 4 1 0.00000000 1 0.00000000 0.00000000 0.00000000 0.00000000
Neuron 5 1 0.00000000 1 0.00000000 0.00000000 0.00000000 0.00000000
Neuron 6 1 0.00000000 1 0.00000000 0.00000000 0.00000000 0.00000000
Neuron 7 2 0.00000000 1 0.00000000 0.00000000 0.00000000 0.00000000
Neuron 8 4 1.00000000 0 3.50000000 0.00000000 0.04000000 -0.04059168
Neuron 9 4 1.00000000 9 3.50000000 0.00000000 0.04728239 0.67549971
Neuron 52 3 0.50000000 6 2.81835393 0.00000000 0.11608884 -0.24306566
Neuron 167 3 0.75000000 9 5.72276945 0.00000000 0.20029103 0.71879688
Neuron 173 3 0.62500000 6 3.46530460 0.00000000 0.14700844 0.07485717
Neuron 250 3 0.87500000 6 5.70101943 0.00000000 0.32000815 0.67085987
Link 1 8 1 0 -0.16257443
Link 7 8 7 0 -2.32202819
Link 1 9 8 0 0.00739656
Link 6 9 13 0 0.61537665
Link 7 9 14 0 0.03999424
Link 3 8 419 0 -0.54159667
Link 2 9 1041 0 1.21963515
Link 3 52 1072 0 -0.01719474
Link 1 52 1526 0 0.38868679
Link 52 167 1560 0 0.73831726
Link 52 173 1628 0 -0.32692985
Link 167 173 1711 1 -0.33177058
Link 5 52 2018 0 0.46896620
Link 5 9 2393 0 0.98832440
Link 167 250 2584 0 0.96746144
Link 250 8 2585 0 -0.53924049
Link 173 9 2631 0 -0.29867704
GenomeEnd

GenomeStart 40683
Neuron 1 1 0.00000000 1 0.00000000 0.00000000 0.00000000 0.00000000
Neuron 2 1 0.00000000 1 0.00000000 0.00000000 0.00000000 0.00000000
Neuron 3 1 0.00000000 1 0.00000000 0.00000000 0.00000000 0.00000000
Neuron 4 1 0.00000000 1 0.00000000 0.00000000 0.00000000 0.00000000
Neuron 5 1 0.00000000 1 0.00000000 0.00000000 0.00000000 0.00000000
Neuron 6 1 0.00000000 1 0.00000000 0.00000000 0.00000000 0.00000000
Neuron 7 2 0.00000000 1 0.00000000 0.00000000 0.00000000 0.00000000
Neuron 8 4 1.00000000 0 3.50000000 0.00000000 0.04000000 -0.04059168
Neuron 9 4 1.00000000 9 3.50000000 0.00000000 0.04728239 0.67549971
Neuron 52 3 0.50000000 6 2.81835393 0.00000000 0.11608884 -0.24306566
Neuron 167 3 0.75000000 9 5.72276945 0.00000000 0.20029103 0.71879688
Neuron 173 3 0.62500000 6 3.46530460 0.00000000 0.14700844 0.07485717
Neuron 250 3 0.87500000 6 5.70101943 0.00000000 0.32000815 0.67085987
Link 1 8 1 0 -0.16257443
Link 7 8 7 0 -2.32202819
Link 1 9 8 0 0.00739656
Link 6 9 13 0 0.61537665
Link 7 9 14 0 0.03999424
Link 3 8 419 0 -0.54159667
Link 2 9 1041 0 1.21963515
Link 3 52 1072 0 -0.01719474
Link 1 52 1526 0 0.38868679
Link 52 167 1560 0 0.73831726
Link 52 173 1628 0 -0.32692985
Link 167 173 1711 1 -0.33177058
Link 5 52 2018 0 0.46896620
Link 5 9 2393 0 0.98832440
Link 167 250 2584 0 0.96746144
Link 250 8 2585 0 -0.53924049
Link 173 9 2631 0 -0.29867704
GenomeEnd

GenomeStart 40684
Neuron 1 1 0.00000000 1 0.00000000 0.00000000 0.00000000 0.00000000
Neuron 2 1 0.00000000 1 0.00000000 0.00000000 0.00000000 0.00000000
Neuron 3 1 0.00000000 1 0.00000000 0.00000000 0.00000000 0.00000000
Neuron 4 1 0.00000000 1 0.00000000 0.00000000 0.00000000 0.00000000
Neuron 5 1 0.00000000 1 0.00000000 0.00000000 0.00000000 0.00000000
Neuron 6 1 0.00000000 1 0.00000000 0.00000000 0.00000000 0.00000000
Neuron 7 2 0.00000000 1 0.00000000 0.00000000 0.00000000 0.00000000
Neuron 8 4 1.00000000 0 3.50000000 0.00000000 0.04000000 -0.04059168
Neuron 9 4 1.00000000 9 3.50000000 0.00000000 0.04728239 0.67549971
Neuron 52 3 0.50000000 6 2.81835393 0.00000000 0.09104386 -0.24306566
Neuron 167 3 0.75000000 9 5.72276945 0.00000000 0.20029103 0.71879688
Neuron 173 3 0.62500000 6 3.46530460 0.00000000 0.14700844 0.07485717
Neuron 250 3 0.87500000 6 5.70101943 0.00000000 0.32000815 0.67085987
Link 1 8 1 0 0.17228670
Link 7 8 7 0 -2.53659414
Link 1 9 8 0 -0.11052982
Link 6 9 13 0 0.66394639
Link 7 9 14 0 -0.23541586
Link 3 8 419 0 -0.40898141
Link 2 9 1041 0 -0.58268368
Link 3 52 1072 0 -0.29157030
Link 1 52 1526 0 -0.13747438
Link 52 167 1560 0 1.01449785
Link 52 173 1628 0 -0.45934704
Link 167 173 1711 1 0.14837257
Link 5 52 2018 0 0.63959453
Link 5 9 2393 0 1.27683342
Link 167 250 2584 0 1.27703789
Link 250 8 2585 0 -0.19622587
Link 173 9 2631 0 0.05526300
GenomeEnd

GenomeStart 40685
Neuron 1 1 0.00000000 1 0.00000000 0.00000000 0.00000000 0.00000000
Neuron 2 1 0.00000000 1 0.00000000 0.00000000 0.00000000 0.00000000
Neuron 3 1 0.00000000 1 0.00000000 0.00000000 0.00000000 0.00000000
Neuron 4 1 0.00000000 1 0.00000000 0.00000000 0.00000000 0.00000000
Neuron 5 1 0.00000000 1 0.00000000 0.00000000 0.00000000 0.00000000
Neuron 6 1 0.00000000 1 0.00000000 0.00000000 0.00000000 0.00000000
Neuron 7 2 0.00000000 1 0.00000000 0.00000000 0.00000000 0.00000000
Neuron 8 4 1.00000000 0 3.50000000 0.00000000 0.04000000 -0.04059168
Neuron 9 4 1.00000000 9 3.50000000 0.00000000 0.04728239 0.67549971
Neuron 52 3 0.50000000 6 2.81835393 0.00000000 0.09104386 -0.24306566
Neuron 167 3 0.75000000 9 5.72276945 0.00000000 0.20029103 0.71879688
Neuron 173 3 0.62500000 6 3.46530460 0.00000000 0.14700844 0.07485717
Neuron 250 3 0.87500000 6 5.70101943 0.00000000 0.32000815 0.67085987
Link 1 8 1 0 0.17228670
Link 7 8 7 0 -2.53659414
Link 1 9 8 0 -0.11052982
Link 6 9 13 0 0.66394639
Link 7 9 14 0 0.03999424
Link 3 8 419 0 -0.54159667
Link 2 9 1041 0 1.21963515
Link 3 52 1072 0 -0.29157030
Link 1 52 1526 0 0.38868679
Link 52 167 1560 0 0.73831726
Link 52 173 1628 0 -0.45934704
Link 167 173 1711 1 -0.33177058
Link 5 52 2018 0 0.63959453
Link 5 9 2393 0 0.98832440
Link 167 250 2584 0 1.27703789
Link 250 8 2585 0 -0.19622587
Link 173 9 2631 0 -0.29867704
GenomeEnd

GenomeStart 40686
Neuron 1 1 0.00000000 1 0.00000000 0.00000000 0.00000000 0.00000000
Neuron 2 1 0.00000000 1 0.00000000 0.00000000 0.00000000 0.00000000
Neuron 3 1 0.00000000 1 0.00000000 0.00000000 0.00000000 0.00000000
Neuron 4 1 0.00000000 1 0.00000000 0.00000000 0.00000000 0.00000000
Neuron 5 1 0.00000000 1 0.00000000 0.00000000 0.00000000 0.00000000
Neuron 6 1 0.00000000 1 0.00000000 0.00000000 0.00000000 0.00000000
Neuron 7 2 0.00000000 1 0.00000000 0.00000000 0.00000000 0.00000000
Neuron 8 4 1.00000000 0 3.50000000 0.00000000 0.04000000 -0.04059168
Neuron 9 4 1.00000000 9 3.50000000 0.00000000 0.04728239 0.67549971
Neuron 52 3 0.50000000 6 2.81835393 0.00000000 0.09104386 -0.24306566
Neuron 167 3 0.75000000 9 5.72276945 0.00000000 0.20029103 0.71879688
Neuron 173 3 0.62500000 6 3.46530460 0.00000000 0.14700844 0.07485717
Neuron 250 3 0.87500000 6 5.70101943 0.00000000 0.32000815 0.67085987
Link 1 8 1 0 -0.14302537
Link 7 8 7 0 -2.68290878
Link 1 9 8 0 -0.26057881
Link 6 9 13 0 0.82310031
Link 7 9 14 0 -0.34620072
Link 3 8 419 0 -0.66286486
Link 2 9 1041 0 -0.35181891
Link 3 52 1072 0 -0.23312584
Link 1 52 1526 0 0.24262174
Link 52 167 1560 0 0.88232172
Link 52 173 1628 0 -0.61274182
Link 167 173 1711 1 0.34289824
Link 5 52 2018 0 0.40518746
Link 5 9 2393 0 1.15286975
Link 167 250 2584 0 1.45612368
Link 250 8 2585 0 0.44138785
Link 173 9 2631 0 0.13825440
GenomeEnd

GenomeStart 40688
Neuron 1 1 0.00000000 1 0.00000000 0.00000000 0.00000000 0.00000000
Neuron 2 1 0.00000000 1 0.00000000 0.00000000 0.00000000 0.00000000
Neuron 3 1 0.00000000 1 0.00000000 0.00000000 0.00000000 0.00000000
Neuron 4 1 0.00000000 1 0.00000000 0.00000000 0.00000000 0.00000000
Neuron 5 1 0.00000000 1 0.00000000 0.00000000 0.00000000 0.00000000
Neuron 6 1 0.00000000 1 0.00000000 0.00000000 0.00000000 0.00000000
Neuron 7 2 0.00000000 1 0.00000000 0.00000000 0.00000000 0.00000000
Neuron 8 4 1.00000000 0 3.50000000 0.00000000 0.04000000 -0.04059168
Neuron 9 4 1.00000000 9 3.50000000 0.00000000 0.04728239 0.67549971
Neuron 52 3 0.50000000 6 2.81835393 0.00000000 0.09104386 -0.24306566
Neuron 167 3 0.75000000 9 5.72276945 0.00000000 0.20029103 0.71879688
Neuron 173 3 0.62500000 6 3.46530460 0.00000000 0.14700844 0.07485717
Neuron 250 3 0.87500000 6 5.70101943 0.00000000 0.32000815 0.67085987
Link 1 8 1 0 0.17228670
Link 7 8 7 0 -2.32202819
Link 1 9 8 0 -0.06887212
Link 6 9 13 0 0.66394639
Link 7 9 14 0 -0.23541586
Link 3 8 419 0 -0.54159667
Link 2 9 1041 0 1.09524783
Link 3 52 1072 0 -0.29157030
Link 1 52 1526 0 -0.13747438
Link 52 167 1560 0 0.73831726
Link 52 173 1628 0 -0.45934704
Link 167 173 1711 1 0.14837257
Link 5 52 2018 0 0.63959453
Link 5 9 2393 0 1.27683342
Link 167 250 2584 0 1.27703789
Link 250 8 2585 0 -0.19622587
Link 173 9 2631 0 0.05526300
GenomeEnd

GenomeStart 40689
Neuron 1 1 0.00000000 1 0.00000000 0.00000000 0.00000000 0.00000000
Neuron 2 1 0.00000000 1 0.00000000 0.00000000 0.00000000 0.00000000
Neuron 3 1 0.00000000 1 0.00000000 0.00000000 0.00000000 0.00000000
Neuron 4 1 0.00000000 1 0.00000000 0.00000000 0.00000000 0.00000000
Neuron 5 1 0.00000000 1 0.00000000 0.00000000 0.00000000 0.00000000
Neuron 6 1 0.00000000 1 0.00000000 0.00000000 0.00000000 0.00000000
Neuron 7 2 0.00000000 1 0.00000000 0.00000000 0.00000000 0.00000000
Neuron 8 4 1.00000000 0 3.50000000 0.00000000 0.04000000 -0.04059168
Neuron 9 4 1.00000000 9 3.50000000 0.00000000 0.04728239 0.67549971
Neuron 52 3 0.50000000 6 2.81835393 0.00000000 0.11608884 -0.24306566
Neuron 167 3 0.75000000 9 5.72276945 0.00000000 0.20029103 0.71879688
Neuron 173 3 0.62500000 6 3.46530460 0.00000000 0.14700844 0.07485717
Neuron 250 3 0.87500000 6 5.70101943 0.00000000 0.32000815 0.67085987
Link 1 8 1 0 -0.16257443
Link 7 8 7 0 -2.53659414
Link 1 9 8 0 0.00739656
Link 6 9 13 0 0.61537665
Link 7 9 14 0 0.03999424
Link 3 8 419 0 -0.54159667
Link 2 9 1041 0 -0.58268368
Link 3 52 1072 0 -0.29157030
Link 1 52 1526 0 0.38868679
Link 52 167 1560 0 1.01449785
Link 52 173 1628 0 -0.32692985
Link 167 173 1711 1 0.14837257
Link 5 52 2018 0 0.63959453
Link 5 9 2393 0 1.27683342
Link 167 250 2584 0 1.27703789
Link 250 8 2585 0 -0.19622587
Link 173 9 2631 0 0.05526300
GenomeEnd

GenomeStart 40690
Neuron 1 1 0.00000000 1 0.00000000 0.00000000 0.00000000 0.00000000
Neuron 2 1 0.00000000 1 0.00000000 0.00000000 0.00000000 0.00000000
Neuron 3 1 0.00000000 1 0.00000000 0.00000000 0.00000000 0.00000000
